[-0.0011707217199727893, 0.010887108743190765, 0.002067912369966507, 0.006715221330523491, 0.006378887686878443, 0.0019951697904616594, -0.0062127308920025826, -0.0033476357348263264, 0.007590059190988541, -0.0077402484603226185, -0.004098283126950264, 0.007725464180111885, -0.0177835151553154, 0.0005874532507732511, -0.013161594048142433, 0.0033519656863063574, -0.009128190577030182, 0.005591909401118755, 0.010674367658793926, -0.006212677340954542, 0.0030138941947370768, -0.010362591594457626, 0.011546487919986248, -0.01872735284268856, -0.005739790387451649, 0.005004069302231073, 0.006871255114674568, 0.010772474110126495, -0.0017238202271983027, 0.002464915858581662, -0.01347529049962759, 0.015590490773320198, -0.016095146536827087, 0.0028353105299174786, 0.0038533706683665514, -0.007471571676433086, -0.02609792910516262, -0.009115492925047874, 0.0012756283394992352, -0.00651194155216217, -0.0002330458810320124, 0.0018163409549742937, -0.013145587407052517, 0.005573892965912819, 0.0067953732796013355, 0.013046860694885254, -0.008697581477463245, -0.010084777139127254, 0.01249009557068348, -0.01435538288205862, 0.0031562759540975094, 0.003772952128201723, 7.369830564130098e-05, -0.004421812016516924, -0.012319623492658138, 0.006398175843060017, -0.013924339786171913, -0.011963782832026482, -0.008560129441320896, -0.002477099886164069, -0.010595196858048439, 0.011193811893463135, 0.0017524522263556719, 0.0016905012307688594, 0.0007231188355945051, -0.00939280353486538, 0.015612429939210415, 0.009409732185304165, -0.011422562412917614, 0.012201230973005295, -0.012186618521809578, 0.010434644296765327, -0.014236588031053543, 0.01762598566710949, 0.004596062004566193, -0.04928699508309364, 0.006392639596015215, 0.0103733716532588, -0.0027237869799137115, 0.005481819622218609, 0.00455988897010684, -0.022954992949962616, 0.015730014070868492, -0.012687910348176956, 0.013966115191578865, 0.013628223910927773, -0.005866576451808214, -0.008673373609781265, 0.012870533391833305, -0.012887954711914062, -0.017345082014799118, 0.00021605522488243878, 0.02559935860335827, -0.06247011572122574, -0.015455256216228008, -0.002505485899746418, -0.00396701181307435, -0.00770507613196969, 0.006985445506870747, -0.0026282777544111013, -0.0015162667259573936, -0.0070521594025194645, -0.0028348397463560104, -0.004641902633011341, -0.027342984452843666, -0.003575853770598769, 0.00423971563577652, -0.0017899458762258291, 0.011398819275200367, 0.0006989203975535929, -0.0015698503702878952, 0.006229594349861145, -0.006703534163534641, -0.009264522232115269, -0.002286323346197605, -0.003805898129940033, 0.0008888099109753966, 0.000848164374474436, -0.003701317822560668, -0.011688274331390858, -0.009222631342709064, 0.007039576303213835, 0.012822225689888, -0.015411712229251862, -0.011525929905474186, -0.0017535742372274399, 0.0053097340278327465, 0.02346278540790081]
