[-0.4099310338497162, 0.17015451192855835, 0.2333807796239853, 0.062117937952280045, -0.36543649435043335, 0.19392390549182892, 0.2525014579296112, 0.3478568494319916, 0.09678133577108383, -0.41845840215682983, 0.2565291225910187, -0.5229881405830383, 0.10755588114261627, 0.23196983337402344, 0.2448207587003708, -0.4609042704105377, 0.13392800092697144, 0.13819542527198792, -0.571937620639801, -0.3270586133003235, 0.022734535858035088, -0.3733903169631958, -0.5437482595443726, -0.3548596203327179, 0.22201043367385864, 0.14209681749343872, 0.02821575105190277, -0.46407124400138855, 0.09519919753074646, -0.3529896140098572, -0.4586564004421234, -0.4545993506908417, -0.44542986154556274, -0.2737744450569153, -0.5807595252990723, 0.2777470648288727, -0.32395800948143005, -0.2761644124984741, 0.14480531215667725, 0.22988098859786987, -0.26943305134773254, -0.36813533306121826, -0.32393360137939453, 0.14435139298439026, 0.08517155051231384, -0.4763225317001343, 0.24033211171627045, 0.2022281438112259, 0.20602595806121826, -0.4239078760147095, 0.11273900419473648, -0.404655396938324, -0.38534337282180786, -0.3302328586578369, -0.24597471952438354, -0.5566786527633667, 0.2818964123725891, -0.2976662218570709, -0.3347901999950409, 0.048183221369981766, -0.462545782327652, -0.3426274061203003, 0.34599044919013977, -0.3660022020339966, -0.4975683391094208, 0.1499207466840744, -0.6226223707199097, 0.10615889728069305, 0.128046452999115, -0.5714154839515686, 0.1280668079853058, -0.346900075674057, -0.3963466286659241, -0.352119505405426, 0.11237197369337082, -0.10007862001657486, -0.4857277274131775, -0.45730894804000854, 0.014454917050898075, -0.3873001039028168, -0.6790605187416077, 0.3173832595348358, 0.06373471021652222, 0.22682888805866241, -0.47273194789886475, -0.4889214336872101, -0.35940492153167725, 0.18005581200122833, -0.31210142374038696, 0.11452452093362808, 0.21398700773715973, -0.47092896699905396, -0.5090886354446411, -0.2173459827899933, 0.16294746100902557, 0.1906464546918869, 0.09402070194482803, 0.20428329706192017, 0.2574636936187744, -0.24914862215518951, 0.07827475666999817, -0.14313185214996338, -0.29503169655799866, 0.11429521441459656, 0.18555527925491333, 0.2246713489294052, -0.4423801004886627, 0.023282121866941452, -0.4425258934497833, 0.14229968190193176, 0.2460378259420395, -0.2698379456996918, -0.3431714177131653, 0.23282870650291443, -0.5634803771972656, 0.09458398818969727, -0.48026084899902344, -0.2712922692298889, 0.07430651783943176, -0.23316824436187744, 0.18390652537345886, -0.49753934144973755, 0.18735705316066742, -0.35557588934898376, -0.1358642429113388, -0.3651415705680847, -0.6189475655555725, -0.5448381304740906]
