[-0.14517465233802795, -0.06501132249832153, 0.07592267543077469, -0.16224995255470276, 0.019100632518529892, -0.09113083779811859, -0.01894143596291542, -0.018245117738842964, -0.16793814301490784, 0.07005038112401962, -0.023752886801958084, -0.0061895535327494144, 0.07645226269960403, -0.040808193385601044, -0.004246493801474571, -0.19282497465610504, -0.0942666083574295, -0.004770747385919094, 0.21526652574539185, 0.021070390939712524, -0.10439188778400421, -0.12035688757896423, 0.0741720050573349, -0.022123116999864578, -0.23426611721515656, 0.013510157354176044, -0.0268674585968256, 0.027753883972764015, 0.0863412618637085, -0.14284202456474304, 0.03140022233128548, -0.1185661107301712, 0.04206758365035057, -0.04856186360120773, 0.03077051416039467, -0.03564117103815079, -0.044265151023864746, -0.07531099021434784, -0.1910140961408615, 0.05569833517074585, 0.08333093672990799, -0.20238278806209564, -0.051279760897159576, -0.035700321197509766, -0.22814111411571503, 0.06461483240127563, 0.00864357128739357, 0.17446428537368774, 0.21191537380218506, 0.05823885276913643, 0.1623513102531433, 0.14130786061286926, 0.030626200139522552, 0.11712855100631714, 0.19224607944488525, -0.14565357565879822, 0.18297450244426727, 0.025022558867931366, 0.02744818851351738, 0.043140094727277756, -0.16207394003868103, 0.050843723118305206, -0.1785350888967514, 0.21962040662765503, -0.026935694739222527, -0.046093907207250595, -0.16335013508796692, -0.012495884671807289, 0.011989039368927479, -0.0932091698050499, 0.11205252259969711, -0.18119245767593384, -0.06036407873034477, 0.06591260433197021, -0.0747305303812027, 0.11323254555463791, -0.21223998069763184, -0.194232776761055, 0.07016262412071228, 0.2103324830532074, -0.15405596792697906, -0.004747604485601187, 0.20651903748512268, 0.072842538356781, 0.13137416541576385, 0.1739092618227005, -0.1465476006269455, -0.14568699896335602, -0.12210015207529068, 0.18927699327468872, 0.09962627291679382, 0.15744876861572266, -0.07585778087377548, 0.04477342963218689, -0.23988519608974457, 0.11420799791812897, -0.22096401453018188, -0.13880501687526703, 0.11907615512609482, 0.21088826656341553, 0.012333250604569912, -0.03985825926065445, 0.00879527349025011, -0.1410980373620987, -0.11177220940589905, -0.033532194793224335, -0.17121247947216034, 0.16370350122451782, -0.0391722172498703, -0.030788404867053032, -0.05311688035726547, -0.019576186314225197, 0.020520959049463272, 0.019280770793557167, -0.07804617285728455, 0.08517500013113022, 0.2260531783103943, 0.174157053232193, 0.0409759059548378, 0.2426120489835739, -0.15631245076656342, -0.1609545350074768, -0.08886890858411789, -0.19845056533813477, -0.026313506066799164, -0.1463475078344345, 0.06072625145316124, -0.02008422650396824, 0.03436506167054176, -0.018745319917798042, -0.02914881892502308, 0.15382641553878784, 0.036222394555807114, 0.12766335904598236, 0.2982054352760315, 0.14878959953784943, 0.20491740107536316, -0.17190630733966827, 0.2835236191749573, 0.14371734857559204, -0.2920215129852295, 0.2565512955188751, 0.1710355430841446, 0.14310477674007416, -0.00010979874059557915, 0.2409873902797699, -0.12478078156709671, -0.1627659946680069, 0.23385445773601532, 0.20747199654579163, -0.24079902470111847, 0.0251737330108881, 0.1540156751871109, 0.26963475346565247, 0.0034306207671761513, -0.019455673173069954, -0.15081769227981567, -0.010761670768260956, 0.05610167980194092, 0.2778347432613373, 0.26863017678260803, 0.19221137464046478, 0.15586070716381073, -0.15528464317321777, -0.1395806521177292, 0.1185564398765564, 0.1966637521982193, 0.14221279323101044, -0.2887304723262787, 0.05264399200677872, 0.09457165002822876, 0.28572461009025574, 0.24752865731716156, -0.013606206513941288, 0.0357951894402504, -0.07311789691448212, -0.06974732875823975, -0.13787901401519775, -0.16112667322158813, -0.2985009551048279, 0.22232088446617126, -0.28262999653816223, -0.10762953758239746, 0.10739871114492416, -0.037869643419981, -0.28954917192459106, -0.06378762423992157, 0.04944685474038124, 0.1154828891158104, 0.03955848142504692, 0.019426440820097923, -0.1347663551568985, 0.07523060590028763, -0.10407985746860504, 0.2739601135253906, -0.1733788251876831, -0.1869775652885437, 0.014430535957217216, -0.035429514944553375, 0.130597323179245, 0.21805287897586823, -0.10077498853206635, 0.1159454807639122, -0.24963757395744324, 0.15841014683246613, 0.27240365743637085, -0.20041190087795258, -0.09751424193382263, 0.12392953783273697, 0.22768670320510864, -0.12367170304059982, 0.18954618275165558, -0.02504323609173298, -0.21127058565616608, 0.07701783627271652, 0.24966341257095337, 0.0543547160923481, -0.03522517904639244, -0.08364908397197723, -0.2304917573928833, 0.2783799171447754, -0.29342707991600037, 0.2583349347114563, -0.20070584118366241, 0.08598051220178604, 0.27867478132247925, -0.0688905417919159, -0.16467295587062836, 0.142628014087677, 0.13852064311504364, 0.2835977375507355, 0.08450682461261749, 0.08824019879102707, 0.12175929546356201, 0.05292634293437004, -0.10181889683008194, -0.2789856493473053, -0.12312212586402893, 0.09596262127161026, 0.026395617052912712, 0.22764982283115387, 0.24633216857910156, 0.1242193952202797, -0.038821134716272354, -0.1581498384475708, -0.06070573255419731, -0.28793737292289734, -0.027506716549396515, 0.22137150168418884, 0.2600199580192566, 0.1388777196407318, 0.09655570238828659, -0.08998258411884308, 0.22342270612716675, -0.2832093834877014, -0.27084752917289734, 0.10044024139642715, -0.005439703352749348, -0.16306783258914948, -0.04877800866961479, 0.08182776719331741, -0.03536929562687874, 0.05277084559202194, 0.08856439590454102, -0.010398801416158676, -0.16738739609718323, 0.17204037308692932, 0.012842199765145779, -0.03758333623409271, 0.017830416560173035, 0.1794338822364807, 0.09756283462047577, 0.04575931653380394, 0.021572023630142212, -0.06561785191297531, 0.034901950508356094, 0.0781114473938942, 0.14568185806274414, -0.15035368502140045, 0.042190130800008774, -0.0440744124352932, -0.05155319347977638, 0.18742898106575012, -0.20128415524959564, -0.163517028093338, 0.08562234789133072, 0.04967005178332329, 0.2138262689113617, 0.1487920880317688, 0.16793715953826904, 0.002714363159611821, 0.07372915744781494, 0.0700683742761612, 0.1676502823829651, 0.15154406428337097, -0.0821150541305542, -0.05289605259895325, 0.12931856513023376, 0.05918435379862785, 0.20372389256954193, -0.057892318814992905, 0.07777293026447296, 0.19499485194683075, -0.20589184761047363, -0.10053197294473648, 0.01739303022623062, -0.08908538520336151, -0.22427573800086975, -0.0655619278550148, 0.0054742153733968735, -0.0775202289223671, 0.06576712429523468, -0.03866549953818321, 0.06485889852046967, -0.04230980575084686, 0.18019233644008636, -0.04687974974513054, -0.026637407019734383, 0.030725741758942604, -0.16862300038337708, 0.0057824281975626945, -0.024220656603574753, 0.0995502918958664, -0.07470573484897614, -0.011402738280594349, 0.10889305174350739, -0.18040555715560913, 0.03042633831501007, 0.17921090126037598, 0.06216699257493019, 0.10440681874752045, 0.003505391301587224, 0.2083248496055603, 0.0846843272447586, 0.09368547052145004, 0.049633558839559555, 0.06790342926979065, -0.09521511942148209, -0.06537090986967087, 0.08811162412166595, -0.1318022757768631, -0.027562111616134644, 0.19354291260242462, -0.04104513302445412, 0.12252958863973618, 0.03800882771611214, -0.15341587364673615, -0.08921441435813904, 0.19098080694675446, -0.16989214718341827, 0.044218603521585464, 0.024447398260235786, 0.17251211404800415, 0.1965521275997162, 0.06557653099298477, -0.07811423391103745, 0.05969760939478874, 0.08919607847929001, 0.11157350987195969, 0.03947136923670769, 0.07938973605632782, 0.10717721283435822, -0.008206719532608986, -0.02310679666697979, -0.15852703154087067, -0.1326981782913208, 0.18295790255069733, 0.1615304946899414, 0.14435330033302307, -0.08157747983932495, 0.15439610183238983, -0.06729874014854431, 0.04775966703891754, -0.03352108597755432, -0.1939290463924408, -0.18943719565868378, -0.09144087880849838, 0.05569067597389221, 0.047909773886203766, -0.055123064666986465, -0.1938302367925644, -0.010200471617281437, -0.19858117401599884, -0.16894082725048065, 0.08116590231657028, -0.1347266584634781, -0.14282545447349548, 0.07257522642612457, 0.29363876581192017, 0.21627472341060638, 0.20571185648441315, 0.11464014649391174, 0.19349558651447296, -0.3039144277572632, 0.22306841611862183, 0.2814505398273468, -0.29030507802963257, 0.051762357354164124, 0.18917374312877655, 0.02205384522676468, 0.2600785195827484, 0.10044041275978088, -0.22557862102985382, -0.11835208535194397, 0.2056453824043274, 0.11904050409793854, -0.20748111605644226, 0.2717762887477875, 0.27992627024650574, 0.1127852350473404, 0.15138188004493713, -0.3085559904575348, -0.009639947675168514, 0.15440617501735687, 0.06242763251066208, 0.20652657747268677, 0.15080642700195312, 0.04910729452967644, 0.24866725504398346, -0.09792359918355942, -0.24290874600410461, 0.20965461432933807, 0.0624532625079155, 0.033091604709625244, -0.19252479076385498, 0.2223135530948639, 0.291761189699173, 0.02680373005568981, 0.21264131367206573, -0.11896931380033493, 0.2132382094860077, -0.2534157633781433, -0.26933225989341736, -0.2052428275346756, -0.3024900257587433, -0.1779438555240631, 0.2562979757785797, -0.3192189335823059, -0.09783130884170532, 0.2681324779987335, -0.2995700538158417, -0.1290307492017746, -0.12530843913555145, 0.2876030206680298, 0.3262712359428406, 0.11678818613290787, 0.24937517940998077, -0.18760694563388824, 0.1529056578874588, -0.11902902275323868, 0.18789821863174438, -0.26854023337364197, -0.04007356986403465, 0.1931924670934677, -0.2002028226852417, 0.1940656155347824, 0.2674296200275421, -0.13385002315044403, 0.2632605731487274, -0.27038809657096863, 0.26679736375808716, 0.12994608283042908, -0.06066171079874039, -0.30328992009162903, 0.28730905055999756, 0.056896600872278214, -0.22494012117385864, 0.21385085582733154, -0.15079419314861298, -0.25091901421546936, 0.062284089624881744, 0.19614678621292114, 0.21083052456378937, -0.1412854641675949, -0.24017353355884552, -0.08060599863529205, 0.037324391305446625, -0.05642031133174896, 0.006659417878836393, -0.1502608209848404, 0.2080887109041214, 0.24587342143058777, -0.28050121665000916, -0.12224335968494415, 0.1606844663619995, 0.03959537670016289, 0.17293424904346466, 0.2507771849632263, 0.22333259880542755, 0.21968092024326324, 0.1940513551235199, -0.06215565279126167, -0.2501774728298187, -0.23151451349258423, 0.17666752636432648, 0.2787781357765198, 0.24981774389743805, 0.04022789001464844, 0.020197950303554535, -0.06969845294952393, -0.23626206815242767, -0.016413170844316483, -0.2907331883907318, -0.2066822350025177, 0.06088041141629219, 0.16171936690807343, 0.23763030767440796, 0.19251613318920135, -0.1641153246164322, 0.2800423204898834, -0.10095375776290894, -0.11828268319368362, -0.06890744715929031, 0.051344819366931915, -0.06178337335586548, -0.025533810257911682, -0.052668191492557526, -0.03890319541096687, -0.13588906824588776, -0.1349814534187317, -0.07940010726451874, 0.03775250166654587, -0.1981515735387802, -0.006595956161618233, 0.20024459064006805, -0.22905726730823517, -0.01788121834397316, -0.03468082472681999, -0.13760797679424286, -0.22570659220218658, 0.18975968658924103, 0.08587668836116791, -0.11378855258226395, 0.02816595509648323, 0.03601850941777229, -0.13893446326255798, -0.023699957877397537, -0.025416679680347443, -0.09572139382362366, 0.1572694331407547, 0.19431766867637634, -0.010908560827374458, -0.10192222893238068, -0.04738638922572136, -0.09124576300382614, -0.1174888014793396, -0.20941029489040375, 0.15261968970298767, 0.02866511419415474, -0.23485638201236725, -0.14803414046764374, -0.16126324236392975, 0.23326757550239563, -0.06441103667020798, -0.06836940348148346, -0.010349215939640999, 0.013455016538500786, 0.0649300068616867, 0.040149085223674774, 0.1912320852279663, 0.061263661831617355, 0.060417938977479935, -0.019339118152856827, 0.11329030245542526, -0.05272115767002106, 0.11934998631477356, 0.010503530502319336, -0.20042870938777924, 0.1376759111881256, -0.0037607529666274786, 0.03778783231973648, -0.12804944813251495, -0.09353436529636383, -0.20958645641803741, -0.16243186593055725, -0.05991755798459053, -0.11292604357004166, 0.24359053373336792, 0.03044058009982109, 0.143243670463562, 0.13545098900794983, -0.19084689021110535, 0.1232021376490593, -0.10392601042985916, -0.07338159531354904, 0.07635857909917831, 0.017982739955186844, 0.12754106521606445, -0.0954456627368927, 0.017535721883177757, 0.17316830158233643, -0.045785464346408844, -0.09752413630485535, 0.029796866700053215, -0.06022242456674576, 0.058916572481393814, 0.10322707146406174, 0.08806292712688446, -0.045389287173748016, -0.006021433509886265, -0.22816774249076843, 0.13390131294727325, 0.1360444873571396, 0.2193211317062378, 0.01065804809331894, 0.22611001133918762, -0.09556003659963608, -0.01114640012383461, -0.14553913474082947, -0.12093229591846466, -0.05848851799964905, 0.1930195391178131, 0.01786811091005802, -0.1534416675567627, -0.15695638954639435, -0.0541638545691967, -0.2085341066122055, -0.16309292614459991, 0.06334632635116577, -0.04594307765364647, 0.07952918112277985, 0.10601454973220825, -0.04615437239408493, -0.069392129778862, -0.008495090529322624, -0.03710174188017845, -0.09883467853069305, 0.1515205353498459, -0.03641032427549362, 0.17824798822402954, 0.08774173259735107, 0.24764278531074524, -0.25353753566741943, -0.07055870443582535, -0.18845351040363312, -0.12754502892494202, 0.18631206452846527, -0.19856610894203186, -0.013300525955855846, -0.05819426476955414, -0.17005804181098938, 0.19404298067092896, 0.31410303711891174, -0.03996037319302559, -0.16859567165374756, -0.22936715185642242, -0.02160121500492096, -0.3103445768356323, -0.11749548465013504, 0.10054949671030045, -0.04324931278824806, -0.05282251909375191, 0.22593563795089722, -0.3273167014122009, -0.25313031673431396, -0.3458482325077057, -0.2632974684238434, -0.24559321999549866, 0.09649422019720078, 0.07424312084913254, -0.13244614005088806, -0.1907636821269989, 0.253439337015152, -0.15545876324176788, -0.10919692367315292, -0.2771843373775482, -0.22867287695407867, 0.04429100826382637, 0.16846349835395813, -0.07000073045492172, -0.2939724922180176, -0.21213066577911377, -0.1270439326763153, -0.22389286756515503, -0.0648382380604744, 0.06211642548441887, 0.15823158621788025, -0.1353926807641983, -0.060675255954265594, -0.1511688381433487, 0.3278603255748749, -0.3001614809036255, -0.15623533725738525, -0.11344096064567566, -0.15081889927387238, 0.3189285695552826, -0.24160084128379822, 0.23634563386440277, 0.1816125214099884, 0.2071048766374588, 0.16138987243175507, 0.08543533831834793, -0.25965258479118347, 0.28087228536605835, 0.2543305456638336, -0.10466431081295013, 0.2903839349746704, 0.08144818246364594, 0.21606697142124176, -0.3310341536998749, -0.04678168147802353, -0.056919608265161514, -0.22903203964233398, 0.2981056272983551, -0.24052728712558746, 0.12247743457555771, -0.09279032051563263, 0.3317897617816925, 0.12753888964653015, -0.21957466006278992, 0.30259042978286743, -0.25385719537734985, -0.1462925374507904, 0.11063555628061295, -0.32900553941726685, 0.27548694610595703, -0.16678257286548615, -0.27577194571495056, 0.2854970097541809, 0.21932239830493927, -0.027813708409667015, -0.06260737031698227, 0.162398099899292, -0.20212674140930176, 0.08202333003282547, 0.09398998320102692, -0.2856895923614502, -0.27466461062431335, -0.13010703027248383, 0.1785057634115219, 0.13599486649036407, 0.1361914575099945, -0.07165651768445969, 0.07878709584474564, -0.3118096590042114, 0.09407608956098557, -0.28028416633605957, -0.29968318343162537, 0.15913525223731995, 0.021375901997089386, -0.297823429107666, -0.2944878041744232, -0.22762559354305267, -0.2901608347892761, -0.04792920872569084, -0.1857690066099167, -0.15176108479499817, 0.3268328905105591, 0.26214468479156494, 0.18815664947032928, -0.20312902331352234, -0.27237191796302795, -0.13202697038650513, -0.2722872197628021, -0.1672275811433792, 0.0771557092666626, 0.12728463113307953, 0.2661231458187103, 0.21526500582695007, 0.10926652699708939, -0.2254987508058548, -0.13516512513160706, -0.19715413451194763, -0.3112243413925171, 0.14591512084007263, -0.29353633522987366, 0.05022153630852699, 0.14891934394836426, 0.30531045794487, -0.2299874722957611, -0.31472307443618774, 0.18863508105278015, 0.14223162829875946, 0.15093137323856354, 0.2559376358985901, 0.18194520473480225, 0.24840889871120453, -0.2555420398712158, 0.03979264944791794, 0.30203700065612793, -0.11743181943893433, 0.24542087316513062, 0.3116164803504944, 0.2981080710887909, 0.18344531953334808, 0.21645648777484894, -0.139875128865242, -0.2916269302368164, 0.11425009369850159, 0.12889431416988373, -0.13798150420188904, 0.19027860462665558, 0.3198698163032532, 0.05429361015558243, 0.2506552040576935, -0.26299619674682617, -0.03654446825385094, 0.30971649289131165, 0.2953910231590271, 0.05846738442778587, 0.32672733068466187, 0.23692919313907623, 0.11847241222858429, -0.0641942098736763, -0.20606456696987152, 0.34859833121299744, 0.05062834173440933, 0.2388256937265396, -0.09079832583665848, 0.1287282556295395, 0.23934988677501678, 0.05856896564364433, 0.1653086245059967, -0.05339880287647247, 0.23003235459327698, -0.11645185947418213, -0.24058903753757477, -0.3403233587741852, -0.15662778913974762, -0.1504935473203659, 0.18529009819030762, -0.1485786885023117, -0.3019811809062958, 0.28764185309410095, -0.18841153383255005, -0.13405534625053406, -0.14740507304668427, 0.10066627711057663, 0.23961935937404633, 0.27011436223983765, 0.34823593497276306, -0.058259766548871994, 0.3383246958255768, -0.10443660616874695, 0.3033391237258911, -0.1540987193584442, -0.14491616189479828, 0.16167864203453064, -0.12537406384944916, 0.2889927327632904, 0.15940222144126892, -0.2943696975708008, 0.3196210265159607, -0.32467442750930786, 0.33783164620399475, 0.2659212350845337, -0.26841065287590027, -0.1496490091085434, 0.2447514832019806, 0.2892646789550781, -0.08926110714673996, 0.29043495655059814, -0.06381379812955856, -0.03721455857157707, 0.018527885898947716, 0.12658528983592987, 0.1536336988210678, -0.10725639015436172, -0.1285422295331955, -0.05237116292119026, 0.17009679973125458, -0.17604808509349823, 0.060426339507102966, -0.013973403722047806, 0.13338907063007355, 0.1794855296611786, -0.23703861236572266, -0.26408636569976807, 0.10578330606222153, 0.2722870707511902, 0.3578203022480011, 0.02993052452802658, 0.09829899668693542, 0.1879444420337677, 0.11194425821304321, -0.2507939040660858, -0.17018921673297882, -0.24069979786872864, 0.2953087091445923, 0.025704702362418175, 0.13272243738174438, 0.30255767703056335, 0.08685987442731857, -0.039019323885440826, -0.13010412454605103, -0.07975996285676956, -0.2519078552722931, -0.3411858379840851, 0.19421172142028809, 0.1601143479347229, 0.2944817543029785, 0.07771389186382294, -0.14713750779628754, 0.14714398980140686, -0.13210301101207733, -0.315317839384079, 0.1509886533021927, -0.11694961786270142, -0.08451466262340546, 0.1857859343290329, 0.01897583343088627, 0.16497446596622467, 0.07528181374073029, 0.18546618521213531, 0.23140744864940643, -0.2839154303073883, 0.18930169939994812, 0.21777288615703583, -0.19551688432693481, -0.011622900143265724, 0.21305780112743378, 0.20009593665599823, 0.04877897724509239, 0.23809383809566498, -0.019359715282917023, -0.14023666083812714, 0.28399547934532166, 0.041423942893743515, -0.22140243649482727, 0.08273965865373611, 0.10264267027378082, 0.04614628106355667, 0.2280549556016922, -0.22563481330871582, -0.030143026262521744, 0.0850057452917099, 0.18051356077194214, 0.1437889039516449, 0.10051416605710983, 0.2255040556192398, 0.27976030111312866, -0.15063127875328064, -0.2876114249229431, 0.27642884850502014, 0.04517053812742233, 0.03691612556576729, -0.006614745128899813, 0.1223796010017395, 0.2391185164451599, 0.11268983036279678, 0.20394113659858704, -0.0910678431391716, 0.026780569925904274, -0.26693257689476013, -0.14470051229000092, -0.23096953332424164, -0.0549880675971508, -0.10092167556285858, 0.28330713510513306, -0.30225929617881775, -0.16785340011119843, 0.018053697422146797, -0.28909868001937866, -0.11210181564092636, -0.03198256343603134, 0.25242170691490173, 0.03566623851656914, 0.18445707857608795, 0.1296776384115219, -0.1942417025566101, 0.007843640632927418, -0.0644759088754654, 0.08076643943786621, -0.1176665648818016, -0.27572301030158997, 0.05635643005371094, -0.23917408287525177, 0.22836604714393616, 0.2544581890106201, -0.04258237034082413, 0.13268034160137177, -0.05216012895107269, 0.0765950083732605, 0.05546198785305023, -0.22998569905757904, -0.2956492006778717, 0.06723365187644958, -0.0014670179225504398, -0.08927754312753677, 0.2826762795448303, -0.27601829171180725, -0.29976654052734375, 0.2658464312553406, 0.13010142743587494, 0.2921302914619446, -0.1593589037656784, -0.2476683109998703, -0.02661464549601078, 0.053707581013441086, -0.14764860272407532, 0.1645215004682541, -0.13834653794765472, 0.04454151913523674, 0.17489945888519287, -0.31167614459991455, -0.09515277296304703, 0.05704151839017868, 0.23192660510540009, 0.15988337993621826, 0.26139265298843384, 0.21111592650413513, 0.08464595675468445, 0.21131595969200134, -0.004685656167566776, -0.0453343540430069, -0.09213808178901672, 0.2634263038635254, 0.1737331598997116, 0.13590073585510254, 0.11000028997659683, 0.12061305344104767, 0.009858496487140656, -0.0337509848177433, -0.161698579788208, -0.1438528299331665, -0.2565358579158783, 0.20610010623931885, 0.09835109859704971, 0.26157188415527344, 0.06197169050574303, -0.2346172034740448, 0.11785667389631271, -0.2131529301404953, -0.28854095935821533, 0.20258364081382751, -0.12335746735334396, -0.17053773999214172, 0.05403349921107292, 0.13459599018096924, 0.13697417080402374, 0.23405036330223083, 0.021546438336372375, 0.03029816225171089, -0.15742263197898865, 0.18892259895801544, 0.25696077942848206, -0.06861474364995956, 0.25155025720596313, 0.20993837714195251, 0.045778561383485794, 0.05160443112254143, 0.027973107993602753, -0.18644359707832336, -0.22634318470954895, -0.004277462605386972, 0.03997151553630829, -0.07134204357862473, 0.22746238112449646, 0.04464367777109146, 0.19411636888980865, -0.003092007013037801, -0.044693052768707275, -0.11546095460653305, 0.006718872115015984, 0.11763344705104828, 0.07953299582004547, 0.04651077464222908, 0.1423540860414505, -0.012957626022398472, -0.17662617564201355, -0.2528499662876129, 0.042590849101543427, 0.1387399137020111, 0.14560312032699585, -0.26732802391052246, 0.18277089297771454, 0.2052174061536789, 0.19449444115161896, 0.23359563946723938, -0.09136118739843369, 0.08685818314552307, -0.028027009218931198, -0.08908941596746445, -0.10926088690757751, -0.017900357022881508, -0.2585623562335968, 0.029216891154646873, -0.2338407039642334, -0.21490265429019928, -0.035961367189884186, 0.01950835809111595, -0.06645715236663818, -0.20048876106739044, 0.0363130122423172, 0.16378697752952576, 0.1727038323879242, 0.2577236592769623, -0.07926938682794571, -0.003186374669894576, -0.2221451699733734, 0.003338408889248967, -0.09264060854911804, -0.14236736297607422, 0.032621171325445175, -0.11309609562158585, 0.08966103196144104, 0.01587311178445816, -0.1612391620874405, -0.005468968767672777, -0.1718190461397171, 0.18199193477630615, 0.23147810995578766, -0.07926034182310104, -0.12949587404727936, -0.030604563653469086, 0.082198366522789, -0.16737084090709686, 0.2199077606201172, -0.145368292927742, -0.21115027368068695, 0.199763223528862, 0.18068203330039978, 0.26196885108947754, -0.2545929253101349, -0.25249993801116943, -0.14896844327449799, 0.06346156448125839, -0.11816460639238358, 0.16349585354328156, -0.17526662349700928, -0.022446680814027786, 0.0042938473634421825, -0.03095472790300846, -0.1521376222372055, 0.20051309466362, 0.18318749964237213, 0.14550919830799103, 0.21964949369430542, 0.10932987183332443, 0.24246466159820557, 0.12734954059123993, -0.1018824577331543, -0.26153209805488586, -0.16081960499286652, 0.1171688660979271, 0.11304471641778946, 0.07563868910074234, 0.2558913826942444, -0.027176018804311752, -0.14567328989505768, -0.16754493117332458, -0.08786295354366302, 0.018589749932289124, -0.13569962978363037, 0.028610756620764732, 0.13363400101661682, 0.13670095801353455, 0.17018382251262665, -0.15271581709384918, -0.025219839066267014, -0.13385668396949768, -0.1539546102285385, 0.33117005228996277, -0.06943797320127487, -0.1702486276626587, 0.27551281452178955, 0.3120940029621124, 0.0794328823685646, 0.09727513045072556, 0.15722548961639404, 0.12167592346668243, -0.11125851422548294, 0.23240886628627777, 0.1843913048505783, -0.0849137157201767, 0.19487716257572174, 0.3041713237762451, 0.2099081575870514, 0.14678078889846802, 0.06611115485429764, -0.2364737093448639, -0.06348393857479095, 0.1673068106174469, 0.08003205806016922, -0.06259665638208389, 0.2511434853076935, 0.1937040239572525, 0.22070875763893127, 0.2538118362426758, -0.3491497337818146, -0.03782419487833977, 0.264312207698822, 0.10423106700181961, 0.23125074803829193, 0.30026015639305115, 0.26823148131370544, 0.25273340940475464, -0.0836653932929039, -0.25140514969825745, 0.09132363647222519, 0.14620022475719452, 0.21455280482769012, -0.088667131960392, 0.20641162991523743, 0.159857377409935, 0.27199748158454895, 0.1961255520582199, -0.22405891120433807, 0.060513321310281754, -0.17801736295223236, -0.3011211156845093, -0.29231029748916626, -0.14966708421707153, -0.12954676151275635, 0.288806289434433, -0.24797888100147247, -0.2305486649274826, 0.1304684430360794, -0.2983280420303345, -0.24147094786167145, -0.10570117831230164, 0.21585163474082947, 0.07540637254714966, 0.15908147394657135, 0.27361392974853516, -0.17791812121868134, 0.10289015620946884, -0.2138165831565857, 0.1976914405822754, -0.3088222146034241, -0.27618899941444397, 0.28112494945526123, -0.2737216651439667, 0.3065887987613678, 0.3082171678543091, -0.2855965197086334, 0.18952015042304993, -0.3172031044960022, 0.2414027452468872, 0.11006977409124374, -0.14767733216285706, -0.3087528645992279, 0.32681071758270264, 0.09892947971820831, -0.13202732801437378, 0.33755382895469666, -0.3688015341758728, -0.26333439350128174, 0.11476253718137741, 0.16569730639457703, 0.22784855961799622, -0.26005569100379944, -0.20715631544589996, -0.3163174092769623, 0.234375, -0.14953728020191193, 0.11856541782617569, -0.16562367975711823, 0.10378310829401016, 0.18855275213718414, -0.3597436845302582, -0.08838716894388199, 0.30459171533584595, 0.11548087745904922, 0.23248659074306488, 0.3360815644264221, 0.1335001438856125, 0.31606560945510864, 0.2894422113895416, -0.2203247845172882, -0.22079113125801086, -0.28989261388778687, 0.25630858540534973, 0.03682248294353485, 0.14899607002735138, 0.36577650904655457, 0.09557545185089111, -0.29848694801330566, -0.18125082552433014, -0.15046904981136322, -0.357805460691452, -0.08978267759084702, 0.25860291719436646, 0.17957229912281036, 0.15379571914672852, 0.12954996526241302, -0.16980399191379547, 0.10046227276325226, -0.21012741327285767, -0.2681652307510376, 0.28350380063056946, -0.2758321464061737, -0.04895144701004028, 0.08440381288528442, -0.003184432629495859, 0.06005636602640152, 0.1343574821949005, 0.2689778208732605, 0.1237863227725029, -0.20770908892154694, 0.10055434703826904, -0.001339106005616486, -0.038181137293577194, 0.09147641807794571, 0.0476560965180397, 0.14042632281780243, 0.1690509170293808, 0.05108204111456871, -0.13070371747016907, -0.07076719403266907, 0.013827322982251644, 0.015413377434015274, -0.188477024435997, 0.23151738941669464, 0.28233832120895386, 0.20494654774665833, 0.2646437883377075, -0.13868871331214905, -0.16648797690868378, 0.08967213332653046, 0.0039045303128659725, 0.13693709671497345, 0.1323113590478897, 0.030345672741532326, 0.15782104432582855, -0.09299875795841217, -0.1502755582332611, 0.2796309292316437, 0.15626206994056702, 0.09939927607774734, -0.2158181518316269, 0.05610053986310959, 0.2745121121406555, 0.30426543951034546, 0.18827921152114868, -0.042961277067661285, 0.02933916263282299, -0.020150022581219673, -0.04063626751303673, -0.06393477320671082, -0.12970824539661407, -0.03017892874777317, 0.05348462983965874, -0.09740734845399857, -0.09274965524673462, 0.09105519950389862, -0.14254142343997955, -0.2535654604434967, -0.06270966678857803, 0.19044873118400574, 0.032087117433547974, 0.16856196522712708, 0.17612862586975098, -0.04471662640571594, 0.13955669105052948, -0.23411323130130768, 0.22849589586257935, -0.14735476672649384, -0.08798288553953171, 0.005889201071113348, -0.026989201083779335, 0.030795715749263763, 0.006150480825453997, -0.17776818573474884, 0.09621982276439667, -0.27332475781440735, 0.242622971534729, 0.27907758951187134, -0.0037724822759628296, -0.004660013597458601, 0.12401514500379562, 0.2113383412361145, -0.07887011021375656, 0.01926690898835659, -0.272949755191803, -0.20700539648532867, 0.2551017105579376, 0.21426795423030853, 0.020265139639377594, -0.1668425053358078, -0.06474178284406662, -0.28425779938697815, 0.18541453778743744, -0.1548541635274887, 0.002534501953050494, -0.021675631403923035, 0.27666395902633667, 0.17701902985572815, -0.14627398550510406, -0.023794351145625114, 0.0715036541223526, 0.09177260845899582, 0.10747520625591278, 0.12264884263277054, 0.06939944624900818, 0.14773082733154297, 0.17818160355091095, -0.07211834192276001, -0.227417454123497, -0.24046587944030762, 0.2284141629934311, 0.21087811887264252, 0.25069543719291687, 0.2556467354297638, 0.045861855149269104, -0.06258027255535126, -0.24369783699512482, -0.25315624475479126, -0.293792724609375, -0.1832236498594284, 0.10780637711286545, 0.1433095782995224, 0.2435792237520218, 0.2136688381433487, -0.003493636380881071, 0.1755576729774475, -0.1021781861782074, 0.006143666338175535, -0.06413253396749496, 0.17614595592021942, 0.05996394529938698, -0.2941175103187561, -0.08161335438489914, -0.26752230525016785, -0.2787320613861084, -0.26822346448898315, -0.23976269364356995, 0.25188419222831726, -0.18569375574588776, -0.27084600925445557, 0.23773843050003052, -0.30871573090553284, -0.2466321587562561, -0.22179453074932098, -0.09202618896961212, -0.08100838959217072, 0.249626025557518, 0.23961728811264038, -0.3389858305454254, -0.23145458102226257, 0.2722540497779846, -0.22177819907665253, -0.3101719617843628, -0.20838433504104614, -0.33805105090141296, 0.28044578433036804, 0.26363953948020935, -0.3554838299751282, -0.1995956301689148, -0.17863887548446655, -0.05236005038022995, -0.08917555958032608, -0.17813661694526672, 0.0776410847902298, 0.04543016850948334, -0.1053183525800705, -0.2523537874221802, -0.13620664179325104, 0.2343793660402298, -0.07906594127416611, -0.1289951652288437, -0.2726418972015381, -0.1603993922472, 0.26041075587272644, -0.21632924675941467, 0.21433597803115845, 0.08653111755847931, 0.2993974983692169, 0.2718060314655304, 0.24643442034721375, -0.2205135077238083, 0.32717493176460266, 0.10802718251943588, -0.11405976861715317, 0.23080065846443176, 0.2822204828262329, 0.2505946755409241, -0.07425641268491745, -0.18417681753635406, -0.2041793167591095, -0.12668488919734955, 0.2700677514076233, -0.05355159938335419, 0.27861836552619934, -0.2115861177444458, 0.19577142596244812, 0.3182038962841034, -0.20723654329776764, 0.24942612648010254, -0.17836181819438934, -0.09697061032056808, 0.24188929796218872, -0.3370409905910492, 0.2983483076095581, -0.23958270251750946, -0.3306364119052887, 0.051938556134700775, 0.14209432899951935, -0.29014402627944946, -0.21385696530342102, 0.3085860311985016, -0.17984908819198608, 0.1873599886894226, 0.1342824101448059, -0.0659930557012558, -0.2505885064601898, -0.19861015677452087, 0.2915692925453186, 0.1298592984676361, 0.13875062763690948, -0.23593570291996002, 0.18467377126216888, -0.2747485339641571, 0.1947043538093567, -0.09926089644432068, -0.3205457329750061, 0.24177129566669464, 0.1484048217535019, -0.12454147636890411, -0.10372766852378845, -0.08509130030870438, -0.20010116696357727, -0.1462002545595169, -0.32870855927467346, -0.19986291229724884, 0.23306787014007568, 0.12359029799699783, 0.27533793449401855, -0.2821235656738281, -0.3117096722126007, -0.21790608763694763, -0.24467100203037262, -0.31029653549194336, 0.3328858017921448, 0.15063849091529846, 0.36631375551223755, 0.22575093805789948, 0.11683102697134018, -0.3325980007648468, -0.10474935173988342, -0.06638247519731522, -0.065597765147686, 0.3192678987979889, -0.09540046751499176, 0.20427551865577698, 0.22667354345321655, 0.058174438774585724, -0.14649885892868042, -0.04299820587038994, 0.22307905554771423, 0.1841864436864853, 0.10679782927036285, -0.026213424280285835, 0.07220201194286346, -0.009559884667396545, -0.16917793452739716, 0.03543475270271301, 0.05086833983659744, -0.14077770709991455, 0.05518966168165207, 0.1733808070421219, 0.08729293942451477, 0.15675035119056702, 0.12718062102794647, -0.24485726654529572, -0.030353298410773277, 0.2117096185684204, 0.09359585493803024, 0.059918396174907684, 0.15098384022712708, 0.020075533539056778, 0.12764640152454376, 0.2129601687192917, -0.09749390929937363, -0.12601736187934875, 0.02091863565146923, 0.14309516549110413, 0.19592967629432678, 0.11100070178508759, 0.23024843633174896, 0.09926121681928635, -0.1173248216509819, 0.008719383738934994, 0.0949765145778656, 0.016735682263970375, 0.21751394867897034, -0.21489429473876953, 0.02199498936533928, -0.02791730687022209, -0.03474429249763489, 0.19860462844371796, 0.03943843021988869, 0.17452354729175568, -0.028306303545832634, -0.14322172105312347, -0.19871972501277924, -0.11912794411182404, -0.0018072242382913828, -0.04288534075021744, -0.17618392407894135, 0.010943933390080929, 0.08191780745983124, -0.23180177807807922, -0.16445906460285187, -0.13956071436405182, 0.0957009345293045, 0.24748747050762177, -0.015795813873410225, 0.003515196731314063, -0.13839338719844818, 0.07262585312128067, -0.08742985129356384, -0.0003926815406884998, 0.02587188594043255, 0.01002774853259325, -0.052753545343875885, -0.15688477456569672, 0.2305442988872528, 0.08338619023561478, -0.03694169968366623, 0.16913238167762756, -0.218158558011055, 0.07183138281106949, -0.03892413526773453, -0.17967073619365692, -0.006058893166482449, 0.024005373939871788, 0.16346099972724915, 0.026542039588093758, 0.16448469460010529, -0.1888316571712494, -0.24122539162635803, 0.053653616458177567, 0.06172843649983406, 0.19536307454109192, -0.1626669019460678, -0.12134215235710144, -0.23931990563869476, 0.06942165642976761, -0.11762018501758575, -0.010743080638349056, -0.18048107624053955, 0.146201491355896, 0.21767151355743408, -0.11657687276601791, 0.04714430496096611, 0.013621041551232338, 0.15918640792369843, -0.043189212679862976, -0.01952141895890236, 0.06831791996955872, 0.18406212329864502, 0.01164087001234293, 0.013667221181094646, -0.18452049791812897, -0.0427391491830349, 0.0004988633445464075, 0.15503768622875214, 0.23830342292785645, 0.24001044034957886, 0.19670377671718597, 0.02487352304160595, -0.08540406823158264, -0.01103800255805254, -0.1858455389738083, -0.027155596762895584, 0.14649127423763275, 0.20360895991325378, 0.15387770533561707, 0.10282932966947556, 0.010142548941075802, -0.046215545386075974, 0.021282624453306198, -0.05670447647571564, -0.0740392878651619, -0.05606938898563385, 0.18374739587306976, 0.04875992611050606, 0.036841124296188354, -0.05335666984319687, -0.13536587357521057, -0.040977880358695984, -0.18856102228164673, 0.10252497345209122, -0.10062284767627716, 0.062176670879125595, 0.14240559935569763, -0.22372396290302277, -0.16302047669887543, -0.11936242133378983, 0.039354532957077026, 0.0471300445497036, 0.016786003485322, -0.07143372297286987, -0.03177427500486374, -0.014649041928350925, 0.1209230124950409, -0.09138602763414383, -0.07422440499067307, 0.04632959142327309, -0.2058604657649994, -0.07079051434993744, -0.050360728055238724, -0.017666127532720566, 0.06821513921022415, -0.1838652640581131, -0.12584657967090607, -0.1914956271648407, -0.0540621317923069, 0.21111665666103363, 0.15260617434978485, -0.06233568489551544, -0.17924393713474274, -0.02149318903684616, -0.04613746330142021, -0.028886085376143456, -0.1982850432395935, -0.19575577974319458, -0.03962133824825287, 0.12348661571741104, -0.13626158237457275, 0.18848060071468353, 0.09076081216335297, -0.017490433529019356, 0.08632151037454605, -0.029228584840893745, -0.09625273942947388, 0.0977533757686615, 0.17150723934173584, -0.12911294400691986, 0.0005978100234642625, -0.06962469965219498, 0.04813495650887489, 0.06535416841506958, -0.04623597487807274, -0.16076728701591492, 0.009948649443686008, 0.19580326974391937, -0.12546172738075256, 0.08058051764965057, 0.005362506024539471, 0.14319680631160736, 0.09351576864719391, -0.1067635640501976, 0.04659911245107651, -0.05354709550738335, -0.20911645889282227, 0.10233600437641144, -0.10459834337234497, 0.107212133705616, -0.008186534978449345, -0.08819770067930222, 0.18704219162464142, -0.0016070037381723523, -0.07399912178516388, -0.009808775968849659, -0.07506465911865234, -0.1505223661661148, 0.13933899998664856, 0.1728067398071289, -0.06865741312503815, 0.04910795018076897, 0.07981356978416443, 0.0362832136452198, 0.13759303092956543, 0.17890506982803345, 0.03255285695195198, 0.20917655527591705, 0.043722156435251236, -0.00432634400203824, -0.08406905084848404, -0.18805471062660217, 0.060132622718811035, -0.0028439771849662066, -0.20588837563991547, -0.14690001308918, -0.11070738732814789, -0.07402127981185913, 0.09088868647813797, -0.16345621645450592, 0.060814570635557175, -0.08255592733621597, 0.005623221397399902, 0.19348040223121643, -0.12255989760160446, -0.1761704981327057, -0.12102503329515457, -0.21696078777313232, -0.19825290143489838, 0.10150928795337677, 0.15962527692317963, 0.044380947947502136, 0.1955324411392212, 0.21998663246631622, 0.028763245791196823, -0.10875622183084488, 0.03689361363649368, -0.03778115287423134, 0.10211627185344696, -0.09287910163402557, -0.0741128996014595, 0.19466030597686768, 0.32985571026802063, -0.1721823662519455, -0.2719712555408478, 0.30619192123413086, 0.24504025280475616, 0.1703648418188095, 0.29638272523880005, 0.1528504490852356, 0.2423499971628189, -0.23214241862297058, 0.06316260248422623, 0.24344351887702942, -0.13018815219402313, 0.2990490198135376, 0.17596514523029327, 0.3038336932659149, 0.27413931488990784, 0.04500078782439232, -0.3353463113307953, -0.3364381492137909, 0.12232114374637604, 0.1265498697757721, -0.16329163312911987, 0.060110170394182205, 0.029750680550932884, 0.26136112213134766, 0.06961551308631897, -0.24038466811180115, -0.27544182538986206, 0.17163154482841492, 0.03823969140648842, 0.10092819482088089, 0.2258569896221161, 0.08147537708282471, 0.3082926869392395, -0.12593919038772583, -0.06591413915157318, 0.03805980086326599, 0.28673025965690613, 0.17440204322338104, -0.30020880699157715, 0.21667371690273285, 0.31100428104400635, 0.13935379683971405, 0.1753120869398117, -0.07469651103019714, 0.2572891116142273, -0.3229851722717285, -0.19488604366779327, -0.1893126219511032, -0.21064412593841553, -0.24213261902332306, 0.33847564458847046, -0.3192974627017975, -0.3061429262161255, 0.2578153610229492, -0.07116568088531494, -0.22572444379329681, -0.32346662878990173, 0.022108230739831924, 0.07912961393594742, 0.17097792029380798, 0.23571935296058655, -0.129594624042511, 0.1754397600889206, -0.31012076139450073, 0.08672218024730682, -0.1894855946302414, -0.31272462010383606, 0.31438931822776794, -0.13073687255382538, 0.09373243898153305, 0.1410037726163864, -0.2907341420650482, 0.17794793844223022, -0.194654181599617, 0.2547980844974518, 0.056442417204380035, -0.2756064832210541, -0.26248303055763245, 0.1661476343870163, 0.08085277676582336, -0.10717761516571045, 0.3249509036540985, -0.23818439245224, -0.11179643869400024, 0.2801191806793213, 0.13834846019744873, 0.1336406022310257, -0.2235012948513031, -0.19130779802799225, -0.2582537829875946, 0.1572422832250595, -0.3300236463546753, 0.11002698540687561, -0.07956624776124954, 0.13033708930015564, 0.11780349910259247, -0.1040683314204216, -0.15619832277297974, 0.15888924896717072, 0.12083589285612106, 0.07647161930799484, 0.29344379901885986, 0.21050246059894562, 0.29386234283447266, 0.23488599061965942, -0.18594922125339508, -0.26098328828811646, -0.24175091087818146, 0.2425563931465149, 0.3156585693359375, 0.13202407956123352, 0.18186499178409576, 0.09246449172496796, -0.1365802139043808, -0.27333417534828186, -0.2562302052974701, -0.10096514970064163, -0.2410338968038559, 0.2120443433523178, 0.2850562632083893, 0.21799330413341522, 0.2877703011035919, -0.29207152128219604, 0.20915429294109344, -0.03101225197315216, -0.0764695554971695, 0.218225359916687, -0.36648160219192505, -0.29257529973983765, 0.2407103329896927, 0.22077178955078125, 0.20925520360469818, 0.3446192443370819, 0.36455705761909485, 0.30074021220207214, -0.3935704231262207, 0.3068143427371979, 0.21803878247737885, -0.23740993440151215, 0.3265203833580017, 0.3293122947216034, 0.3639621138572693, 0.29098182916641235, 0.12905287742614746, -0.42816710472106934, -0.16768819093704224, 0.1406964212656021, 0.18849995732307434, -0.3739668130874634, 0.16150163114070892, 0.33172664046287537, 0.36849740147590637, 0.3323025703430176, -0.12817417085170746, -0.18208661675453186, 0.31573230028152466, 0.11904513090848923, 0.24290509521961212, 0.4026896059513092, 0.13666336238384247, 0.2675170600414276, -0.2713877260684967, -0.36491474509239197, 0.42347949743270874, 0.190705344080925, 0.23373189568519592, -0.4316490590572357, 0.2655595541000366, 0.1772213876247406, 0.16090400516986847, 0.39537888765335083, -0.39322429895401, 0.414215624332428, -0.32827627658843994, -0.3316361606121063, -0.40952739119529724, -0.31468427181243896, -0.29108333587646484, 0.17780783772468567, -0.27136531472206116, -0.2474682331085205, 0.25407883524894714, -0.1411651074886322, -0.30262261629104614, -0.1901623159646988, 0.2582108974456787, 0.19636531174182892, 0.38390952348709106, 0.4105408191680908, -0.3071337938308716, 0.2657041847705841, -0.4099293351173401, 0.35951152443885803, -0.2721046507358551, -0.3153708279132843, 0.3287021517753601, -0.4050794243812561, 0.32506367564201355, 0.3155820965766907, -0.23664329946041107, 0.38384926319122314, -0.21905019879341125, 0.29087185859680176, 0.16273316740989685, -0.42835891246795654, -0.14752952754497528, 0.14319606125354767, 0.4081462323665619, -0.24672016501426697, 0.22771617770195007, -0.3974393606185913, -0.19498269259929657, 0.3497963547706604, 0.35303953289985657, 0.36076056957244873, -0.14849503338336945, -0.16116344928741455, -0.1769079566001892, 0.1284271478652954, -0.3190051019191742, 0.1706550568342209, -0.1507246494293213, 0.38101163506507874, 0.32955870032310486, -0.30479249358177185, -0.18635575473308563, 0.4059878885746002, 0.3432486653327942, 0.41234415769577026, 0.374011754989624, 0.11492905020713806, 0.3498765826225281, 0.37744998931884766, -0.13459232449531555, -0.37501657009124756, -0.2744235396385193, 0.24772405624389648, 0.32455718517303467, 0.3568613529205322, 0.1571153700351715, 0.20571556687355042, -0.21032309532165527, -0.38259461522102356, -0.2799028158187866, -0.36645156145095825, -0.24776560068130493, 0.3805559277534485, 0.4121180772781372, 0.1969987452030182, 0.12329279631376266, -0.3837215006351471, 0.4054487347602844, -0.22407560050487518, -0.16804245114326477, -0.03743404895067215, 0.2373717576265335, 0.1931513398885727, -0.05401837080717087, -0.1168069839477539, -0.21848329901695251, -0.1360621303319931, -0.17106977105140686, -0.3201434016227722, 0.3473735749721527, -0.035663653165102005, -0.28444209694862366, 0.15600153803825378, -0.17947261035442352, -0.33685046434402466, -0.2788586914539337, -0.30257076025009155, -0.17899198830127716, 0.1891765296459198, 0.3202669024467468, -0.056927986443042755, -0.19101715087890625, 0.33747780323028564, -0.11285475641489029, -0.193130761384964, -0.12234772741794586, -0.2852061092853546, 0.1348535567522049, 0.3480066657066345, -0.06831219047307968, -0.18056116998195648, -0.1448521763086319, -0.2190897911787033, -0.3273472487926483, -0.33215659856796265, 0.04811530187726021, 0.12248054891824722, -0.17764905095100403, -0.11680667847394943, -0.06092756614089012, 0.14051274955272675, -0.21139609813690186, -0.17351603507995605, -0.2941526472568512, -0.1694621741771698, 0.1467999517917633, -0.18343590199947357, 0.13686703145503998, 0.13493356108665466, 0.2765554189682007, 0.19455625116825104, 0.23088054358959198, -0.15709125995635986, 0.2505123019218445, 0.11663690209388733, -0.31526851654052734, 0.09739981591701508, 0.050275783985853195, 0.3104420304298401, -0.29015201330184937, -0.04907599091529846, -0.18379662930965424, -0.33008548617362976, 0.21862812340259552, -0.2027234584093094, 0.3522574007511139, -0.0555260144174099, 0.23930910229682922, 0.22259196639060974, -0.19543328881263733, 0.26161640882492065, -0.2753373086452484, -0.1620781570672989, 0.17899252474308014, -0.279415100812912, 0.18763937056064606, -0.33092206716537476, -0.21252760291099548, 0.3301239013671875, 0.19726841151714325, -0.142487034201622, -0.119479238986969, 0.29862430691719055, -0.29901960492134094, 0.1284661740064621, 0.33131203055381775, -0.3264904022216797, -0.12354467809200287, -0.06295769661664963, 0.0724116861820221, 0.153370663523674, 0.06890179216861725, -0.13534711301326752, 0.34774982929229736, -0.2951587438583374, 0.12884430587291718, -0.13081365823745728, -0.03655257076025009, 0.22400161623954773, 0.3359501361846924, -0.046174097806215286, -0.2633318305015564, -0.08778892457485199, -0.20774321258068085, -0.09367319196462631, -0.1725638210773468, -0.27686837315559387, 0.3372594714164734, 0.1566944718360901, 0.3291890025138855, -0.06818463653326035, -0.29247698187828064, -0.20921877026557922, -0.1917385756969452, -0.24810285866260529, 0.26002970337867737, 0.21353907883167267, 0.23127396404743195, 0.13795652985572815, 0.12528096139431, -0.14279769361019135, -0.17214302718639374, -0.29033151268959045, -0.2468065470457077, 0.29491037130355835, -0.3190723955631256, 0.12002882361412048, 0.08438965678215027, -0.3870313763618469, 0.4972914159297943, 0.47099483013153076, -0.36358845233917236, -0.5462527275085449, -0.35505813360214233, -0.48610273003578186, -0.39259621500968933, -0.4840560555458069, 0.5060533881187439, -0.25937578082084656, -0.3357347846031189, 0.3858964741230011, -0.3843430280685425, -0.2752562463283539, -0.4287356436252594, -0.30794766545295715, -0.2811402678489685, 0.2304014414548874, 0.2686523497104645, -0.2997576892375946, -0.4125295877456665, 0.4664021134376526, -0.4635147452354431, -0.4532528221607208, -0.5497847199440002, -0.36224377155303955, 0.36872008442878723, 0.3738626539707184, -0.30958032608032227, -0.2865317761898041, -0.3804333209991455, -0.49690040946006775, -0.32742616534233093, -0.4198884069919586, 0.267513632774353, 0.35979339480400085, -0.41013872623443604, -0.515608012676239, -0.37411537766456604, 0.5209453701972961, -0.30361396074295044, -0.2793892025947571, -0.4013153314590454, -0.3208152949810028, 0.2953518331050873, -0.3368198275566101, 0.28497514128685, 0.5156132578849792, 0.49829238653182983, 0.47405943274497986, 0.5146019458770752, -0.3518180251121521, 0.36983242630958557, 0.30880507826805115, -0.2677478790283203, 0.3736030161380768, 0.47324782609939575, 0.35341379046440125, -0.3322507441043854, -0.5302930474281311, -0.30380186438560486, -0.2569274306297302, 0.2915951907634735, -0.34967589378356934, 0.2913604974746704, -0.4196895956993103, 0.33395451307296753, 0.4809671938419342, -0.4259915351867676, 0.40312549471855164, -0.2831457257270813, -0.4455638527870178, 0.45202311873435974, -0.3644752502441406, 0.4499738812446594, -0.4455961287021637, -0.38265717029571533, 0.3529312312602997, 0.37060847878456116, -0.247998908162117, -0.28561723232269287, 0.40871477127075195, -0.5320701599121094, 0.3748694658279419, 0.3047015964984894, -0.33220961689949036, -0.42291319370269775, -0.32448601722717285, 0.33287009596824646, 0.30150702595710754, 0.4631046652793884, -0.3265482485294342, 0.4685869514942169, -0.3552455008029938, 0.46721023321151733, -0.3864832818508148, -0.47977474331855774, 0.3703378438949585, 0.342665433883667, -0.3281974494457245, -0.4006434381008148, -0.2575071454048157, -0.4305465519428253, -0.4906388521194458, -0.5261621475219727, -0.40983110666275024, 0.39832863211631775, 0.4400899112224579, 0.5326176881790161, -0.4784579277038574, -0.47730958461761475, -0.4657519459724426, -0.3495377004146576, -0.42908838391304016, 0.32199010252952576, 0.2870934009552002, 0.4744987189769745, 0.28910139203071594, 0.5105819702148438, -0.42228996753692627, -0.3916138708591461, -0.3045850992202759, -0.2956588566303253, 0.5415276885032654, -0.3171517848968506, 0.4917324185371399, 0.3866966962814331, -0.06271433085203171, -0.1593378186225891, -0.21931521594524384, 0.12981492280960083, 0.17013514041900635, 0.022545436397194862, 0.2019076645374298, -0.005181861575692892, 0.11310485750436783, -0.058556489646434784, -0.04304128140211105, -0.017308872193098068, -0.06956031918525696, 0.06669004261493683, -0.032851118594408035, 0.0671338140964508, 0.04614974558353424, -0.02722509205341339, -0.05514088273048401, -0.11480627208948135, -0.050870321691036224, 0.15366393327713013, 0.04492250457406044, 0.19552449882030487, 0.1183522418141365, 0.1647883504629135, 0.11474687606096268, -0.06799285858869553, -0.18654918670654297, 0.08307608962059021, 0.205135777592659, 0.19944578409194946, 0.19605357944965363, -0.005967635195702314, 0.015104386955499649, -0.03892168402671814, -0.18137425184249878, 0.11159371584653854, 0.17011915147304535, -0.06513438373804092, -0.20642374455928802, -0.08724620938301086, 0.038530029356479645, 0.18822833895683289, 0.11339475959539413, -0.03996351733803749, 0.13324809074401855, -0.21406586468219757, -0.1900375783443451, -0.1835373342037201, -0.17650043964385986, -0.08470186591148376, -0.0399666428565979, -0.1846185177564621, -0.15266552567481995, 0.044904351234436035, 0.05909350886940956, -0.002529687248170376, -0.07761412858963013, 0.16024519503116608, 0.10901010781526566, -0.014265770092606544, 0.03146211802959442, 0.04951976239681244, 0.13520695269107819, -0.06275302916765213, 0.013447760604321957, -0.09874136745929718, -0.20049796998500824, -0.07045307010412216, -0.16110803186893463, 0.08838517218828201, 0.08724420517683029, -0.16682647168636322, -0.040311239659786224, -0.19344516098499298, 0.014687854796648026, 0.09663275629281998, -0.1303177773952484, -0.10664983093738556, 0.20922629535198212, -0.07340840250253677, -0.18052780628204346, 0.020011141896247864, 0.01615799590945244, -0.18389101326465607, 0.08645372092723846, 0.017226960510015488, 0.15391063690185547, -0.16742679476737976, -0.12239371985197067, -0.1998516172170639, 0.0025787854101508856, -0.005017681512981653, 0.05796646699309349, -0.10206647217273712, 0.20700392127037048, -0.061159003525972366, -0.1166473850607872, -0.1646685153245926, 0.14186108112335205, 0.087825246155262, -0.028659842908382416, 0.13042229413986206, -0.01731439121067524, -0.026883242651820183, 0.10444125533103943, -0.15593509376049042, 0.034559641033411026, 0.010919940657913685, 0.08795473724603653, 0.1358758509159088, 0.0005792073789052665, 0.12108522653579712, 0.023818643763661385, -0.04926961287856102, -0.0992543175816536, -0.16153594851493835, 0.030610298737883568, -0.06744056195020676, 0.04504196345806122, 0.20387883484363556, 0.21150629222393036, 0.08331113308668137, -0.10478515177965164, -0.03501122444868088, -0.0648098886013031, -0.004873980302363634, 0.1311347782611847, -0.17558090388774872, -0.09779977053403854, 0.11711762845516205, 0.25115203857421875, 0.10308892279863358, 0.025233035907149315, 0.006150214001536369, 0.19797031581401825, -0.11139709502458572, 0.2472921460866928, 0.14522747695446014, -0.058126624673604965, 0.17516010999679565, 0.12490585446357727, 0.05940958485007286, 0.2082659751176834, 0.26129859685897827, -0.19730179011821747, -0.13445691764354706, 0.10207277536392212, 0.22466599941253662, -0.07057201862335205, -0.012766500934958458, 0.17029836773872375, 0.19847430288791656, 0.05130048841238022, -0.25271904468536377, -0.049223583191633224, 0.13254737854003906, 0.2125425636768341, 0.07299315929412842, 0.2600378394126892, 0.17871493101119995, 0.24122539162635803, -0.1931125968694687, -0.004110459238290787, 0.09815099090337753, 0.055798452347517014, -0.03607027605175972, -0.24702239036560059, 0.19435855746269226, 0.2508227527141571, 0.046695563942193985, -0.004753760527819395, -0.05440842732787132, 0.036035891622304916, -0.1379627287387848, -0.06595064699649811, -0.20239944756031036, -0.21596337854862213, -0.23593340814113617, 0.2789786756038666, -0.08093512058258057, -0.2586089074611664, 0.09471635520458221, -0.09672843664884567, 0.024930231273174286, -0.08763816952705383, 0.12616783380508423, 0.27029022574424744, -0.033731963485479355, 0.03858979418873787, -0.25860702991485596, 0.23226989805698395, 0.03734103590250015, 0.13587218523025513, -0.16849306225776672, -0.09147067368030548, 0.03880155831575394, -0.025143131613731384, 0.2495320439338684, 0.20897696912288666, -0.052276961505413055, 0.15354286134243011, -0.09382160007953644, 0.20076662302017212, 0.09654964506626129, -0.2375229448080063, -0.2756112813949585, 0.015670444816350937, 0.15493878722190857, -0.2720690071582794, 0.08815496414899826, -0.01789262518286705, -0.08190570771694183, 0.267347514629364, 0.1716429442167282, 0.10831025242805481, -0.12295662611722946, -0.22887536883354187, -0.24560827016830444, 0.1546294391155243, -0.014837316237390041, -0.02375919371843338, -0.06002865731716156, 0.21837371587753296, 0.22437818348407745, -0.18252097070217133, -0.17423075437545776, 0.029911000281572342, 0.1598411649465561, 0.12511403858661652, 0.15740910172462463, 0.06759386509656906, 0.08862556517124176, 0.10726727545261383, -0.2133183479309082, 0.021536599844694138, -0.2436773031949997, 0.19493257999420166, 0.045849546790122986, 0.2761572599411011, 0.26170170307159424, 0.13127726316452026, -0.20669867098331451, 0.006624334491789341, -0.15397825837135315, -0.17252400517463684, -0.220659077167511, 0.06361624598503113, 0.05972602218389511, 0.24292078614234924, 0.2681865990161896, 0.027174856513738632, 0.1980298012495041, -0.19496218860149384, -0.20737294852733612, 0.10479819774627686, -0.004550320561975241, -0.23257911205291748, 0.12794086337089539, 0.05011781305074692, 0.24376280605793, 0.01797431707382202, 0.18643619120121002, 0.23123326897621155, -0.11553578078746796, 0.011171404272317886, 0.09865958243608475, -0.16427600383758545, 0.20923413336277008, 0.10806932300329208, 0.029931936413049698, 0.23071126639842987, 0.22221209108829498, -0.19478246569633484, -0.038412097841501236, 0.1992083340883255, 0.14561393857002258, -0.24763929843902588, 0.05084819346666336, 0.12191710621118546, -0.03377823904156685, 0.11340251564979553, -0.03275434300303459, -0.22180230915546417, 0.19116078317165375, 0.10654764622449875, 0.0016513686859980226, 0.24230825901031494, 0.08617127686738968, 0.1655207872390747, -0.017649713903665543, -0.2000637650489807, 0.026669638231396675, 0.20534904301166534, 0.2548719346523285, -0.14819346368312836, 0.20155736804008484, 0.10769148170948029, 0.06208152696490288, 0.20962035655975342, -0.2655948996543884, 0.23603951930999756, -0.22640500962734222, -0.07301017642021179, -0.05071793124079704, -0.17301122844219208, -0.17530019581317902, 0.1720508188009262, -0.2686882019042969, -0.19636018574237823, 0.09690152853727341, 0.005308129824697971, -0.16787035763263702, -0.12616181373596191, 0.07416968792676926, 0.2676558792591095, 0.07993321120738983, 0.1713034063577652, -0.22744779288768768, 0.04217012599110603, -0.018178192898631096, 0.13801062107086182, 0.003561723046004772, -0.2821096181869507, 0.2705906629562378, -0.01539034303277731, 0.23944662511348724, 0.061244554817676544, -0.025039561092853546, 0.28341853618621826, -0.06713072210550308, 0.1162492036819458, 0.25829368829727173, -0.05138233304023743, -0.03210735321044922, 0.04528762400150299, -0.007019651588052511, -0.0847729817032814, 0.12486989051103592, -0.11239780485630035, -0.24740669131278992, 0.14294223487377167, 0.18891099095344543, 0.00622305553406477, -0.17727714776992798, -0.15706264972686768, -0.20054864883422852, 0.20728930830955505, -0.24947325885295868, 0.2118455171585083, -0.03579825535416603, 0.06409749388694763, 0.22577552497386932, -0.17811478674411774, -0.0748496800661087, 0.030464688315987587, 0.2214384227991104, 0.010064154863357544, 0.01872594840824604, 0.07810627669095993, 0.2806799113750458, 0.06808933615684509, -0.20269830524921417, -0.08707547187805176, -0.24335908889770508, 0.18547752499580383, 0.1348540335893631, 0.10040482878684998, 0.046771105378866196, 0.11756957322359085, 0.01695273071527481, -0.16611963510513306, -0.20847027003765106, -0.09371136128902435, -0.08298370242118835, 0.21680769324302673, -0.007385828532278538, 0.25060203671455383, 0.019119666889309883, -0.19650425016880035, 0.0865127444267273, -0.11582081764936447, -0.24559028446674347, -0.7749500274658203, 0.6732832193374634, 0.5689772367477417, -0.49318256974220276, -0.5079497694969177, -0.6887122392654419, -0.5481595993041992, -0.6404926776885986, -0.5384860038757324, 0.5975459218025208, -0.5213769674301147, -0.6613060235977173, 0.646882176399231, -0.5923101902008057, -0.5473147630691528, -0.6446383595466614, -0.694223165512085, -0.6603121757507324, 0.5719807744026184, 0.6611141562461853, -0.7138127684593201, -0.725531816482544, 0.7834681272506714, -0.6207489967346191, -0.6410587430000305, -0.47525855898857117, -0.5489497184753418, 0.5637306571006775, 0.4931773841381073, -0.6313839554786682, -0.6583122611045837, -0.567068874835968, -0.5827273726463318, -0.4642161428928375, -0.6448517441749573, 0.7272998094558716, 0.5390031933784485, -0.5569025278091431, -0.6692394018173218, -0.5781641006469727, 0.680639386177063, -0.6642548441886902, -0.6391693353652954, -0.6852654814720154, -0.7063266634941101, 0.7436360120773315, -0.6522619724273682, 0.5729852914810181, 0.5028592944145203, 0.6378894448280334, 0.5968030691146851, 0.720757007598877, -0.6011753082275391, 0.5609007477760315, 0.4706246852874756, -0.6315839886665344, 0.6537204384803772, 0.5971304774284363, 0.6606327295303345, -0.7205496430397034, -0.6085081696510315, -0.46370092034339905, -0.5967339873313904, 0.5450109839439392, -0.6609678864479065, 0.6484887599945068, -0.6308512091636658, 0.542657732963562, 0.7621105909347534, -0.661902904510498, 0.5810904502868652, -0.508254885673523, -0.5724247694015503, 0.6857445240020752, -0.7749063372612, 0.7259625792503357, -0.5123562216758728, -0.5822760462760925, 0.7472457885742188, 0.6713327765464783, -0.599180281162262, -0.6965213418006897, 0.5493504405021667, -0.631426215171814, 0.6095244288444519, 0.6447188854217529, -0.7345333099365234, -0.5651671290397644, -0.4902549982070923, 0.5676571130752563, 0.6979039907455444, 0.7943719029426575, -0.6780532598495483, 0.6996376514434814, -0.5040755271911621, 0.626776397228241, -0.5728958249092102, -0.663567066192627, 0.7161816954612732, 0.6336139440536499, -0.7637892365455627, -0.5625513195991516, -0.5117292404174805, -0.7374321222305298, -0.5636605620384216, -0.6991304159164429, -0.6731829047203064, 0.7451910972595215, 0.521577000617981, 0.7695891261100769, -0.6556007266044617, -0.7106025815010071, -0.7029086351394653, -0.5145145654678345, -0.7028568387031555, 0.6345004439353943, 0.5820615887641907, 0.6427919268608093, 0.6823017001152039, 0.7077398896217346, -0.7549778819084167, -0.6276335120201111, -0.5137670040130615, -0.7660561203956604, 0.5545533895492554, -0.5014793276786804, 0.5655924081802368, 0.7577194571495056, 0.017241815105080605, -0.05365745350718498, -0.06625887006521225, 0.016153372824192047, -0.06776656210422516, 0.02587410807609558, -0.17034099996089935, 0.053760871291160583, -0.031517159193754196, 0.1205284595489502, 0.033237192779779434, -0.0761290043592453, 0.172575443983078, 0.032310839742422104, -0.016025420278310776, -0.15504494309425354, 0.05276580899953842, -0.07195191085338593, 0.15178321301937103, 0.011663182638585567, -0.06266064196825027, -0.003619116498157382, 0.08874775469303131, -0.1429314762353897, -0.219540536403656, -0.056496717035770416, 0.055332060903310776, 0.17386426031589508, 0.0627119317650795, 0.05283793807029724, -0.20239320397377014, -0.19136355817317963, -0.22200077772140503, -0.13655875623226166, -0.11283330619335175, 0.1649600714445114, 0.11273539066314697, -0.010020488873124123, 0.00829763151705265, -0.10639437288045883, 0.04767829179763794, 0.015654489398002625, -0.15155045688152313, -0.07685543596744537, 0.011803224682807922, 0.03141198679804802, -0.041462477296590805, 0.1408212035894394, 0.0508539043366909, -0.01063126977533102, 0.002646643901243806, 0.12827472388744354, 0.020761763677001, 0.14682736992835999, 0.0564328171312809, -0.12631015479564667, -0.09258776158094406, 0.1693466603755951, -0.04303331300616264, -0.15646815299987793, -0.09280514717102051, -0.2168973833322525, -0.036687545478343964, 0.0906388908624649, -0.08175970613956451, 0.19101673364639282, -0.07935094088315964, 0.021017976105213165, 0.022250549867749214, -0.14352524280548096, 0.11759866774082184, -0.15368059277534485, -0.19890807569026947, 0.06795331835746765, -0.08976466208696365, -0.08112587034702301, -0.002278815256431699, -0.10083361715078354, 0.004002118017524481, 0.04176611080765724, 0.04236134514212608, 0.03201810643076897, -0.09003716707229614, -0.05692332610487938, -0.006188735365867615, -0.038707975298166275, -0.03529887646436691, 0.06253117322921753, -0.00321493623778224, -0.036538563668727875, 0.17843538522720337, -0.059564266353845596, -0.11714112758636475, -0.007779175415635109, -0.035380683839321136, 0.08883627504110336, -0.07679788768291473, -0.12005633115768433, 0.0940752848982811, 0.020572520792484283, -0.02496335282921791, -0.1700572669506073, -0.0028830727096647024, -0.035896774381399155, -0.11920654028654099, -0.13513976335525513, -0.12399744987487793, 0.0647568628191948, 0.041119445115327835, 0.10744572430849075, -0.025576403364539146, 0.06845264881849289, -0.13967782258987427, -0.20749276876449585, -0.17877531051635742, 0.03563615307211876, 0.11789537221193314, 0.097118079662323, -0.10768971592187881, 0.10054223984479904, -0.11943632364273071, -0.04581115394830704, -0.19370050728321075, -0.041302867233753204, 0.08544807881116867, 0.006934206001460552, 0.11751225590705872, 0.013793928548693657, -0.4508040249347687, 0.184026837348938, 0.2525053322315216, -0.4738439619541168, -0.4170602560043335, -0.16434229910373688, -0.41378751397132874, -0.37716951966285706, -0.3558632731437683, 0.4518603980541229, -0.42545270919799805, -0.3990994691848755, 0.42467159032821655, -0.4382682740688324, -0.3085578978061676, -0.2108820676803589, -0.35022690892219543, -0.27664604783058167, 0.2055940479040146, 0.4696860909461975, -0.4062642753124237, -0.22122374176979065, 0.3646630644798279, -0.4768487811088562, -0.38674578070640564, -0.467668741941452, -0.34621232748031616, 0.29206404089927673, 0.39996537566185, -0.38279885053634644, -0.3889921307563782, -0.2760351002216339, -0.24718870222568512, -0.4453388750553131, -0.4564625322818756, 0.20074769854545593, 0.479600191116333, -0.35549071431159973, -0.2091350108385086, -0.2790789306163788, 0.3622724711894989, -0.3676912784576416, -0.25554025173187256, -0.4464327394962311, -0.20242060720920563, 0.37031084299087524, -0.2072502076625824, 0.42980819940567017, 0.4331941604614258, 0.37494349479675293, 0.3912874162197113, 0.34545591473579407, -0.38649022579193115, 0.28521132469177246, 0.4468906819820404, -0.22553585469722748, 0.32152169942855835, 0.3363870084285736, 0.34180694818496704, -0.31409725546836853, -0.4256093204021454, -0.19601888954639435, -0.22765466570854187, 0.43418872356414795, -0.3564327359199524, 0.3527032136917114, -0.3939194977283478, 0.4294229745864868, 0.21055079996585846, -0.465740829706192, 0.295306921005249, -0.41859713196754456, -0.47154563665390015, 0.2749374806880951, -0.24057702720165253, 0.3499780595302582, -0.41430389881134033, -0.27993282675743103, 0.19861671328544617, 0.4532204866409302, -0.23076920211315155, -0.2780497968196869, 0.2073386013507843, -0.2797144651412964, 0.25404566526412964, 0.33354857563972473, -0.4025176465511322, -0.21085724234580994, -0.2179657220840454, 0.48781248927116394, 0.19898191094398499, 0.4767490327358246, -0.21428042650222778, 0.41140812635421753, -0.32974544167518616, 0.46499013900756836, -0.3856590986251831, -0.3049536943435669, 0.37561213970184326, 0.2957765758037567, -0.3097512125968933, -0.43315064907073975, -0.3298534154891968, -0.19325898587703705, -0.3464224636554718, -0.25403082370758057, -0.3584931790828705, 0.4543065130710602, 0.18731798231601715, 0.20742687582969666, -0.3035159111022949, -0.19267241656780243, -0.3834860026836395, -0.21677935123443604, -0.19356884062290192, 0.24307912588119507, 0.4764235317707062, 0.479509174823761, 0.37006863951683044, 0.27834779024124146, -0.2563678026199341, -0.4507869482040405, -0.3845352232456207, -0.44743600487709045, 0.3812287449836731, -0.4481228291988373, 0.39833465218544006, 0.4142792820930481, -0.10452751070261002, 0.15077875554561615, -0.0373813658952713, -0.20831888914108276, -0.15582413971424103, -0.03941870108246803, -0.06549526005983353, -0.06097216159105301, -0.20679834485054016, 0.19385069608688354, -0.15502680838108063, -0.20949989557266235, 0.07648865878582001, -0.23449617624282837, -0.030032169073820114, -0.012429123744368553, -0.035909730941057205, -0.20171813666820526, 0.11908649653196335, 0.06918561458587646, -0.1263478696346283, -0.01806425116956234, 0.234761044383049, -0.15114085376262665, -0.22030678391456604, -0.13750740885734558, -0.0875319391489029, 0.18300731480121613, 0.17265132069587708, -0.22044867277145386, -0.18704211711883545, 0.04648981988430023, -0.11496191471815109, -0.17167305946350098, -0.2255483716726303, 0.03495875000953674, 0.04053601250052452, 0.015210025012493134, -0.22203177213668823, 0.020866570994257927, 0.1341126710176468, 0.03990005701780319, -0.06264878809452057, -0.07509676367044449, -0.21811510622501373, 0.058046258985996246, -0.20692579448223114, 0.2233680635690689, 0.12488318234682083, 0.11370861530303955, 0.11099917441606522, 0.25207751989364624, -0.09318261593580246, 0.023767489939928055, 0.10795145481824875, -0.06768539547920227, -0.018472449854016304, 0.22998285293579102, 0.13019520044326782, 0.0010388479568064213, -0.007741306908428669, -0.2238343060016632, -0.22864356637001038, 0.09654904901981354, 0.012293572537600994, 0.06541910022497177, -0.033769357949495316, 0.25886890292167664, 0.19855505228042603, 0.0007682613795623183, 0.07626983523368835, -0.12544476985931396, -0.06637140363454819, 0.09521988779306412, -0.2386622577905655, 0.25655242800712585, -0.24904869496822357, -0.18044863641262054, 0.17701303958892822, -0.0313350185751915, 0.035194795578718185, -0.0883900597691536, 0.07099831849336624, 0.04822371155023575, 0.057242151349782944, -0.031168056651949883, 0.03311166167259216, -0.06856316328048706, -0.025350982323288918, 0.11917806416749954, 0.015448168851435184, 0.20821300148963928, -0.17438055574893951, 0.18140408396720886, -0.20430032908916473, -0.0036381289828568697, -0.09891939908266068, -0.2325431853532791, 0.09242186695337296, 0.1487094759941101, -0.028199050575494766, -0.11156821995973587, 0.009496575221419334, -0.0870165154337883, -0.1575586050748825, -0.15866424143314362, -0.13548655807971954, 0.07410495728254318, 0.2118370085954666, 0.18842628598213196, -0.2435811311006546, 0.031059930101037025, -0.11589156091213226, -0.24665330350399017, -0.015724467113614082, 0.018993597477674484, 0.10733170062303543, 0.24018456041812897, 0.21326662600040436, 0.047887276858091354, -0.09677915275096893, -0.21497097611427307, -0.08333516120910645, -0.1539788544178009, 0.11715510487556458, -0.03655652701854706, 0.25038859248161316, 0.2444663792848587, -0.025018559768795967, 0.013813530094921589, 0.22445569932460785, -0.2505769431591034, -0.19729143381118774, -0.18248462677001953, -0.14703486859798431, -0.1710592806339264, -0.13114997744560242, -0.03381212428212166, -0.01081843301653862, 0.0012060230365023017, 0.10793666541576385, -0.2176940143108368, 0.03395173326134682, -0.0924433097243309, -0.11474989354610443, -0.2145608812570572, 0.07232628762722015, 0.1639072149991989, -0.192046657204628, -0.15540891885757446, 0.26483801007270813, -0.02881413698196411, -0.03106655552983284, -0.16546984016895294, -0.2112380415201187, 0.16336341202259064, -0.040719084441661835, -0.2229727804660797, 0.01119066309183836, -0.01882186345756054, 0.04857013374567032, -0.07817428559064865, 0.01965654082596302, 0.1743401437997818, 0.17374187707901, -0.04735001176595688, -0.21318867802619934, -0.13610240817070007, 0.05665064975619316, -0.007692259736359119, -0.16959096491336823, -0.21566832065582275, -0.029913486912846565, 0.16534040868282318, -0.18662521243095398, -0.0017529318574815989, 0.013235555961728096, 0.25024354457855225, 0.07893691211938858, 0.03343456983566284, -0.0267208032310009, 0.17628109455108643, 0.20647822320461273, 0.04494104161858559, 0.24276003241539001, 0.014108579605817795, 0.1162693053483963, -0.18948966264724731, -0.17179733514785767, 0.038762014359235764, -0.11044198274612427, 0.007651318330317736, -0.07294685393571854, 0.02743229642510414, -0.2118445485830307, -0.03421430289745331, 0.0025183786638081074, -0.1379512995481491, 0.09545812010765076, -0.06903956085443497, -0.09405242651700974, 0.23195867240428925, -0.24240857362747192, -0.05187075212597847, -0.1353473663330078, -0.062440093606710434, 0.21649889647960663, 0.09641966223716736, -0.11604366451501846, -0.11178019642829895, 0.14195726811885834, -0.04481535777449608, 0.22538654506206512, 0.21611805260181427, -0.2232731580734253, -0.1363069713115692, -0.12705805897712708, 0.039954569190740585, 0.1835462749004364, -0.016468912363052368, 0.02662343531847, 0.13039463758468628, -0.09473177790641785, -0.03829944133758545, 0.013439641334116459, 0.0291486494243145, 0.17128758132457733, 0.21193501353263855, -0.023626049980521202, 0.03816674277186394, -0.18375928699970245, -0.05012703686952591, -0.06570602208375931, -0.0057802204973995686, -0.07998312264680862, 0.20132975280284882, 0.0686124786734581, -0.023468034341931343, -0.21107210218906403, -0.0513526126742363, -0.2044186294078827, -0.08305727690458298, -0.03779888153076172, 0.012061637826263905, 0.019199471920728683, 0.20542357861995697, 0.026494979858398438, 0.07292395830154419, -0.23014110326766968, -0.12169588357210159, 0.009578335098922253, -0.10882445424795151, 0.10254619270563126, -0.04516913369297981, 0.0023896030616015196, 0.0015346590662375093, -0.18390591442584991, 0.32372575998306274, 0.154571995139122, -0.3801383674144745, -0.43675750494003296, -0.28992828726768494, -0.3586840331554413, -0.31158965826034546, -0.31407538056373596, 0.3046585023403168, -0.33275988698005676, -0.4091412127017975, 0.4391803741455078, -0.17182177305221558, -0.33666983246803284, -0.36838871240615845, -0.4070173501968384, -0.42922255396842957, 0.2379618138074875, 0.17717063426971436, -0.17194661498069763, -0.3927849233150482, 0.37378209829330444, -0.21392695605754852, -0.2477182000875473, -0.39074277877807617, -0.41872838139533997, 0.1868615299463272, 0.29640674591064453, -0.4297904372215271, -0.3125322163105011, -0.305172860622406, -0.2725905776023865, -0.3409856855869293, -0.24755045771598816, 0.16117441654205322, 0.18242880702018738, -0.4418095648288727, -0.35898250341415405, -0.37036803364753723, 0.46328577399253845, -0.3411528766155243, -0.3405371606349945, -0.4104067087173462, -0.21990279853343964, 0.4338701665401459, -0.15909504890441895, 0.2410477101802826, 0.20365186035633087, 0.29299506545066833, 0.36349794268608093, 0.4341336190700531, -0.22420692443847656, 0.2509680390357971, 0.23604226112365723, -0.15575678646564484, 0.431285560131073, 0.3035931885242462, 0.23586180806159973, -0.15928642451763153, -0.2469147890806198, -0.28116342425346375, -0.4525778293609619, 0.22748717665672302, -0.14796330034732819, 0.2860959470272064, -0.16884322464466095, 0.4564461410045624, 0.2812789976596832, -0.136154443025589, 0.27018216252326965, -0.36348864436149597, -0.29089128971099854, 0.28583765029907227, -0.32165589928627014, 0.2796913683414459, -0.2009100615978241, -0.2194877713918686, 0.28080233931541443, 0.3445092439651489, -0.3789285719394684, -0.20901812613010406, 0.41227880120277405, -0.2021697461605072, 0.18463817238807678, 0.26143941283226013, -0.33338236808776855, -0.27702096104621887, -0.25043031573295593, 0.37139782309532166, 0.4364808201789856, 0.43975698947906494, -0.3684091567993164, 0.26773831248283386, -0.26500630378723145, 0.3905053734779358, -0.15731734037399292, -0.15925954282283783, 0.16623316705226898, 0.19145961105823517, -0.19174452126026154, -0.19188109040260315, -0.33008334040641785, -0.18218111991882324, -0.11835801601409912, -0.3946652114391327, -0.28739991784095764, 0.15974242985248566, 0.44647228717803955, 0.38180041313171387, -0.19851543009281158, -0.3001885414123535, -0.3015405833721161, -0.3324373960494995, -0.35564884543418884, 0.2947312593460083, 0.40629276633262634, 0.3169531524181366, 0.2098791003227234, 0.43504399061203003, -0.41920268535614014, -0.4177998900413513, -0.25522059202194214, -0.2890910506248474, 0.26830023527145386, -0.20515236258506775, 0.4627264440059662, 0.41836559772491455, -0.2302263230085373, 0.18910615146160126, 0.20940758287906647, -0.24771438539028168, -0.3008115589618683, -0.2931421101093292, -0.09300839155912399, -0.13008618354797363, -0.18702638149261475, 0.08456798642873764, -0.22982366383075714, -0.14553210139274597, 0.30167752504348755, -0.10577268153429031, -0.2626683712005615, -0.2969556450843811, -0.2606600224971771, -0.24176035821437836, 0.2103894203901291, 0.22053326666355133, -0.02371581457555294, -0.12128633260726929, 0.34650319814682007, -0.15250371396541595, -0.03914598003029823, -0.13402113318443298, -0.05550112575292587, 0.013855439610779285, 0.30555930733680725, -0.1652618944644928, -0.2804233729839325, -0.16412626206874847, -0.26679712533950806, -0.2095109075307846, -0.22268305718898773, 0.3236994743347168, 0.23380765318870544, -0.25475430488586426, -0.05415816232562065, -0.028718164190649986, 0.19001805782318115, -0.30558323860168457, -0.12906329333782196, -0.17707553505897522, -0.06076784059405327, 0.3115202486515045, -0.08066873997449875, 0.17353686690330505, 0.14430798590183258, 0.15989312529563904, 0.3187096118927002, 0.12899057567119598, -0.10804224759340286, 0.15373404324054718, 0.25421342253685, -0.15584306418895721, 0.13729095458984375, 0.2941594123840332, 0.1527472287416458, -0.15143714845180511, -0.13737177848815918, -0.08685176074504852, -0.17301781475543976, 0.0992869883775711, -0.07798810303211212, 0.16692054271697998, -0.22025558352470398, 0.08228841423988342, 0.23605379462242126, -0.2898312211036682, 0.09920662641525269, -0.21597617864608765, -0.16800113022327423, 0.13511164486408234, -0.07834529131650925, 0.06875580549240112, -0.17484328150749207, -0.29931876063346863, 0.13636329770088196, 0.2346058338880539, -0.27897173166275024, -0.1905766874551773, 0.2042558640241623, -0.14465948939323425, 0.30769890546798706, 0.258877158164978, -0.18176940083503723, -0.07373472303152084, -0.23024600744247437, 0.10753916949033737, 0.15885622799396515, 0.2656550407409668, -0.29184386134147644, 0.04277651384472847, -0.17442937195301056, 0.2464407980442047, -0.02478819154202938, -0.2671559154987335, 0.23148202896118164, 0.13698475062847137, -0.28468888998031616, -0.17450962960720062, -0.2851163148880005, -0.1973423808813095, -0.19335180521011353, -0.04190985858440399, -0.13940873742103577, 0.06555154174566269, 0.04387054219841957, 0.09050238877534866, -0.12207552045583725, -0.057446982711553574, -0.15760943293571472, -0.21828411519527435, -0.2381872534751892, 0.32089924812316895, 0.3198673129081726, 0.3184201121330261, 0.19341249763965607, 0.06771709769964218, -0.24038857221603394, -0.20939217507839203, -0.14011447131633759, -0.2729192078113556, 0.1357882171869278, -0.24886393547058105, 0.161359965801239, 0.3064214289188385, -0.037840258330106735, 0.015209647826850414, -0.25154581665992737, 0.11664372682571411, -0.012908469885587692, 0.043104611337184906, 0.03954319655895233, 0.19624944031238556, -0.007846520282328129, -0.014740381389856339, 0.23021547496318817, 0.19790732860565186, -0.25232821702957153, 0.061307311058044434, 0.12623175978660583, 0.15095238387584686, 0.03548417240381241, 0.14581787586212158, -0.019984211772680283, -0.022976765409111977, 0.2493770569562912, 0.050100624561309814, -0.22446377575397491, 0.07577347755432129, 0.19411741197109222, -0.05183848366141319, 0.19613060355186462, 0.03527335077524185, -0.16696220636367798, 0.1325499415397644, 0.21874579787254333, 0.03577275946736336, 0.19899384677410126, 0.07220575213432312, -0.00714025367051363, -0.14014337956905365, -0.1286231130361557, -0.019936440512537956, 0.014207092113792896, 0.062336258590221405, 0.043047524988651276, 0.10885725170373917, 0.08545997738838196, 0.07094984501600266, 0.11483058333396912, -0.22515341639518738, 0.05665123835206032, -0.06756766885519028, -0.1469334214925766, -0.07949315756559372, -0.08423738926649094, -0.08836401998996735, 0.0832650288939476, -0.2637224495410919, -0.055060673505067825, 0.21840541064739227, -0.10746809095144272, -0.22974653542041779, -0.2319817990064621, -0.05318158492445946, -0.01196334883570671, 0.22415347397327423, -0.03224285691976547, -0.08444931358098984, 0.061873406171798706, -0.23727412521839142, -0.028548190370202065, -0.1702500581741333, -0.13914649188518524, -0.00019737154070753604, -0.2556614577770233, 0.1983005851507187, 0.08788642287254333, -0.11931570619344711, 0.07047338783740997, -0.19938890635967255, 0.07554202526807785, 0.02793807163834572, -0.2516534924507141, -0.009609383530914783, 0.07442551851272583, 0.2207932025194168, -0.21997277438640594, 0.039108093827962875, -0.06340990215539932, -0.1131213903427124, 0.196481853723526, 0.007274255156517029, 0.23865604400634766, -0.02207808755338192, -0.15640278160572052, -0.08417944610118866, 0.17814715206623077, -0.2172784060239792, -0.0849493220448494, -0.229142427444458, 0.10956638306379318, 0.025883201509714127, -0.2596961259841919, -0.050746042281389236, 0.10651960968971252, 0.19724223017692566, 0.1804530918598175, -0.017624668776988983, 0.14624838531017303, 0.10628803074359894, 0.23018114268779755, -0.15913107991218567, -0.24122457206249237, -0.2557668387889862, -0.05711901932954788, 0.1437154859304428, 0.055315881967544556, 0.1197410374879837, 0.05967520922422409, -0.22936084866523743, -0.1555277407169342, -0.23587492108345032, -0.011111509054899216, -0.19549670815467834, 0.2003287672996521, 0.011997034773230553, 0.14756889641284943, 0.07427298277616501, -0.07116179913282394, 0.18339656293392181, -0.0850967988371849, -0.12275979667901993, -0.15254487097263336, 0.018426241353154182, 0.16236557066440582, 0.0036939484998583794, -0.09084412455558777, -0.08581820875406265, -0.030946487560868263, -0.20053830742835999, -0.2648877799510956, 0.11647194623947144, -0.23952361941337585, -0.2168790102005005, 0.11673570424318314, -0.11285360157489777, -0.1034950315952301, -0.012843853794038296, -0.04087832197546959, -0.25925397872924805, 0.13492943346500397, 0.2902558445930481, -0.20912370085716248, -0.09581133723258972, 0.030776530504226685, -0.17224082350730896, -0.25974801182746887, -0.12318280339241028, -0.0175438541918993, 0.038516320288181305, 0.16253267228603363, -0.24603016674518585, -0.1876852810382843, -0.2262548953294754, -0.10787718743085861, -0.12066148966550827, -0.21795380115509033, -0.01518234983086586, 0.22954882681369781, -0.18124668300151825, -0.17463994026184082, 0.008793479762971401, 0.018843544647097588, -0.1428961306810379, -0.005208062473684549, -0.11327803879976273, -0.07311739772558212, 0.08619232475757599, -0.005420615430921316, 0.1569015085697174, 0.1275676041841507, 0.14629898965358734, 0.14093007147312164, -0.00943378172814846, -0.2048148512840271, 0.1205618679523468, 0.041402094066143036, -0.04647425189614296, 0.08427995443344116, 0.27977055311203003, 0.06918330490589142, -0.1759951114654541, -0.04717492684721947, -0.11301456391811371, -0.06866780668497086, 0.022226480767130852, -0.05081462487578392, 0.1854773312807083, -0.04303047060966492, 0.25166216492652893, 0.20598529279232025, -0.16166292130947113, 0.24509365856647491, -0.13018926978111267, -0.27805835008621216, 0.25611069798469543, -0.08247334510087967, 0.06646405160427094, -0.230962872505188, -0.11103332042694092, 0.04050498828291893, -0.02382499724626541, -0.14076732099056244, -0.15875467658042908, -0.017333773896098137, -0.0583798885345459, 0.26131704449653625, 0.23400132358074188, -0.25383123755455017, -0.2181764394044876, -0.031872253865003586, 0.15489815175533295, 0.1712896227836609, 0.14970916509628296, -0.22560256719589233, 0.18331171572208405, -0.2505616247653961, 0.0602794885635376, -0.19202853739261627, -0.19567297399044037, 0.06696471571922302, 0.26538538932800293, -0.11689338833093643, -0.24099983274936676, -0.006601741537451744, -0.09408193081617355, -0.21711234748363495, -0.10193722695112228, -0.034020669758319855, 0.2048783302307129, 0.030941875651478767, 0.10916592180728912, -0.09743975102901459, -0.22018980979919434, -0.12723319232463837, -0.24007749557495117, -0.03334904462099075, 0.12986136972904205, 0.09631521999835968, 0.25623899698257446, 0.06308237463235855, 0.10688341408967972, -0.2667817771434784, -0.15130451321601868, -0.2331717312335968, -0.09584898501634598, 0.22175444662570953, -0.25943878293037415, 0.1860344260931015, 0.01915012113749981, -0.05264991149306297, 0.04591331630945206, 0.20042556524276733, -0.1525128334760666, -0.0364261157810688, -0.14281217753887177, -0.007212643511593342, -0.09757475554943085, -0.1283196359872818, 0.23504996299743652, -0.04761449992656708, -0.2345149666070938, 0.11100088804960251, -0.15458692610263824, -0.14197984337806702, -0.12775224447250366, -0.1902388483285904, -0.20851033926010132, 0.12499310076236725, -0.05954554304480553, -0.22485077381134033, 0.01084242481738329, 0.003976776730269194, -0.04020849987864494, -0.08371565490961075, 0.04393089935183525, -0.05486784875392914, -0.06313934177160263, 0.05662486329674721, -0.07131585478782654, -0.10811368376016617, -0.02603956125676632, -0.07383197546005249, 0.027558593079447746, -0.06097755208611488, 0.1078016459941864, -0.051967158913612366, -0.14020612835884094, 0.0005224132910370827, -0.21935153007507324, -0.015168549492955208, -0.18064965307712555, -0.19078592956066132, -0.14157314598560333, -0.14086277782917023, -0.03714267909526825, -0.17100758850574493, 0.16923390328884125, 0.010347748175263405, -0.004701052326709032, 0.0319649763405323, 0.03683314844965935, -0.016709281131625175, 0.15366213023662567, 0.060665544122457504, -0.14950472116470337, 0.10146921128034592, 0.17117121815681458, 0.24082300066947937, -0.19660718739032745, -0.21743550896644592, -0.1820397973060608, -0.11034595966339111, 0.09038007259368896, -0.1695133000612259, 0.0900551825761795, -0.20730216801166534, -0.03841482847929001, 0.15695269405841827, -0.13787105679512024, -0.04258734732866287, -0.18798689544200897, -0.2127160131931305, 0.11819562315940857, -0.059276994317770004, 0.027059003710746765, -0.07580139487981796, -0.06816640496253967, 0.13782384991645813, 0.2050582319498062, 0.02108570747077465, -0.24147722125053406, 0.07537523657083511, 0.019301090389490128, 0.18086084723472595, 0.13204596936702728, 0.03687252476811409, -0.09271526336669922, -0.05854322016239166, -0.03603830188512802, -0.026597561314702034, -0.01654633693397045, -0.021526364609599113, 0.06215965002775192, 0.009373482316732407, 0.1471700817346573, 0.06620099395513535, -0.1535707414150238, -0.08647315949201584, 0.1800258457660675, 0.0037600467912852764, -0.09125810861587524, -0.23838403820991516, -0.14855633676052094, -0.20849528908729553, -0.21403217315673828, -0.14712798595428467, 0.03040604293346405, 0.12970077991485596, 0.16211888194084167, -0.12709297239780426, -0.23773030936717987, -0.0136645482853055, 0.03760599344968796, 0.06410720199346542, 0.051027439534664154, 0.12171345949172974, 0.04097969830036163, 0.12429764866828918, -0.023471616208553314, -0.23819883167743683, -0.09488891810178757, 0.03707660734653473, -0.17665347456932068, 0.18398934602737427, -0.1055040955543518, 0.16839230060577393, 0.06687936931848526, 0.14309383928775787, -0.061777446419000626, -0.27177825570106506, 0.1890518218278885, 0.296739399433136, 0.06519368290901184, 0.1132785975933075, 0.2545572817325592, 0.17677900195121765, -0.07640565931797028, 0.08667487651109695, 0.1967242956161499, -0.039473097771406174, 0.19189392030239105, 0.031080514192581177, 0.20273102819919586, 0.10784533619880676, 0.06331055611371994, -0.09261796623468399, -0.18226519227027893, 0.16241179406642914, 0.06497719883918762, -0.09151413291692734, 0.029389817267656326, 0.2522166073322296, 0.07968394458293915, 0.1299598067998886, -0.007040778640657663, -0.24348221719264984, 0.2721560299396515, 0.10263475775718689, 0.09808888286352158, 0.12540927529335022, 0.2287742644548416, 0.12980642914772034, -0.0798254907131195, -0.1011972427368164, 0.08718370646238327, 0.004887321498245001, 0.15202918648719788, -0.2994171679019928, 0.12259756028652191, -0.0114118792116642, 0.06328725814819336, 0.19686535000801086, -0.056511204689741135, 0.20106828212738037, -0.20251280069351196, -0.12173929810523987, -0.2777784466743469, -0.21449391543865204, -0.19128042459487915, 0.06797189265489578, -0.2578256130218506, -0.08625898510217667, 0.2779461145401001, -0.24974748492240906, -0.07003694027662277, -0.11662744730710983, 0.13011807203292847, 0.21994397044181824, -0.0034713379573076963, 0.18720607459545135, -0.04556841403245926, 0.05789076164364815, -0.09456194192171097, 0.1773703694343567, -0.1522178053855896, -0.12371736019849777, 0.03804166242480278, -0.07096892595291138, 0.2885364294052124, 0.12160596996545792, -0.009355207905173302, 0.30165553092956543, -0.12346314638853073, 0.22515039145946503, 0.20097365975379944, -0.27159377932548523, -0.1983436644077301, 0.014304404146969318, 0.2119295299053192, -0.1677314043045044, 0.21866507828235626, -0.26238813996315, -0.1892794966697693, 0.23809054493904114, 0.21518796682357788, 0.049267061054706573, -0.19959627091884613, -0.19033628702163696, -0.25165683031082153, 0.20940999686717987, -0.04621611535549164, -0.008844654075801373, -0.24379558861255646, 0.01720358245074749, 0.13035951554775238, -0.17028075456619263, -0.11080081760883331, 0.032009534537792206, 0.29406076669692993, 0.12396911531686783, 0.2829885184764862, 0.24192208051681519, 0.23987984657287598, 0.11344706267118454, -0.1106119379401207, 0.0012152863200753927, -0.048879556357860565, 0.2541792392730713, 0.0762537270784378, 0.11875779926776886, 0.11076289415359497, 0.04462262615561485, -0.25582101941108704, -0.0467551089823246, -0.2083306759595871, -0.29215607047080994, -0.26024389266967773, 0.14944858849048615, 0.23695383965969086, 0.25075939297676086, 0.15345726907253265, -0.11750698834657669, 0.18486587703227997, -0.09708743542432785, -0.2032124102115631, 0.2913452684879303, -0.2280651330947876, -0.3021066188812256, 0.18092189729213715, 0.3043145537376404, 0.33567193150520325, 0.13307005167007446, 0.20488706231117249, 0.23863033950328827, -0.12357478588819504, 0.1789460927248001, 0.30175602436065674, -0.22640004754066467, 0.08401460945606232, 0.15604664385318756, 0.06722579896450043, 0.16541960835456848, 0.07314761728048325, -0.04927206039428711, -0.22016854584217072, 0.222713902592659, 0.26382067799568176, -0.029139146208763123, 0.30447864532470703, 0.24059104919433594, 0.14099599421024323, 0.2604520618915558, -0.07200969755649567, -0.07174768298864365, 0.07732146233320236, 0.1475316435098648, 0.28913769125938416, 0.328587144613266, 0.33308911323547363, 0.07644407451152802, -0.27725180983543396, -0.3570796549320221, 0.2610446810722351, 0.27154719829559326, 0.2457691878080368, -0.15227997303009033, 0.29061266779899597, 0.2622199058532715, 0.08013125509023666, 0.29039448499679565, -0.29844406247138977, 0.035535987466573715, -0.16453661024570465, -0.28820106387138367, -0.11192970722913742, -0.2252681851387024, -0.2267330139875412, 0.1723649799823761, -0.12141329050064087, -0.23916669189929962, 0.04745063930749893, -0.08521661162376404, -0.28210264444351196, -0.09229087084531784, 0.15551260113716125, 0.36691588163375854, 0.05107374116778374, 0.2894309163093567, -0.13454701006412506, 0.08077063411474228, -0.3031361699104309, 0.21515589952468872, -0.29300111532211304, -0.10011422634124756, 0.28496065735816956, -0.22944898903369904, 0.04651892930269241, 0.2425539344549179, -0.3172425627708435, 0.06768865138292313, -0.29354560375213623, 0.13779190182685852, 0.29744863510131836, -0.3124406933784485, -0.09653677046298981, 0.32351550459861755, 0.18517060577869415, -0.15446503460407257, 0.24063025414943695, -0.10184164345264435, -0.04708555340766907, 0.1834508329629898, 0.17850565910339355, 0.16807042062282562, -0.21433275938034058, -0.27288469672203064, -0.325512170791626, 0.2602529227733612, -0.18442770838737488, 0.12072804570198059, -0.2009730190038681, 0.11551287770271301, 0.25279343128204346, -0.14924006164073944, -0.22488361597061157, 0.3001144230365753, 0.2204807996749878, 0.22883784770965576, 0.1146852895617485, 0.03154471889138222, 0.23204198479652405, 0.18605011701583862, -0.05977259948849678, -0.24041056632995605, -0.1770504117012024, 0.03815843537449837, 0.24186453223228455, 0.15070204436779022, 0.12771257758140564, 0.12718141078948975, -0.12188643962144852, -0.19295726716518402, -0.23412998020648956, -0.1676224321126938, -0.10824500769376755, 0.07744810730218887, 0.06881632655858994, 0.17543159425258636, 0.22093528509140015, -0.08649762719869614, 0.24399910867214203, -0.3009951114654541, -0.24546976387500763, 0.13548459112644196, -0.045966338366270065, -0.12791664898395538, 0.32083308696746826, 0.27275538444519043, 0.06431908160448074, 0.1828918308019638, 0.03887376934289932, 0.1709793359041214, -0.0745197981595993, 0.2344634085893631, 0.22712837159633636, -0.030420204624533653, 0.011499429121613503, 0.23854637145996094, 0.143571138381958, 0.10446478426456451, 0.16161713004112244, -0.2633260190486908, -0.18641802668571472, 0.2892768383026123, 0.2798207104206085, -0.027979329228401184, 0.29929354786872864, 0.2179557830095291, 0.14298765361309052, 0.06381093710660934, -0.21731726825237274, -0.23551024496555328, 0.28578662872314453, 0.3025624454021454, 0.11528884619474411, 0.30393826961517334, 0.13928940892219543, 0.13542313873767853, -0.033488526940345764, -0.21251551806926727, 0.1508001834154129, 0.2575194537639618, 0.10944236069917679, -0.2844270169734955, 0.09550830721855164, 0.10117565840482712, 0.08395149558782578, 0.03241419419646263, -0.16613028943538666, 0.21425573527812958, -0.1704164445400238, -0.03017262928187847, -0.22230681777000427, -0.16693581640720367, -0.25605902075767517, 0.06877104192972183, -0.12689654529094696, -0.1768227219581604, 0.15383300185203552, -0.07494067400693893, -0.3165338933467865, -0.29029732942581177, 0.09311364591121674, 0.20555493235588074, 0.24104247987270355, 0.2613997459411621, -0.27916067838668823, 0.18762661516666412, -0.029611939564347267, 0.20900139212608337, -0.21681280434131622, -0.18276579678058624, 0.26222431659698486, -0.2110508382320404, 0.14588938653469086, 0.18665370345115662, -0.15412861108779907, 0.16646252572536469, -0.14010195434093475, 0.30123481154441833, 0.2564319670200348, -0.18840648233890533, -0.3290480673313141, 0.2650398015975952, 0.015234640799462795, -0.15236327052116394, 0.06525183469057083, -0.14291027188301086, -0.18414443731307983, 0.248554989695549, 0.015894386917352676, 0.09053214639425278, -0.2642980217933655, -0.09369383752346039, -0.07417481392621994, 0.05235028266906738, -0.06116905435919762, 0.10513992607593536, -0.14305122196674347, 0.08358968794345856, 0.09630031138658524, -0.16452349722385406, -0.26876869797706604, 0.24747224152088165, 0.22351589798927307, 0.23802189528942108, 0.12034907937049866, 0.1606716364622116, 0.11285445094108582, 0.2337789237499237, -0.22364281117916107, -0.3153396248817444, -0.25727415084838867, 0.050787657499313354, 0.151884064078331, 0.182125061750412, 0.07466196268796921, 0.06522221863269806, -0.268144428730011, -0.30423325300216675, -0.1630188226699829, -0.13062235713005066, -0.14749687910079956, 0.20829619467258453, 0.19877302646636963, 0.25981006026268005, 0.08759143203496933, -0.1810547411441803, 0.15092438459396362, -0.15076179802417755, -0.2984364926815033, 0.12849509716033936, 0.0010011001722887158, -0.14109644293785095, 0.2486901730298996, 0.27660149335861206, 0.09460899978876114, 0.09717481583356857, 0.18141314387321472, 0.21106518805027008, -0.1486991047859192, 0.13648295402526855, 0.2649889588356018, -0.16667966544628143, 0.23534636199474335, 0.027313124388456345, 0.1012774333357811, 0.12395172566175461, 0.14655174314975739, -0.2454550713300705, -0.17940548062324524, 0.2773227095603943, 0.06607811152935028, -0.049944594502449036, 0.06367897987365723, 0.0016545166727155447, 0.0773758813738823, 0.05717591941356659, -0.19377022981643677, -0.10555209964513779, 0.06076020374894142, 0.12424306571483612, 0.044309813529253006, 0.06974024325609207, -0.039277251809835434, 0.07506310194730759, -0.12050143629312515, -0.18017657101154327, 0.2284388393163681, 0.2717685401439667, 0.06436850130558014, -0.05092671513557434, 0.0019537685438990593, 0.06549171358346939, 0.25325605273246765, 0.02796744741499424, -0.05011126399040222, 0.031146248802542686, -0.2554170787334442, 0.03158348798751831, -0.0793028473854065, -0.05810215696692467, -0.14198216795921326, -0.017656980082392693, -0.05131731927394867, -0.036804161965847015, 0.03459296002984047, -0.2497013509273529, -0.22626550495624542, -0.24667105078697205, -0.02101689763367176, 0.19146688282489777, 0.1358945220708847, 0.09161548316478729, -0.2074563056230545, 0.09273714572191238, -0.14259573817253113, 0.09314402937889099, 0.034835200756788254, -0.18027691543102264, 0.1809941530227661, 0.014042625203728676, 0.23951809108257294, 0.005508661735802889, -0.2473769187927246, -0.020011654123663902, -0.03831164911389351, 0.14281566441059113, 0.22359977662563324, -0.1565137803554535, -0.23592230677604675, 0.18061409890651703, 0.21700608730316162, -0.23890900611877441, 0.13083802163600922, -0.13535472750663757, -0.2022458016872406, 0.01630578748881817, 0.1477494090795517, 0.11850457638502121, -0.006506079807877541, -0.12091600149869919, -0.2638058066368103, 0.17659950256347656, -0.16270966827869415, 0.16253158450126648, -0.042127884924411774, 0.2389809787273407, 0.014668695628643036, -0.09881885349750519, -0.017728131264448166, 0.21194498240947723, 0.04765871539711952, 0.06977450847625732, 0.22014588117599487, 0.03588477522134781, 0.08483868837356567, 0.03679494559764862, -0.09250995516777039, -0.2528718411922455, -0.22961878776550293, 0.2206905037164688, 0.23066842555999756, 0.2560592293739319, 0.22405000030994415, 0.20204168558120728, -0.25015565752983093, -0.16470970213413239, -0.264440655708313, -0.08962127566337585, -0.23730720579624176, 0.22360405325889587, -0.0019086699467152357, 0.16170328855514526, -0.0005464986898005009, -0.14017488062381744, 0.25867849588394165, -0.22700439393520355, -0.15883491933345795, -0.2398822009563446, 0.12601393461227417, 0.3264148533344269, -0.2249130755662918, -0.2791507840156555, -0.38210615515708923, -0.19917532801628113, -0.31323567032814026, -0.3053174316883087, 0.37524107098579407, -0.2742546796798706, -0.25247395038604736, 0.3126998543739319, -0.10590779036283493, -0.3408106565475464, -0.13078573346138, -0.18356633186340332, -0.28624677658081055, 0.24023056030273438, 0.2589172422885895, -0.20136317610740662, -0.2143416851758957, 0.37286290526390076, -0.12234997749328613, -0.30514541268348694, -0.37034398317337036, -0.13357779383659363, 0.32012343406677246, 0.2786179780960083, -0.22584155201911926, -0.2171982079744339, -0.1290932297706604, -0.3069680333137512, -0.09908383339643478, -0.38200467824935913, 0.1854553073644638, 0.1926930546760559, -0.1090458482503891, -0.38154417276382446, -0.34043702483177185, 0.229239821434021, -0.3523324429988861, -0.3444232642650604, -0.37021714448928833, -0.11536921560764313, 0.40810590982437134, -0.3931751847267151, 0.3308746814727783, 0.19800397753715515, 0.22681455314159393, 0.26030972599983215, 0.348566472530365, -0.2806188762187958, 0.3791004717350006, 0.11098253726959229, -0.34837186336517334, 0.3596975803375244, 0.19922785460948944, 0.23846206068992615, -0.40650978684425354, -0.3926545977592468, -0.27426818013191223, -0.2552645802497864, 0.23422279953956604, -0.09824034571647644, 0.35114121437072754, -0.2490900307893753, 0.2976124882698059, 0.39952507615089417, -0.21357542276382446, 0.41253095865249634, -0.411678284406662, -0.17513079941272736, 0.3208538293838501, -0.4196335971355438, 0.12867888808250427, -0.29733049869537354, -0.21632935106754303, 0.37097516655921936, 0.19265291094779968, -0.3319280445575714, -0.23767240345478058, 0.3997023403644562, -0.1847532093524933, 0.34952211380004883, 0.4194716811180115, -0.28453949093818665, -0.139836847782135, -0.15310509502887726, 0.39757445454597473, 0.20664525032043457, 0.30499348044395447, -0.13932597637176514, 0.263682097196579, -0.36125752329826355, 0.3605000078678131, -0.19278381764888763, -0.30689677596092224, 0.15637202560901642, 0.22909492254257202, -0.2791087031364441, -0.15029332041740417, -0.3925383687019348, -0.2074124813079834, -0.12808655202388763, -0.11493608355522156, -0.38271796703338623, 0.2789061367511749, 0.1845550388097763, 0.26672568917274475, -0.22054293751716614, -0.2159937024116516, -0.21011322736740112, -0.17369036376476288, -0.3557606041431427, 0.26095321774482727, 0.24142341315746307, 0.21846294403076172, 0.24223592877388, 0.31770530343055725, -0.36425361037254333, -0.16547837853431702, -0.31684789061546326, -0.16983363032341003, 0.32079267501831055, -0.2779441177845001, 0.21253003180027008, 0.34138885140419006, -0.3816359043121338, 0.466492235660553, 0.37114548683166504, -0.4605751931667328, -0.3875487446784973, -0.3938146233558655, -0.4821113348007202, -0.5163593292236328, -0.34419524669647217, 0.2547762393951416, -0.34381166100502014, -0.21722325682640076, 0.3346726894378662, -0.40598422288894653, -0.34027421474456787, -0.24588845670223236, -0.27924883365631104, -0.47769004106521606, 0.195815771818161, 0.26649799942970276, -0.235068678855896, -0.2225978970527649, 0.290964275598526, -0.19265983998775482, -0.24877676367759705, -0.3341773748397827, -0.37625107169151306, 0.27873218059539795, 0.20411346852779388, -0.3475588858127594, -0.33565977215766907, -0.303723007440567, -0.24515190720558167, -0.46112707257270813, -0.2605520188808441, 0.4848487377166748, 0.4583442509174347, -0.5160030722618103, -0.4292096495628357, -0.31146150827407837, 0.5087392330169678, -0.4660797417163849, -0.47641798853874207, -0.2294660210609436, -0.4600904881954193, 0.2293279469013214, -0.3184467852115631, 0.23045556247234344, 0.4061794877052307, 0.48988261818885803, 0.2572229504585266, 0.40188679099082947, -0.260161817073822, 0.24241644144058228, 0.40281185507774353, -0.4220917224884033, 0.39296165108680725, 0.20193840563297272, 0.44190630316734314, -0.2893664836883545, -0.2328394502401352, -0.21764355897903442, -0.3553850054740906, 0.35635244846343994, -0.3587832450866699, 0.37142014503479004, -0.42672812938690186, 0.31970688700675964, 0.4674617648124695, -0.44951748847961426, 0.3925209045410156, -0.23275212943553925, -0.36812740564346313, 0.4397878646850586, -0.44361716508865356, 0.24270115792751312, -0.39772897958755493, -0.4777848720550537, 0.458387166261673, 0.42822176218032837, -0.29631274938583374, -0.30766454339027405, 0.215268075466156, -0.27558109164237976, 0.43966057896614075, 0.388653427362442, -0.400335431098938, 