[0.0034442960750311613, 0.05634579807519913, -0.03530583903193474, 0.05018702149391174, -0.007145589217543602, 0.04776590317487717, 0.03962700068950653, 0.04041890799999237, -0.02288266085088253, 0.0521153099834919, 0.04592590406537056, -0.026256803423166275, 0.03069816157221794, -0.06638243794441223, -0.009066624566912651, 0.023759111762046814, 0.051790159195661545, 0.06642202287912369, 0.017495738342404366, 0.050363361835479736, -0.004716978874057531, 0.19128327071666718, -0.07380534708499908, 0.13508689403533936, -0.016050836071372032, -0.020003773272037506, 0.07808157056570053, 0.03512820228934288, -0.2143717110157013, 0.01927967742085457, -0.007617355324327946, 0.04166372865438461, 0.06936881691217422, 0.07053916156291962, -0.0013855410506948829, 0.07206086814403534, 0.2610654830932617, 0.034849632531404495, 0.040559567511081696, -0.07785823941230774, 0.04859228432178497, 0.050450392067432404, -0.022983672097325325, -0.008776641450822353, -0.022579973563551903, 0.05215321481227875, 0.11572755873203278, -0.0038897073827683926, 0.0408020094037056, 0.03266262263059616, 0.05741610750555992, 0.07462295889854431, 0.028748074546456337, 0.10079158842563629, -0.0808657854795456, -0.010360265150666237, 0.021894851699471474, 0.21564209461212158, 0.04369582235813141, 0.04118300974369049, -0.006508965045213699, -0.03146052733063698, 0.05306367576122284, 0.004358910955488682, -0.005681866779923439, 0.039824698120355606, 0.0038217788096517324, -0.05757635831832886, 0.061064254492521286, 0.18876837193965912, -0.005824533756822348, -0.018486661836504936, -0.032642293721437454, 0.0508810430765152, 0.002151818946003914, -0.06710899621248245, 0.04101453721523285, 0.020996704697608948, 0.08696969598531723, -0.0060162171721458435, 0.0302631426602602, 0.14714999496936798, -0.026082824915647507, 0.009184516035020351, 0.12367549538612366, 0.06798497587442398, 0.00291583058424294, 0.037824612110853195, -0.004934313241392374, 0.038263894617557526, -0.011117227375507355, 0.006785029545426369, 0.030964136123657227, 0.03335404396057129, -0.008413477800786495, 0.18898595869541168, -0.007536008954048157, -0.0024868736509233713, -0.005372996442019939, -0.1625535488128662, 0.03305730223655701, -0.013668104074895382, 0.06743313372135162, 0.04374266788363457, -0.1513834297657013, 0.22465559840202332, -0.04782408848404884, -0.013733580708503723, -0.027196073904633522, 0.057368651032447815, -0.013462843373417854, 0.07606588304042816, 0.052060749381780624, 0.05617794767022133, 0.10172591358423233, 0.04169655963778496, 0.022769557312130928, 0.055573079735040665, 0.01315173227339983, 0.033725153654813766, 0.20155812799930573, 0.019462376832962036, 0.04627010226249695, -0.01682196743786335, 0.07409071922302246, 0.03871046379208565, 0.053516142070293427, 0.0685887560248375]
