[0.00032782318885438144, 0.009643714874982834, -0.006960773840546608, -0.012804359197616577, -0.0017120953416451812, 0.01477894838899374, 0.02109324373304844, -0.029183775186538696, 0.011970456689596176, 0.007799260783940554, -0.009145934134721756, -0.007965867407619953, -0.0026092047337442636, -0.012453833594918251, -0.02875739522278309, -0.005006817169487476, -0.028958596289157867, -0.019878892228007317, -0.012438176199793816, 0.0021808105520904064, 0.0012148774694651365, -0.012642140500247478, 0.02932780049741268, -0.01747182570397854, -0.013099044561386108, -0.010627469047904015, -0.0171146709471941, -0.01083008386194706, 0.014009921811521053, -0.02416459284722805, -0.021899724379181862, 0.0061750044114887714, -0.015428788959980011, -0.011004614643752575, -0.01856986992061138, 0.0006700772210024297, -0.007780428975820541, -0.007695486769080162, 0.010056768544018269, -0.009305386804044247, 0.0006916000857017934, -0.0013359449803829193, -0.004471536260098219, 0.0039810482412576675, -0.013085415586829185, -0.002806642558425665, -0.006428786087781191, 0.001150808879174292, 0.025477640330791473, 0.011219562031328678, 0.0012648697011172771, -0.001915316330268979, 0.013455867767333984, -0.009670375846326351, 0.007307170424610376, -0.004976681433618069, 0.0005437220679596066, -0.003533021779730916, 0.009432956576347351, -0.006672963500022888, 0.012714913114905357, -0.013232098892331123, -0.0069944285787642, -0.005754217971116304, 0.0049183606170117855, 0.012226784601807594, -0.0002340489736525342, 0.013174189254641533, -0.0003374140942469239, 0.006105212029069662, -0.0028735504020005465, -0.03227759525179863, -0.009555318392813206, -0.006591822952032089, -0.006883095949888229, -0.0009511382668279111, 8.334766607731581e-05, -0.014931119047105312, 0.00047063021338544786, -0.011545608751475811, -0.004073568619787693, -0.018429160118103027, -0.011728869751095772, 0.0032384521327912807, -0.014850207604467869, -0.006867125630378723, -0.012076659128069878, -0.023851308971643448, 0.005681424867361784, 0.018095247447490692, 0.006798174697905779, 0.0059404741041362286, -0.023523902520537376, -0.001745618530549109, -0.034901365637779236, 0.008341392502188683, 0.004848128650337458, 0.0027762216050177813, -0.0403481088578701, 0.00042599104926921427, -0.01307823695242405, -0.0012414174852892756, -0.0033549948129802942, -0.012373908422887325, 0.002134184120222926, -0.003303109435364604, 0.014188095927238464, -0.0029216224793344736, 0.002337113721296191, 0.00282513746060431, -0.0160924531519413, -0.015199431218206882, -0.0016908077523112297, 0.0008609792566858232, -0.00835628155618906, 0.013152604922652245, 0.01603974588215351, 0.012737764976918697, -0.012470143847167492, 0.009255677461624146, -0.020281855016946793, -0.011038962751626968, 0.0038104949053376913, 0.011391725391149521, 0.00922077801078558, -0.009495574049651623, 0.009581704623997211, -0.007891776971518993]
