[-0.10164298117160797, 0.08733859658241272, 0.2414710372686386, 0.23530420660972595, -0.13037431240081787, 0.20189888775348663, 0.00958167016506195, 0.02027205377817154, 0.04663611948490143, -0.2386816293001175, 0.06737837195396423, -0.18196609616279602, 0.0802258774638176, 0.17390231788158417, 0.19991132616996765, -0.07266104966402054, 0.10909362882375717, -0.0007973187020979822, -0.33164674043655396, -0.2249899059534073, 0.26600217819213867, -0.10143676400184631, -0.1508011668920517, -0.16448259353637695, 0.25216659903526306, 0.1847437024116516, -0.016286257654428482, 0.0048746271058917046, 0.2725258469581604, -0.10915360599756241, -0.016190866008400917, -0.030813267454504967, -0.11570499837398529, -0.25591328740119934, -0.27977481484413147, 0.1905393749475479, -0.09357814490795135, -0.14338041841983795, 0.14957156777381897, 0.19051691889762878, -0.02481992356479168, -0.04190286248922348, -0.1483379602432251, 0.12186473608016968, 0.1967298984527588, -0.0972960963845253, 0.2903992235660553, 0.14123502373695374, -0.017161555588245392, -0.04839693382382393, 0.0038951109163463116, -0.17001625895500183, -0.2864554822444916, -0.2509309649467468, -0.2394460290670395, -0.18121755123138428, 0.09155891090631485, -0.027584262192249298, -0.08651528507471085, -0.01715506985783577, -0.1326560229063034, -0.07721559703350067, 0.2532064616680145, -0.011331134475767612, -0.16330333054065704, 0.18962880969047546, -0.30941328406333923, 0.19482479989528656, 0.06557121127843857, -0.1524578034877777, 0.1947232484817505, -0.08554385602474213, -0.009157098829746246, -0.21784020960330963, 0.09351523965597153, 0.20676423609256744, -0.2656196355819702, -0.05487888678908348, 0.15221714973449707, -0.18781088292598724, -0.14954248070716858, 0.2573719620704651, 0.1434384286403656, 0.004528159275650978, -0.050466082990169525, -0.2446480542421341, -0.24254783987998962, 0.1379036158323288, -0.0845014825463295, 0.11038348078727722, 0.1644587218761444, -0.08507326990365982, -0.29199057817459106, 0.20179328322410583, 0.040445778518915176, 0.021811598911881447, 0.2709726393222809, 0.2842886447906494, 0.2701019048690796, -0.01686280407011509, 0.12244069576263428, -0.12195490300655365, -0.23123328387737274, 0.2357083559036255, 0.006704710423946381, 0.12585954368114471, -0.06215926259756088, 0.0009802656713873148, -0.12105917930603027, 0.015419953502714634, 0.24099645018577576, -0.10007956624031067, -0.19186991453170776, 0.0919259786605835, -0.012279585935175419, 0.26925480365753174, -0.15384367108345032, -0.2504202127456665, 0.14098350703716278, -0.09867990016937256, 0.24978497624397278, -0.13785335421562195, 0.19950465857982635, -0.17473463714122772, -0.13429610431194305, -0.12508805096149445, -0.18605484068393707, -0.021240396425127983, 0.2580176293849945, -0.19075684249401093, -0.27364814281463623, -0.30462685227394104, 0.0396294891834259, -0.014665692113339901, -0.04647251218557358, -0.15290303528308868, -0.08314154297113419, 0.06924210488796234, -0.18588578701019287, 0.19094885885715485, -0.15308843553066254, -0.07685036957263947, -0.3411151170730591, 0.3032800853252411, -0.2698248624801636, -0.26118019223213196, 0.12021998316049576, 0.14679837226867676, -0.19329018890857697, 0.30805593729019165, 0.28968384861946106, 0.217425137758255, -0.27845901250839233, -0.21088679134845734, -0.076393261551857, 0.29273512959480286, -0.04943853244185448, 0.31270042061805725, 0.23719675838947296, 0.10998134315013885, 0.09856387972831726, 0.07380298525094986, 0.03649577870965004, -0.2812573313713074, 0.12636727094650269, 0.11820986866950989, -0.22503381967544556, -0.256339967250824, 0.23348568379878998, 0.2589520215988159, 0.11201445758342743, -0.12612712383270264, -0.1241472139954567, 0.07022393494844437, -0.16854116320610046, -0.17561383545398712, -0.2615068256855011, 0.10133957117795944, -0.019588926807045937, 0.2355339080095291, 0.25178173184394836, 0.20213542878627777, 0.004648102913051844, 0.3046318292617798, -0.3315579891204834, 0.16098561882972717, 0.16395610570907593, -0.009254594333469868, 0.013321996666491032, 0.20852495729923248, -0.1516948938369751, 0.31002089381217957, 0.07519590109586716, -0.28010740876197815, 0.06604252755641937, -0.13527122139930725, -0.13281795382499695, 0.16834908723831177, -0.04135269671678543, 0.29028376936912537, 0.2093585729598999, 0.2788730263710022, -0.14299586415290833, -0.11275959014892578, 0.15027113258838654, 0.021142344921827316, -0.13355721533298492, 0.17443719506263733, 0.3487926423549652, -0.2400212436914444, -0.18014276027679443, -0.3074457347393036, 0.24107003211975098, 0.31300845742225647, 0.26630207896232605, -0.2804420292377472, 0.08068599551916122, -0.026877980679273605, -0.26971182227134705, 0.21563869714736938, 0.37040263414382935, -0.10910923033952713, -0.17236053943634033, -0.3100748360157013, -0.10621937364339828, -0.17211583256721497, -0.30845895409584045, 0.2607418894767761, -0.2065608650445938, 0.13692300021648407, 0.18793942034244537, -0.10968004167079926, -0.15561707317829132, -0.2927475869655609, 0.23670773208141327, -0.0467020608484745, 0.13542737066745758, -0.2743028998374939, -0.2206961065530777, 0.06143191084265709, 0.09408266842365265, -0.029658475890755653, 0.15189725160598755, -0.26183807849884033, 0.25126126408576965, 0.1557510644197464, -0.04240439459681511, -0.006758504081517458, -0.15043985843658447, 0.19862258434295654, -0.052637215703725815, 0.10224467515945435, 0.2522910237312317, 0.14698147773742676, 0.25059664249420166, 0.07880455255508423, 0.1327790915966034, -0.11608197540044785, -0.08242790400981903, -0.1685996949672699, 0.07661515474319458, -0.24470870196819305, -0.2847832143306732, -0.28152042627334595, -0.1207004189491272, 0.22612708806991577, -0.09173271059989929, 0.07677344232797623, -0.26099732518196106, -0.1046898365020752, -0.22201740741729736, 0.20808041095733643, -0.26663392782211304, -0.11979687213897705, 0.18911297619342804, 0.14091777801513672, -0.059996917843818665, 0.08970888704061508, 0.10481296479701996, 0.218006432056427, -0.27732232213020325, -0.03976919874548912, -0.25617703795433044, 0.09751642495393753, -0.24412517249584198, 0.22506850957870483, 0.2717084586620331, 0.0503385029733181, 0.19090710580348969, 0.1780322641134262, 0.07774995267391205, -0.32797032594680786, 0.17190149426460266, 0.24799716472625732, -0.06182720512151718, -0.17221905291080475, 0.007743580732494593, 0.006154288537800312, 0.131259486079216, -0.032840047031641006, -0.06197059899568558, 0.27837446331977844, -0.20957522094249725, -0.1860930472612381, 0.009865464642643929, 0.1230987161397934, -0.26234760880470276, 0.12315545231103897, 0.18427346646785736, 0.2771002948284149, 0.00798353087157011, 0.23251426219940186, -0.15443819761276245, 0.2312120646238327, 0.28798606991767883, -0.03345833718776703, 0.24246127903461456, 0.1603166162967682, -0.26057007908821106, 0.21628044545650482, 0.019922159612178802, -0.05373033508658409, 0.224770188331604, -0.25042569637298584, -0.2180798202753067, 0.32436004281044006, -0.10120948404073715, 0.2824312448501587, 0.24288144707679749, 0.32631656527519226, -0.23914456367492676, -0.1270478069782257, 0.29826682806015015, 0.184812530875206, -0.025889532640576363, 0.09860703349113464, 0.20507970452308655, -0.362999826669693, -0.12577049434185028, -0.30908825993537903, 0.26567256450653076, 0.2341046780347824, 0.2964557111263275, -0.1355431228876114, 0.24252136051654816, -0.0811905562877655, -0.10014241933822632, 0.1785232424736023, 0.12804065644741058, -0.23096303641796112, -0.20470382273197174, -0.15583591163158417, -0.16384229063987732, -0.06423240900039673, -0.2311265766620636, 0.05799977481365204, -0.07658299803733826, 0.19296996295452118, 0.07653940469026566, -0.14883685111999512, -0.345567524433136, -0.2843078672885895, 0.0106667410582304, 0.007816030643880367, 0.2534387409687042, -0.23213721811771393, -0.26327240467071533, 0.06252562999725342, 0.1881442666053772, -0.31942394375801086, 0.060483042150735855, -0.25193488597869873, 0.10957389324903488, 0.023402675986289978, -0.11321208626031876, 0.02591746672987938, -0.17529577016830444, 0.352486252784729, 0.014371777884662151, 0.013487400487065315, 0.20619434118270874, 0.09329237043857574, 0.07307621091604233, 0.3023139536380768, -0.15127408504486084, 0.0062117609195411205, 0.0732235461473465, 0.073594830930233, -0.030132321640849113, 0.18266785144805908, 0.15311191976070404, 0.10496918857097626, 0.1720937192440033, -0.18746289610862732, 0.167301207780838, -0.201997771859169, 0.16196739673614502, 0.16806602478027344, 0.11611566692590714, -0.1694023162126541, 0.12732909619808197, 0.07939082384109497, -0.1597166657447815, -0.07428857684135437, 0.004599462263286114, -0.02875882387161255, -0.07139741629362106, -0.0838640034198761, 0.2517379820346832, 0.10689651966094971, 0.029281478375196457, -0.17183919250965118, 0.18377268314361572, -0.187997967004776, -0.30147454142570496, -0.042099617421627045, -0.03794422373175621, -0.011686735786497593, -0.013442501425743103, 0.19697575271129608, -0.25643181800842285, -0.1187661811709404, 0.1717875450849533, 0.12328077107667923, -0.04617440700531006, -0.234257772564888, -0.02418297715485096, 0.035221513360738754, 0.16405971348285675, -0.11023417860269547, 0.2729221284389496, 0.2666448652744293, 0.22295303642749786, -0.2195400595664978, 0.16618648171424866, -0.09963158518075943, -0.24057389795780182, -0.02840208262205124, -0.08504310995340347, -0.19732405245304108, 0.2893430292606354, -0.027101701125502586, -0.09180677682161331, 0.18509040772914886, -0.21321125328540802, -0.18007232248783112, 0.09026934951543808, -0.10044768452644348, -0.1930680125951767, -0.022149626165628433, -0.1979195475578308, 0.02196110039949417, 0.18949207663536072, -0.14399313926696777, -0.01650630310177803, -0.18782293796539307, -0.06421233713626862, -0.20865915715694427, 0.13330288231372833, 0.05732137709856033, -0.23886345326900482, -0.064499631524086, 0.040973812341690063, -0.23431013524532318, -0.15403887629508972, 0.22373157739639282, 0.021504322066903114, 0.06757515668869019, -0.04596142843365669, -0.031998712569475174, -0.09131927043199539, 0.1555427461862564, -0.22396856546401978, 0.24958312511444092, 0.1125582829117775, -0.2795184254646301, -0.09873457252979279, 0.04731489345431328, 0.15410852432250977, 0.2680567800998688, 0.027556298300623894, 0.1792396456003189, 0.15249696373939514, -0.01613667979836464, 0.15385206043720245, -0.06905156373977661, -0.1165456548333168, 0.15026289224624634, 0.2611343562602997, 0.1056072860956192, -0.20451441407203674, 0.19626063108444214, -0.2604677975177765, -0.0309179425239563, 0.06509000062942505, -0.2402716875076294, -0.1459856778383255, 0.09128197282552719, -0.25428950786590576, 0.2134973257780075, -0.18501593172550201, -0.012031838297843933, 0.19269415736198425, -0.09165162593126297, 0.23329651355743408, -0.2454710155725479, 0.13662508130073547, -0.029192395508289337, -0.023440854623913765, -0.1518498808145523, -0.2543541491031647, -0.031819868832826614, -0.17693684995174408, -0.023218786343932152, 0.23018687963485718, 0.23561158776283264, -0.006692006252706051, -0.0012672438751906157, 0.18904535472393036, 0.16058005392551422, 0.11046610027551651, -0.1781025230884552, 0.009881771169602871, -0.27473941445350647, 0.09644085168838501, 0.13406504690647125, 0.2577391266822815, -0.2087813913822174, 0.28385207056999207, 0.280760258436203, -0.31123924255371094, -0.04764406010508537, 0.07717477530241013, -0.27306586503982544, -0.2033117413520813, -0.07274027913808823, 0.09213356673717499, 0.03800978884100914, 0.26719212532043457, 0.012443982996046543, 0.24451129138469696, -0.21475207805633545, -0.022795628756284714, -0.0892912745475769, -0.25434884428977966, -0.2260848432779312, -0.20831461250782013, 0.007007119711488485, -0.02821464091539383, -0.22422681748867035, 0.030918948352336884, 0.18712271749973297, 0.0006670303991995752, -0.0700482726097107, -0.12563066184520721, 0.06621984392404556, 0.08987772464752197, -0.11530063301324844, 0.11271879076957703, 0.17605067789554596, 0.06336470693349838, -0.271605521440506, 0.06738285720348358, -0.10943344980478287, -0.07475399225950241, -0.007019095588475466, -0.197336807847023, -0.1535223424434662, 0.30612149834632874, 0.019986115396022797, -0.030133819207549095, 0.21667683124542236, -0.18175682425498962, -0.17022734880447388, 0.31420713663101196, 0.00525095546618104, -0.19083742797374725, 0.026489313691854477, -0.2860346734523773, 0.09341690689325333, 0.15133540332317352, -0.2377948760986328, 0.18976396322250366, -0.16491086781024933, -0.18234732747077942, -0.2190074324607849, 0.2465081512928009, 0.1350407898426056, -0.049691494554281235, -0.2227441370487213, 0.16538138687610626, -0.03609877824783325, -0.2824740409851074, 0.2115946114063263, -0.0014732957351952791, 0.260974258184433, -0.07669389992952347, 0.014430486597120762, -0.05649545416235924, -0.005641793366521597, -0.041791584342718124, 0.22959978878498077, 0.26820293068885803, -0.1623319387435913, -0.14501628279685974, 0.052245110273361206, 0.13534554839134216, 0.058325547724962234, 0.13250204920768738, 0.12110142409801483, 0.0011407308047637343, -0.08869307488203049, 0.25221073627471924, -0.10327721387147903, -0.09601087868213654, 0.200372576713562, 0.23256391286849976, 0.2535228431224823, -0.1856766939163208, 0.12473375350236893, -0.07405495643615723, 0.1453443169593811, 0.21298035979270935, -0.03221254050731659, -0.05938832089304924, 0.1746215522289276, -0.27486732602119446, 0.11199435591697693, -0.1372307986021042, -0.21482551097869873, 0.27547240257263184, 0.012180022895336151, 0.24222278594970703, -0.06839795410633087, 0.13090215623378754, -0.07198002934455872, -0.039129018783569336, -0.14109110832214355, -0.21977387368679047, -0.22930015623569489, -0.17079119384288788, 0.19978126883506775, 0.3291667103767395, 0.2957659363746643, -0.21623767912387848, 0.15659764409065247, 0.14734064042568207, 0.21400587260723114, 0.034999776631593704, -0.08164137601852417, 0.08169637620449066, -0.1123276799917221, 0.19718587398529053, 0.15148790180683136, 0.1379145234823227, -0.10302461683750153, 0.2290809601545334, 0.2336203157901764, -0.1232898011803627, -0.18376027047634125, 0.15395081043243408, -0.26838308572769165, -0.324203222990036, -0.07627018541097641, 0.18970946967601776, 0.014078897424042225, 0.04149964451789856, -0.13560178875923157, 0.23633703589439392, -0.1951402723789215, -0.1262737512588501, -0.24825572967529297, -0.05306653678417206, -0.18627233803272247, -0.18795016407966614, 0.03443456441164017, -0.24235621094703674, -0.08641937375068665, 0.304405152797699, 0.10078498721122742, -0.04721800237894058, -0.15009301900863647, -0.0799591913819313, 0.20914670825004578, 0.20751792192459106, -0.316951185464859, 0.1568494588136673, 0.17083154618740082, 0.22286099195480347, -0.04159665107727051, 0.14425502717494965, -0.2886911630630493, -0.2015622854232788, -0.13985921442508698, -0.18209950625896454, -0.09082788974046707, 0.304479718208313, -0.2216465324163437, -0.048388075083494186, 0.20301662385463715, -0.028523534536361694, -0.03132224828004837, 0.2282349318265915, -0.2010072022676468, -0.13490363955497742, 0.15076453983783722, -0.2734666168689728, 0.02608509734272957, 0.05017319694161415, -0.2998391389846802, 0.12635920941829681, -0.11655814200639725, -0.2596912682056427, -0.2597678303718567, 0.0825299322605133, 0.2440968006849289, -0.30486199259757996, -0.2649334669113159, 0.11444272100925446, -0.2734110653400421, -0.342835396528244, 0.13056086003780365, 0.16669970750808716, 0.26748499274253845, -0.30753299593925476, -0.24279916286468506, -0.25413596630096436, 0.07789140939712524, -0.18277381360530853, 0.03562559187412262, 0.16901762783527374, -0.07826167345046997, -0.2868502736091614, 0.11392267793416977, 0.17413698136806488, 0.1609555035829544, 0.34623274207115173, 0.3354184627532959, 0.09894789010286331, -0.03202389180660248, 0.2643339931964874, 0.0048935627564787865, -0.12305878847837448, 0.139765664935112, 0.23482780158519745, 0.26143306493759155, -0.19485299289226532, 0.2126806378364563, -0.11916352063417435, 0.039739787578582764, 0.1552864909172058, -0.08756496757268906, -0.06537528336048126, 0.31693872809410095, -0.2902054190635681, 0.060783397406339645, -0.042402345687150955, -0.06143106892704964, 0.30551382899284363, -0.14180198311805725, 0.31812337040901184, -0.14770127832889557, 0.31623154878616333, -0.12885211408138275, -0.009833702817559242, -0.2494567185640335, -0.11052891612052917, -0.20544596016407013, -0.004269493278115988, 0.2638508081436157, 0.1120242327451706, 0.18279141187667847, -0.29304230213165283, 0.017612570896744728, 0.15008410811424255, 0.058371689170598984, 0.2583604156970978, -0.30421215295791626, 0.19021384418010712, -0.1374019980430603, 0.20642231404781342, 0.22661183774471283, 0.25040316581726074, -0.08290638774633408, 0.2742919623851776, 0.17056934535503387, -0.19176091253757477, -0.14861924946308136, 0.14742115139961243, -0.29602015018463135, -0.13098619878292084, -0.25001978874206543, 0.06836297363042831, 0.11426159739494324, 0.24055266380310059, -0.24564635753631592, 0.26426246762275696, -0.2770392596721649, -0.054274797439575195, -0.08584518730640411, -0.32113197445869446, -0.09110134094953537, -0.2909301221370697, 0.08279886096715927, -0.061744071543216705, -0.12701252102851868, 0.17289738357067108, 0.28878888487815857, -0.05295199155807495, -0.0813707709312439, -0.12210038304328918, 0.2790448069572449, 0.12112882733345032, -0.2868146300315857, 0.09607774764299393, 0.2790626287460327, 0.27364566922187805, -0.04218978062272072, 0.11734398454427719, -0.13825491070747375, -0.1958881914615631, -0.018836533650755882, -0.05983613431453705, -0.0814424380660057, 0.1196189746260643, -0.2136879563331604, -0.15146243572235107, 0.12275679409503937, -0.0930003747344017, -0.0642903596162796, 0.15153880417346954, -0.28240251541137695, -0.3235678970813751, 0.291194349527359, -0.08933598548173904, 0.10215318202972412, 0.02617725171148777, -0.22543562948703766, 0.1419820487499237, -0.27465009689331055, -0.25052645802497864, -0.1947171688079834, 0.23741832375526428, -0.03317997232079506, -0.2390228658914566, -0.18832823634147644, 0.22113071382045746, -0.26671090722084045, -0.31989771127700806, 0.0475895069539547, 0.13791123032569885, 0.019449934363365173, -0.08775389939546585, -0.05040184035897255, -0.0327831394970417, 0.22871588170528412, 0.0033535975962877274, 0.17997373640537262, 0.1651906967163086, -0.00565279321745038, -0.15509440004825592, 0.09102526307106018, 0.05771053209900856, 0.26120316982269287, 0.2559068202972412, 0.2093650996685028, 0.18166959285736084, -0.13096576929092407, 0.045398641377687454, -0.05993235856294632, -0.024471258744597435, 0.2823202610015869, 0.023882869631052017, 0.19828109443187714, -0.17639762163162231, 0.2430332452058792, -0.2303178906440735, 0.12943704426288605, 0.02850022353231907, -0.18310625851154327, -0.20021307468414307, 0.29311037063598633, -0.2440607249736786, 0.019922642037272453, -0.13074108958244324, -0.07247000932693481, 0.07812042534351349, -0.21940751373767853, 0.0656670406460762, -0.20720702409744263, 0.18673531711101532, -0.29962682723999023, -0.14354652166366577, -0.29434001445770264, -0.08527586609125137, -0.042879946529865265, -0.14831051230430603, 0.1740860641002655, 0.28583818674087524, 0.31537625193595886, -0.31335607171058655, 0.16116473078727722, 0.032036300748586655, 0.04419323429465294, 0.16180646419525146, -0.12750089168548584, 0.1020822525024414, -0.308689147233963, 0.2379576563835144, 0.11672650277614594, 0.2593601644039154, -0.09026551246643066, 0.26075074076652527, 0.03716715797781944, -0.34423503279685974, -0.1475028097629547, 0.04880008101463318, -0.24070553481578827, -0.1360863596200943, -0.2169770449399948, 0.17886795103549957, 0.1878567487001419, 0.21311716735363007, -0.12369535118341446, 0.21137405931949615, -0.300014853477478, -0.22395630180835724, -0.0392158143222332, -0.2369169145822525, -0.19516359269618988, -0.08554820716381073, 0.228367879986763, -0.06600349396467209, -0.1616109311580658, 0.09468117356300354, 0.06939127296209335, -0.13552512228488922, -0.18010291457176208, -0.0794491097331047, 0.009481165558099747, 0.30151185393333435, -0.29238972067832947, 0.2857362627983093, 0.3005431294441223, 0.06048990786075592, -0.23759301006793976, 0.08670415729284286, -0.11140580475330353, -0.18863292038440704, -0.27302104234695435, -0.2594323754310608, -0.33890560269355774, 0.3424140512943268, -0.18638022243976593, -0.10280178487300873, 0.10124322772026062, -0.05622626468539238, -0.12717288732528687, 0.1478446125984192, -0.08635635673999786, -0.3025476336479187, 0.14394783973693848, -0.24738503992557526, 0.15613171458244324, 0.29424336552619934, -0.12930123507976532, 0.12680231034755707, -0.030536813661456108, -0.30395907163619995, -0.2224585860967636, 0.09025343507528305, 0.039162714034318924, -0.09273011237382889, -0.27258381247520447, 0.23548424243927002, -0.2010737806558609, -0.33724305033683777, 0.29544612765312195, 0.2685108184814453, 0.08861646801233292, -0.22967247664928436, -0.22714738547801971, -0.27493342757225037, 0.24834178388118744, -0.11399891972541809, 0.07696979492902756, 0.24535393714904785, -0.19538912177085876, -0.09784576296806335, 0.07113917917013168, 0.04703265801072121, 0.2625206708908081, 0.08270895481109619, 0.10762840509414673, 0.04860144853591919, -0.25418365001678467, 0.06830749660730362, -0.2077762931585312, -0.11125128716230392, 0.1339491903781891, 0.31056952476501465, 0.08086898177862167, -0.20647460222244263, 0.25549978017807007, -0.2096875160932541, 0.20354948937892914, 0.20473416149616241, -0.175429105758667, -0.026877252385020256, 0.1319216638803482, -0.045877646654844284, 0.1638983190059662, -0.3036380708217621, 0.0012118074810132384, 0.0711749792098999, -0.14031444489955902, 0.1446889340877533, -0.34712374210357666, 0.04862748831510544, -0.05322388559579849, -0.10328054428100586, -0.014285087585449219, -0.2695079743862152, -0.32922953367233276, -0.004512971732765436, 0.13907457888126373, 0.1737900972366333, 0.2664959132671356, -0.2385907918214798, 0.09821963310241699, 0.20318634808063507, 0.23521855473518372, 0.3021622598171234, -0.020838139578700066, 0.1862792819738388, -0.08858776092529297, 0.04357468709349632, 0.07985056936740875, 0.10095977038145065, -0.028754914179444313, 0.2637326717376709, 0.24980206787586212, -0.32193416357040405, -0.17986856400966644, 0.17270797491073608, -0.3143973648548126, -0.1444057673215866, -0.15649960935115814, 0.3298288881778717, 0.03848379850387573, 0.22812747955322266, -0.272865891456604, 0.15024080872535706, -0.29832878708839417, -0.048623815178871155, -0.11879701912403107, -0.18583141267299652, -0.24851547181606293, -0.11297290772199631, 0.3162471055984497, -0.18555885553359985, -0.14094236493110657, 0.0831042155623436, 0.2721955180168152, -0.03344680368900299, -0.15419170260429382, -0.25333118438720703, 0.2165430784225464, 0.2807983160018921, -0.19093751907348633, 0.22838179767131805, 0.02666611596941948, 0.24976253509521484, -0.27193331718444824, 0.09092538058757782, -0.1749309003353119, -0.13840240240097046, -0.08030054718255997, -0.1940208524465561, -0.12486621737480164, 0.14069108664989471, -0.12920299172401428, -0.2858137786388397, 0.21779035031795502, -0.20195770263671875, -0.2184859812259674, 0.34724703431129456, -0.27355170249938965, -0.31743350625038147, 0.2563070058822632, -0.31784817576408386, 0.037364695221185684, 0.0715455710887909, -0.28105345368385315, 0.17744114995002747, -0.21134617924690247, -0.1722826063632965, -0.07507084310054779, 0.19501425325870514, 0.10665702074766159, -0.11143271625041962, -0.12457415461540222, 0.18386812508106232, -0.3296090364456177, -0.34349486231803894, 0.2572137415409088, 0.09270750731229782, 0.0984974279999733, -0.22711685299873352, -0.023568205535411835, -0.2743719518184662, 0.16301795840263367, -0.19091473519802094, -0.0013626677682623267, 0.1575673371553421, -0.22980059683322906, -0.31049975752830505, 0.05318111181259155, 0.28704965114593506, 0.21688677370548248, 0.24869784712791443, 0.25624361634254456, 0.27165156602859497, -0.027676891535520554, -0.01103639230132103, -0.15318837761878967, -0.18609464168548584, 0.1834239512681961, 0.1897590607404709, 0.3170101046562195, -0.11892251670360565, -0.009544935077428818, -0.052755966782569885, 0.12333688139915466, 0.0336504764854908, -0.01224374771118164, -0.09844867885112762, 0.2053786963224411, -0.18995237350463867, 0.1885705143213272, -0.018397891893982887, 0.002616312587633729, 0.25684744119644165, -0.0029770322144031525, 0.20806574821472168, -0.2653798758983612, 0.03572617471218109, -0.046416036784648895, -0.1946001946926117, -0.054839201271533966, -0.14477896690368652, -0.298631876707077, 0.029496008530259132, -0.12288695573806763, -0.22110611200332642, -0.1926613301038742, 0.31954869627952576, -0.14514920115470886, -0.16593223810195923, -0.29129162430763245, -0.1179630234837532, 0.26777324080467224, -0.317067950963974, 0.2325223684310913, -0.33483344316482544, -0.24234601855278015, -0.24279479682445526, 0.19464591145515442, -0.09013635665178299, -0.059572476893663406, 0.2549103796482086, -0.00873046275228262, -0.073166124522686, 0.21352417767047882, 0.3181033134460449, 0.020158788189291954, -0.261954665184021, -0.005650179926306009, -0.08652700483798981, 0.2176980823278427, -0.08283817768096924, 0.07041135430335999, 0.10712897777557373, 0.24331437051296234, 0.2942856550216675, 0.044998444616794586, 0.20702014863491058, -0.264161616563797, 0.12125736474990845, 0.2641071677207947, -0.10196233540773392, -0.26130032539367676, 0.12453671544790268, 0.19321636855602264, 0.14644230902194977, -0.02698889933526516, -0.024024780839681625, 0.1396097093820572, -0.13876178860664368, -0.12853455543518066, -0.14404302835464478, 0.17105959355831146, -0.0016380840679630637, 0.3040187656879425, 0.11224088072776794, 0.0070037017576396465, 0.11983074992895126, 0.15440654754638672, -0.33300960063934326, 0.1667598932981491, 0.32051026821136475, -0.04747617244720459, 0.05849425494670868, 0.10311394184827805, -0.32901468873023987, 0.1695597916841507, 0.16480550169944763, -0.3319547176361084, 0.10492968559265137, -0.009901504032313824, -0.13078154623508453, 0.1626918911933899, -0.15373258292675018, 0.1834482103586197, 0.27240365743637085, 0.10825634002685547, -0.19662722945213318, -0.24754123389720917, 0.3315001130104065, 0.23754218220710754, -0.24794946610927582, 0.2329767644405365, 0.3780921995639801, -0.3440874218940735, 0.006778695620596409, -0.21561914682388306, 0.32348936796188354, 0.14353932440280914, 0.22433556616306305, -0.18556968867778778, 0.10215070843696594, -0.03299820423126221, -0.24914327263832092, 0.16029632091522217, 0.2118491232395172, -0.29196304082870483, -0.3666994869709015, -0.3573102653026581, -0.34137195348739624, -0.23730406165122986, -0.1248055025935173, 0.30156490206718445, -0.010042717680335045, 0.07144378870725632, 0.11719810217618942, -0.17544545233249664, -0.39113935828208923, -0.2938079237937927, 0.22688724100589752, -0.22641023993492126, 0.03967565298080444, -0.2041364461183548, -0.23436680436134338, 0.1097000315785408, 0.14637808501720428, -0.21554428339004517, 0.16051137447357178, -0.2104758769273758, 0.33004409074783325, 0.07284798473119736, -0.210540771484375, 0.24997632205486298, -0.3290506601333618, 0.19342395663261414, -0.24715107679367065, 0.09630466997623444, 0.08160852640867233, 0.24876698851585388, 0.34040921926498413, 0.2691046893596649, -0.15505610406398773, 0.28452175855636597, 0.24917343258857727, 0.02167145349085331, -0.31250670552253723, 0.10983479768037796, 0.11072978377342224, 0.3189501166343689, 0.25200092792510986, -0.23160678148269653, 0.16782355308532715, -0.14233964681625366, 0.13290317356586456, 0.25937196612358093, 0.22203266620635986, -0.1975032091140747, 0.2942669093608856, 0.0393441878259182, -0.10906799882650375, -0.04439816251397133, 0.007693622726947069, -0.016378790140151978, -0.297299325466156, 0.011812723241746426, 0.2801998257637024, 0.08939123898744583, -0.0034132821019738913, -0.005319606512784958, 0.0315852127969265, -0.08277179300785065, -0.05847065895795822, -0.15863429009914398, -0.16240856051445007, -0.14165134727954865, -0.048533253371715546, 0.2155427187681198, -0.11671781539916992, -0.004017780534923077, 0.31298092007637024, 0.23872123658657074, -0.21212327480316162, -0.13528773188591003, -0.18488824367523193, 0.10221043229103088, 0.21826210618019104, -0.2199074923992157, 0.14326827228069305, 0.004734334070235491, 0.15324348211288452, -0.05467543005943298, 0.10515608638525009, -0.1711447685956955, -0.0011104089207947254, -0.07317619770765305, -0.04133998602628708, -0.21287798881530762, 0.0488741509616375, -0.0916328877210617, -0.03284118324518204, 0.20390763878822327, -0.08283457159996033, -0.07904644310474396, 0.18769197165966034, -0.2852185070514679, -0.3066537380218506, 0.27333611249923706, -0.15026427805423737, 0.28882449865341187, 0.22772946953773499, -0.0629560649394989, -0.009106118232011795, -0.11942420899868011, -0.15968145430088043, -0.29595017433166504, 0.19229626655578613, 0.0239278431981802, -0.019765442237257957, -0.18704114854335785, 0.22344323992729187, -0.04074631631374359, -0.10372085124254227, 0.2895841896533966, 0.18586353957653046, 0.265245258808136, -0.19817142188549042, -0.22256231307983398, -0.14225934445858002, 0.08392085134983063, -0.09986133873462677, 0.12746328115463257, 0.17751513421535492, -0.08384817093610764, -0.20398269593715668, 0.06905216723680496, 0.1322876513004303, 0.26904794573783875, 0.12731491029262543, 0.029320113360881805, 0.22348177433013916, -0.05614573881030083, 0.18922600150108337, 0.02658267132937908, -0.010994463227689266, 0.29127222299575806, 0.27172595262527466, 0.19335085153579712, -0.29485034942626953, 0.13276265561580658, -0.2222013622522354, 0.17859649658203125, 0.09355347603559494, -0.06047634407877922, -0.29248514771461487, 0.26076510548591614, -0.29547202587127686, 0.26648226380348206, -0.1557142436504364, -0.05298181250691414, 0.18525069952011108, -0.1455727368593216, 0.19362618029117584, -0.252059668302536, 0.12797848880290985, -0.28975653648376465, -0.12964318692684174, -0.13575074076652527, -0.2885344326496124, -0.12316963076591492, -0.05714477598667145, 0.18712511658668518, 0.20165108144283295, 0.039280641824007034, -0.18344156444072723, 0.04555221274495125, 0.29067540168762207, 0.30204150080680847, 0.24814750254154205, -0.06247884780168533, 0.30379030108451843, -0.10557262599468231, 0.22552870213985443, 0.27952057123184204, 0.13823391497135162, -0.16125881671905518, 0.2507247030735016, 0.28199315071105957, -0.2798212468624115, -0.007394868414849043, 0.2884332835674286, -0.059149403125047684, -0.11062193661928177, -0.11505012959241867, 0.2161160558462143, 0.07025663554668427, 0.2022721916437149, -0.08276861160993576, 0.08948075771331787, -0.1738784909248352, -0.1567714363336563, -0.030042722821235657, -0.18846037983894348, -0.1732315719127655, -0.24169649183750153, 0.3025786876678467, -0.1262800395488739, -0.0774356871843338, 0.24013476073741913, 0.3007645905017853, -0.21821655333042145, -0.1863114982843399, -0.30552494525909424, 0.07628469169139862, 0.1503635048866272, -0.13282926380634308, 0.25528791546821594, 0.13922268152236938, 0.22624921798706055, -0.07147321850061417, 0.02840966172516346, -0.28841716051101685, -0.20761525630950928, -0.07595191150903702, -0.04844951257109642, -0.04227130860090256, 0.263614296913147, -0.029656996950507164, -0.052894555032253265, 0.02271433360874653, -0.25238633155822754, -0.021900255233049393, 0.15070021152496338, -0.1633451133966446, -0.0423419326543808, 0.25835222005844116, -0.31648701429367065, 0.21300874650478363, 0.2230181246995926, -0.2552541196346283, 0.050708282738924026, -0.06887494027614594, -0.025415286421775818, -0.1749466508626938, 0.16544096171855927, -0.0308552049100399, -0.054236430674791336, -0.16458508372306824, 0.23180483281612396, -0.21939510107040405, -0.21782222390174866, 0.14410479366779327, 0.13000322878360748, 0.08312257379293442, -0.03217022866010666, -0.21419410407543182, -0.2464754730463028, 0.17438699305057526, -0.2169891893863678, 0.2217164784669876, 0.22772789001464844, -0.08780088275671005, -0.2573707401752472, 0.20476405322551727, 0.30720385909080505, 0.3013947606086731, 0.24879944324493408, 0.1866416186094284, 0.19088634848594666, -0.19919784367084503, 0.04452231153845787, 0.018989380449056625, -0.10073453187942505, 0.2194788157939911, 0.10590165108442307, 0.2984495460987091, -0.1173599511384964, -0.010006897151470184, -0.013296972028911114, 0.11044320464134216, 0.13015438616275787, -0.07849912345409393, -0.09258325397968292, 0.026087069883942604, -0.2521187663078308, 0.23105281591415405, -0.14503483474254608, -0.030392294749617577, 0.10541623085737228, -0.04761406034231186, 0.07634124904870987, -0.24266330897808075, 0.27693796157836914, -0.06675159186124802, -0.1091497540473938, -0.07196411490440369, -0.30212756991386414, -0.22317719459533691, 0.21782657504081726, -0.12872061133384705, -0.2142333984375, -0.21900108456611633, 0.22837907075881958, -0.2716018259525299, -0.17814967036247253, -0.15904100239276886, -0.2627497613430023, 0.19172675907611847, -0.17090345919132233, 0.19368718564510345, -0.07943146675825119, -0.14719289541244507, -0.1283419281244278, 0.1618410050868988, -0.14931190013885498, -0.2488429844379425, 0.23588527739048004, 0.27480393648147583, -0.2415715605020523, 0.21254537999629974, 0.17818044126033783, 0.23174358904361725, -0.3198152184486389, 0.003598638577386737, -0.23636935651302338, 0.295662522315979, -0.1975153088569641, 0.17664290964603424, 0.19168008863925934, 0.2221105843782425, 0.18384385108947754, 0.07828361541032791, 0.15733465552330017, -0.3553211987018585, 0.2503569424152374, 0.15020506083965302, -0.08217736333608627, -0.21614959836006165, 0.10674416273832321, 0.08581414818763733, 0.161513552069664, -0.1597253978252411, -0.24549861252307892, 0.06143929436802864, -0.3024619221687317, -0.2813577651977539, -0.1492491215467453, 0.23275727033615112, -0.03163253888487816, 0.09562183171510696, 0.08120046555995941, 0.040174275636672974, 0.13381364941596985, 0.11859378963708878, -0.3336945176124573, 0.015597333200275898, 0.22522394359111786, -0.06569334119558334, 0.2211133986711502, 0.2787564694881439, -0.2653484642505646, 0.321830153465271, 0.2614385783672333, -0.16663271188735962, 0.31449076533317566, -0.01653362810611725, -0.2717932462692261, 0.09406457096338272, -0.18029624223709106, 0.05183238908648491, 0.07776238769292831, 0.34076303243637085, -0.12001980096101761, -0.2735142409801483, 0.25421565771102905, 0.10382549464702606, -0.06392841041088104, 0.20651505887508392, 0.2044408768415451, -0.2027958631515503, -0.16645608842372894, -0.3499307632446289, 0.21642601490020752, 0.13179272413253784, 0.25571081042289734, -0.09255332499742508, 0.0658450797200203, -0.25827378034591675, -0.08509659767150879, 0.28684985637664795, 0.17953597009181976, -0.1549028605222702, -0.1872178316116333, -0.09795504063367844, -0.21734969317913055, -0.2830201983451843, -0.2364794909954071, 0.23529136180877686, -0.01608043722808361, 0.009565907530486584, 0.21355757117271423, -0.2161189466714859, -0.35036152601242065, -0.04715985432267189, 0.18146616220474243, -0.061918679624795914, 0.26482701301574707, -0.012681422755122185, -0.279631644487381, 0.14459434151649475, 0.2912966310977936, -0.30100005865097046, 0.17710988223552704, -0.19170445203781128, 0.29563772678375244, 0.11697772890329361, -0.04484676569700241, 0.25249648094177246, -0.08726482838392258, 0.37348371744155884, -0.13507641851902008, 0.2254091501235962, -0.030160067602992058, 0.3045799434185028, 0.3200691342353821, 0.3580227792263031, -0.23839035630226135, 0.08532845973968506, 0.23313042521476746, 0.06953788548707962, -0.22728706896305084, 0.047080766409635544, 0.027471648529171944, 0.19632737338542938, 0.03137117624282837, -0.020396452397108078, 0.16511854529380798, -0.23182415962219238, 0.2743932902812958, 0.20000112056732178, 0.08101850748062134, -0.1823444813489914, 0.2013605535030365, 0.06401155143976212, -0.07894576340913773, -0.2743006646633148, -0.005509220063686371, -0.15612030029296875, -0.09144006669521332, -0.27391746640205383, 0.02404399774968624, 0.15609858930110931, 0.14659598469734192, -0.2761812210083008, 0.16106437146663666, -0.09639520943164825, -0.1091371476650238, -0.17434050142765045, -0.16877971589565277, -0.05658257007598877, -0.24095742404460907, 0.037335898727178574, -0.028790660202503204, -0.23661699891090393, 0.24551180005073547, 0.3064711093902588, -0.25660374760627747, -0.01400922890752554, -0.09611903131008148, 0.08514268696308136, 0.18109376728534698, -0.20951153337955475, 0.1898154616355896, 0.044864702969789505, 0.22524100542068481, -0.10753895342350006, 0.03917410224676132, -0.11715605854988098, -0.12926185131072998, -0.26629260182380676, -0.26514142751693726, -0.1365361213684082, 0.1321936994791031, -0.2618011236190796, -0.2510435879230499, 0.2608935236930847, -0.25906485319137573, -0.2028328776359558, 0.048384737223386765, -0.1311059594154358, -0.2163527011871338, 0.22437065839767456, -0.22292546927928925, 0.21651801466941833, 0.23068010807037354, -0.22194641828536987, 0.27537816762924194, -0.18951305747032166, -0.18389669060707092, -0.04602067172527313, 0.21547220647335052, -0.04626157134771347, -0.1321483999490738, -0.05754881352186203, 0.21867631375789642, -0.2646964490413666, -0.19417910277843475, 0.01755256950855255, 0.09335393458604813, 0.2703840732574463, -0.07323038578033447, -0.1932464838027954, -0.18031509220600128, 0.2796986699104309, -0.06514415144920349, 0.16100192070007324, 0.26393088698387146, -0.10419413447380066, -0.12833184003829956, 0.002599382074549794, 0.10928873717784882, 0.17330284416675568, 0.11609399318695068, 0.29151636362075806, 0.2033253014087677, -0.2613973021507263, 0.1859993189573288, -0.07714876532554626, -0.2578674256801605, 0.19902202486991882, 0.15060408413410187, 0.028112070634961128, -0.16128398478031158, 0.2243475615978241, -0.040898263454437256, 0.20639187097549438, 0.10152565687894821, -0.2152147889137268, -0.08589300513267517, -1.3331104128155857e-05, -0.1476263403892517, 0.1350395530462265, -0.20332223176956177, -0.24976448714733124, 0.10708454251289368, -0.15135428309440613, 0.09727375209331512, -0.1335546374320984, 0.2502329647541046, -0.2327057421207428, -0.11426521837711334, -0.13074226677417755, -0.08300510048866272, -0.23520076274871826, -0.25113818049430847, 0.012506444938480854, 0.25116193294525146, 0.008604521863162518, -0.2158033400774002, 0.20126338303089142, 0.12381250411272049, 0.13096697628498077, 0.1740676313638687, -0.25049299001693726, 0.11762890964746475, -0.2595391869544983, 0.1365729421377182, 0.11822304129600525, 0.11917190253734589, -0.16033510863780975, 0.104890838265419, 0.20024819672107697, -0.24246953427791595, 0.03223670274019241, 0.20906026661396027, -0.10698675364255905, -0.16182218492031097, 0.0005953737418167293, 0.05332525819540024, 0.0876745954155922, 0.14141547679901123, -0.17484411597251892, 0.135323628783226, -0.27593347430229187, -0.15239264070987701, -0.030678708106279373, -0.16406893730163574, -0.19570162892341614, -0.2257300168275833, 0.10057144612073898, -0.00503946328535676, 0.027819478884339333, 0.28612110018730164, 0.18429620563983917, -0.22934864461421967, -0.17153026163578033, -0.027600213885307312, 0.052642397582530975, 0.029809948056936264, -0.23234215378761292, 0.19491265714168549, 0.24367493391036987, 0.16313087940216064, -0.14203181862831116, 0.13265933096408844, -0.07136677950620651, -0.2542506754398346, -0.2463412582874298, -0.2559899389743805, -0.06607675552368164, 0.262919157743454, -0.14725105464458466, -0.046501994132995605, 0.16265444457530975, -0.2801116406917572, -0.05431908369064331, 0.1943419724702835, -0.2631993591785431, 0.0045996797271072865, 0.08127706497907639, -0.0937918871641159, 0.17094886302947998, 0.011086279526352882, -0.03441637009382248, 0.13891316950321198, -0.23529136180877686, -0.10556633770465851, -0.20441308617591858, 0.12959381937980652, -0.05500541254878044, -0.10057959705591202, -0.25169479846954346, 0.2360912710428238, -0.24482589960098267, -0.05758282542228699, 0.26435163617134094, -0.02112254872918129, 0.24302048981189728, -0.03018534928560257, -0.22122082114219666, -0.06507290154695511, 0.06914947926998138, -0.09262308478355408, 0.24274928867816925, 0.006687506567686796, -0.09841086715459824, -0.23162305355072021, 0.16219313442707062, 0.30008819699287415, 0.07494299113750458, 0.05187886208295822, 0.28855815529823303, 0.12879158556461334, -0.21347039937973022, 0.16437265276908875, -0.10452606528997421, 0.006574515253305435, 0.19204309582710266, 0.12640172243118286, 0.11577951163053513, -0.20480114221572876, 0.24097084999084473, -0.26207196712493896, 0.18992482125759125, 0.02456602454185486, -0.039019178599119186, -0.024019788950681686, 0.2625601291656494, -0.19054971635341644, 0.2318083792924881, -0.180933877825737, -0.02556842938065529, 0.0886269137263298, -0.13395895063877106, 0.2348431795835495, -0.21049776673316956, 0.010837813839316368, -0.06878256052732468, -0.06917129456996918, -0.18892636895179749, -0.15334396064281464, -0.28948837518692017, -0.2868468463420868, 0.10669613629579544, 0.26832664012908936, 0.31646883487701416, -0.22723722457885742, 0.05404265224933624, 0.08594278991222382, 0.10271529108285904, 0.03649173676967621, -0.1177983507514, 0.23763342201709747, -0.28943923115730286, 0.22513316571712494, 0.22294367849826813, 0.19668976962566376, -0.1508103609085083, 0.03073260933160782, 0.027550334110856056, -0.1412453055381775, -0.12854446470737457, 0.12402002513408661, -0.11488580703735352, -0.15822483599185944, -0.07505040615797043, 0.06879805028438568, 0.1769402176141739, 0.0977385938167572, -0.2717476785182953, 0.057846274226903915, -0.12436769157648087, -0.16948318481445312, -0.20504198968410492, -0.03570057824254036, -0.1852354258298874, -0.29326575994491577, 0.33439382910728455, -0.16489028930664062, -0.025193942710757256, 0.3148065209388733, 0.30797189474105835, -0.04055052995681763, -0.019461454823613167, -0.03847099095582962, 0.11652249842882156, 0.18639299273490906, -0.0492079071700573, 0.2406483143568039, 0.10759448260068893, 0.019628580659627914, -0.24362511932849884, 0.19522131979465485, -0.18176667392253876, -0.2200840413570404, -0.21104370057582855, -0.10686132311820984, -0.1806139349937439, 0.2525496184825897, -0.02631421759724617, -0.26491570472717285, 0.10526885837316513, -0.2453552931547165, -0.0768754705786705, 0.2394595444202423, -0.26111283898353577, -0.18240699172019958, 0.12363969534635544, -0.11095312982797623, 0.20469318330287933, 0.26964667439460754, -0.32250362634658813, 0.11628575623035431, -0.2120230495929718, -0.3013775050640106, -0.28317490220069885, 0.04922252148389816, 0.17232856154441833, -0.1940460205078125, -0.14716395735740662, 0.10843236744403839, -0.15937505662441254, -0.05533938854932785, 0.31084513664245605, 0.10488589853048325, 0.09649188816547394, -0.0563962385058403, -0.20514360070228577, -0.3308637738227844, 0.23487509787082672, -0.29496297240257263, 0.16874028742313385, 0.26007869839668274, -0.20272456109523773, -0.34283196926116943, 0.22250066697597504, 0.272031307220459, 0.2855951488018036, 0.13306714594364166, 0.04795381799340248, 0.3154561519622803, -0.2306041717529297, 0.04430938512086868, -0.0485425740480423, -0.07621069252490997, 0.10669983178377151, 0.2204999476671219, 0.18280234932899475, -0.22145402431488037, 0.2722429037094116, -0.14318370819091797, 0.1335369199514389, 0.15834775567054749, -0.09067569673061371, -0.22503067553043365, 0.02906101569533348, -0.15826624631881714, 0.2939888834953308, -0.13945762813091278, -0.05634038895368576, 0.29617583751678467, -0.3006286025047302, 0.3077765703201294, -0.33521440625190735, 0.03696843236684799, -0.17602308094501495, -0.03806351125240326, -0.18660040199756622, -0.27805235981941223, -0.13039171695709229, -0.2673141360282898, 0.2550993263721466, 0.01877717860043049, 0.18299496173858643, -0.12092624604701996, 0.08355782926082611, 0.10391147434711456, 0.041420724242925644, 0.0038016673643141985, -0.1845373511314392, 0.2909647822380066, -0.14231453835964203, 0.28126201033592224, -0.004495745524764061, 0.05271083861589432, -0.2709140181541443, 0.08480674773454666, 0.21391892433166504, -0.1477024108171463, -0.12830360233783722, 0.009815461933612823, -0.18606065213680267, -0.23678159713745117, 0.025486484169960022, 0.041928160935640335, 0.07051488757133484, 0.026134388521313667, -0.03284100815653801, 0.242801696062088, -0.05965796858072281, -0.1289556622505188, -0.1888512223958969, -0.0627419576048851, -0.17112335562705994, -0.21253716945648193, 0.278430700302124, -0.19402320683002472, -0.10187458246946335, 0.24405084550380707, 0.1625339388847351, -0.27901458740234375, 0.02926236391067505, -0.08356822282075882, 0.17349442839622498, 0.25108370184898376, -0.2575939893722534, 0.205295592546463, 0.18884451687335968, 0.19902914762496948, -0.047346070408821106, 0.07981518656015396, -0.17500527203083038, -0.1747279167175293, -0.013934338465332985, -0.17827066779136658, -0.23516586422920227, 0.2166140377521515, -0.22014307975769043, -0.28931835293769836, 0.09367308020591736, -0.07532347738742828, -0.1652587652206421, 0.15193061530590057, 0.0010461342753842473, -0.11708693951368332, 0.12752573192119598, -0.14448098838329315, 0.1041775792837143, 0.15771785378456116, -0.1804225593805313, 0.18027804791927338, -0.016827382147312164, -0.14232519268989563, -0.10256008058786392, 0.127732053399086, 0.20939365029335022, -0.08123107254505157, -0.26558026671409607, 0.1982475370168686, -0.09748432040214539, -0.2798013389110565, 0.18257707357406616, 0.03946402296423912, 0.23318089544773102, -0.036998309195041656, -0.05424720421433449, -0.13021080195903778, 0.05139990523457527, 0.003841591067612171, 0.17194414138793945, 0.09635036438703537, -0.13480007648468018, -0.007333377841860056, -0.0316145159304142, 0.11057992279529572, 0.12194548547267914, 0.0869653970003128, 0.1334182769060135, 0.17922191321849823, -0.24767303466796875, 0.19711914658546448, -0.18243294954299927, 0.025737352669239044, 0.05142123997211456, 0.26724499464035034, 0.22988680005073547, -0.09028936177492142, 0.16170617938041687, -0.0472177229821682, -0.033008214086294174, 0.09165884554386139, -0.21957801282405853, -0.08685576170682907, 0.1980440616607666, -0.27880987524986267, 0.2071431279182434, -0.021114788949489594, -0.02254030853509903, 0.2419125884771347, 0.02923131175339222, 0.24029958248138428, -0.1328534185886383, 0.01679452508687973, -0.05895930156111717, -0.17875325679779053, -0.18616259098052979, 0.003403153270483017, -0.12351295351982117, -0.12069834768772125, 0.25346246361732483, 0.08172208815813065, 0.08228553831577301, -0.23054714500904083, 0.05278104543685913, 0.06006883457303047, 0.17943130433559418, 0.09444701671600342, -0.0674297884106636, 0.1381996124982834, -0.24028748273849487, 0.23263470828533173, 0.19538849592208862, 0.12781530618667603, -0.2589026689529419, 0.09633270651102066, 0.0757870227098465, -0.17495064437389374, -0.10658466070890427, 0.17917653918266296, -0.2755476236343384, -0.1456838995218277, -0.04237032309174538, 0.18580326437950134, 0.08603529632091522, -0.010001547634601593, 0.004263389855623245, -0.0068549104034900665, -0.20309831202030182, -0.08922135084867477, -0.08759486675262451, -0.16658028960227966, -0.08016405999660492, -0.3011823892593384, 0.17665919661521912, -0.07608696818351746, -0.18033447861671448, 0.1537363976240158, 0.09032398462295532, -0.1428881734609604, -0.16417290270328522, -0.022709283977746964, 0.2577112317085266, 0.02600947953760624, -0.22670826315879822, 0.22595073282718658, 0.2762911915779114, -0.021400965750217438, -0.2926692068576813, 0.2035456895828247, -0.07675211131572723, -0.11661509424448013, -0.26999345421791077, -0.05102136731147766, -0.2849438190460205, 0.042167846113443375, -0.2784188985824585, -0.13341417908668518, 0.052109912037849426, -0.03987578675150871, -0.2791888415813446, 0.04269905760884285, -0.1675611436367035, -0.20213066041469574, 0.20465432107448578, -0.037907302379608154, 0.09177753329277039, 0.22437524795532227, -0.2715674340724945, 0.18297715485095978, -0.08842048048973083, -0.06707431375980377, -0.08059492707252502, 0.24448414146900177, -0.07754488289356232, 0.008932117372751236, -0.2290184199810028, 0.04728328436613083, -0.10333020985126495, -0.21672357618808746, 0.29534250497817993, 0.17814110219478607, 0.09692138433456421, -0.08834093809127808, -0.16628390550613403, -0.2474035769701004, 0.022377993911504745, -0.1738920658826828, 0.1763537973165512, 0.14065295457839966, -0.09788147360086441, -0.11578354984521866, 0.13570603728294373, 0.0672185942530632, 0.1739201545715332, 0.1638866513967514, 0.24245883524417877, 0.22028793394565582, -0.13807205855846405, 0.22500091791152954, -0.17137819528579712, 0.005840896628797054, 0.03956585377454758, 0.2581492066383362, 0.1460469365119934, -0.1767817586660385, 0.1339140236377716, 0.012109181843698025, 0.2752450406551361, 0.060969624668359756, -0.1573474258184433, -0.19695495069026947, 0.020286474376916885, -0.24344225227832794, -0.012452840805053711, -0.2659112513065338, -0.00709075853228569, 0.019216008484363556, -0.25759726762771606, 0.2321425974369049, -0.24629296362400055, 0.11930109560489655, -0.13584363460540771, 0.039559632539749146, 0.013003496453166008, -0.16066206991672516, -0.07208408415317535, 0.11084729433059692, -0.24968372285366058, -0.12077169865369797, -0.19725868105888367, 0.0894957110285759, -0.04303924739360809, -0.2605861723423004, -0.04762954264879227, 0.019442839547991753, 0.2180742472410202, -0.2369183748960495, 0.11043255776166916, -0.2648449242115021, -0.10729099065065384, -0.11229294538497925, 0.039197131991386414, -0.1378852277994156, -0.1976040154695511, 0.3373030126094818, 0.0052732923068106174, -0.1399284452199936, 0.11461697518825531, 0.08161859959363937, 0.12783271074295044, -0.3144887685775757, 0.03894058242440224, -0.010028216056525707, 0.28053009510040283, -0.24458761513233185, 0.1795138120651245, 0.2834557592868805, 0.2757664620876312, 0.24098744988441467, 0.0018248766427859664, 0.2702467739582062, -0.2452375441789627, 0.16051825881004333, 0.005547994747757912, -0.05542466416954994, -0.13997289538383484, 0.21684999763965607, 0.002868338953703642, 0.15962982177734375, -0.1123209297657013, -0.18120695650577545, 0.2634492516517639, -0.13535410165786743, -0.10612805932760239, -0.010899816639721394, 0.03611212968826294, -0.09732501953840256, 0.2367275059223175, 0.14391040802001953, 0.043111175298690796, 0.23748590052127838, 0.17932219803333282, -0.02910754829645157, -0.017226260155439377, 0.08772610872983932, -0.19145551323890686, 0.23215630650520325, 0.26648858189582825, -0.2338971197605133, 0.27472230792045593, 0.15796035528182983, -0.2097119390964508, 0.24451974034309387, 0.008986875414848328, -0.2626992166042328, 0.04425998404622078, -0.20802900195121765, 0.0019582111854106188, 0.20526254177093506, 0.09931785613298416, -0.16427667438983917, -0.026653598994016647, 0.22096489369869232, -0.005569548346102238, -0.23461835086345673, 0.286151260137558, 0.32101479172706604, -0.11378329992294312, -0.054531220346689224, -0.2273384928703308, 0.23849326372146606, 0.0889446958899498, 0.2078266441822052, -0.16444215178489685, 0.035338517278432846, -0.08450108021497726, -0.20305629074573517, 0.09275693446397781, 0.33096712827682495, -0.26617515087127686, -0.14495086669921875, -0.01948184333741665, -0.2104288935661316, -0.06297017633914948, -0.2803320288658142, 0.00022241382976062596, -0.03231595456600189, 0.2386944442987442, 0.2280840128660202, -0.19075824320316315, -0.21913078427314758, -0.20809343457221985, 0.23306162655353546, -0.15057092905044556, 0.10316816717386246, -0.05139029771089554, -0.0785842314362526, 0.24943871796131134, 0.17287509143352509, -0.2966097593307495, 0.14148306846618652, -0.1342812180519104, 0.18505826592445374, 0.13810306787490845, -0.25048211216926575, 0.21533383429050446, -0.15856726467609406, 0.30754154920578003, -0.15744948387145996, -0.05322928726673126, 0.21690130233764648, 0.19446296989917755, 0.2228938788175583, 0.12185394763946533, 0.13697801530361176, -0.27284878492355347, -0.22379890084266663, -0.2536652386188507, 0.17972397804260254, -0.18516743183135986, -0.06444045901298523, -0.23880741000175476, 0.013039113953709602, 0.16551673412322998, -0.24334841966629028, 0.30262258648872375, -0.33152785897254944, 0.00259919255040586, -0.22933940589427948, 0.18596529960632324, -0.08990882337093353, -0.23441311717033386, 0.3910456895828247, 0.002123966347426176, -0.22480228543281555, 0.1608361005783081, 0.08077371120452881, 0.13984635472297668, -0.20937228202819824, -0.15128901600837708, -0.008130663074553013, 0.1541522741317749, -0.22186706960201263, 0.2068605273962021, 0.26866772770881653, 0.11670462042093277, 0.22330771386623383, 0.191176638007164, 0.32552242279052734, -0.3212725520133972, 0.1983729898929596, 0.1217072531580925, -0.019515281543135643, -0.2014753520488739, 0.09238984435796738, 0.2780272364616394, 0.174681156873703, -0.22735658288002014, -0.12103138118982315, 0.04560902714729309, -0.26670098304748535, -0.050539009273052216, -0.07905959337949753, 0.2338828593492508, -0.07715233415365219, 0.2698894739151001, 0.24374091625213623, 0.13647152483463287, 0.08117783069610596, 0.07163921743631363, -0.3691490888595581, 0.17485298216342926, 0.20539750158786774, -0.013179090805351734, 0.0785508006811142, 0.192610964179039, -0.2816234827041626, 0.1433829367160797, 0.1861090213060379, -0.18938875198364258, 0.19471777975559235, -0.025423400104045868, -0.07469891011714935, 0.1344618946313858, -0.05031263455748558, 0.23144245147705078, 0.022283188998699188, 0.20211385190486908, -0.23591630160808563, -0.038686737418174744, 0.23135682940483093, 0.2606683373451233, -0.10951165854930878, 0.2612263858318329, 0.3175595998764038, -0.24715754389762878, -0.16858188807964325, -0.3398417830467224, 0.1745791733264923, 0.1732802540063858, 0.2547032833099365, -0.06321737170219421, 0.03465718403458595, -0.20978277921676636, -0.35111770033836365, 0.05205425247550011, 0.14645713567733765, -0.3320503234863281, -0.19935046136379242, -0.2907121777534485, -0.26937809586524963, -0.25608548521995544, -0.2022421658039093, 0.12386570125818253, -0.09194685518741608, 0.0903773084282875, 0.1944562792778015, -0.08420722186565399, -0.21334388852119446, -0.20441968739032745, 0.15557776391506195, -0.1421724259853363, 0.2824185788631439, 0.0015855311648920178, -0.05181330069899559, 0.061505287885665894, 0.1757259964942932, -0.03999747335910797, 0.33210012316703796, -0.1409095972776413, 0.01850895769894123, 0.022303061559796333, -0.26073920726776123, 0.023028261959552765, -0.12521539628505707, 0.2802238464355469, -0.22669634222984314, -0.015610500238835812, 0.02439112402498722, 0.2803323566913605, 0.3133743703365326, 0.17323273420333862, -0.23389272391796112, 0.006033122073858976, 0.0581546425819397, 0.1355651170015335, -0.22776350378990173, 0.07521586120128632, 0.01506146788597107, 0.20681460201740265, 0.017532657831907272, -0.12910595536231995, 0.14115120470523834, 0.01869427040219307, 0.12863785028457642, 0.2710391581058502, 0.28513506054878235, -0.12221554666757584, 0.2791327238082886, 0.15804849565029144, -0.03319587931036949, 0.019529925659298897, 0.09519071131944656, -0.0969039723277092, -0.27093783020973206, -0.03799721971154213, 0.15986023843288422, 0.13478988409042358, 0.23613318800926208, -0.23376116156578064, 0.2046000212430954, -0.2289101779460907, -0.18482571840286255, -0.26168620586395264, -0.07566183805465698, -0.12270031869411469, -0.19999335706233978, 0.1657305359840393, -0.11865296959877014, -0.21456584334373474, 0.05833326280117035, 0.09608099609613419, -0.2567283511161804, -0.11790800839662552, -0.11501646786928177, 0.050669074058532715, 0.09734947234392166, -0.04590409994125366, 0.13460829854011536, 0.0158671997487545, 0.20353467762470245, -0.2894321382045746, 0.027742626145482063, -0.03868381306529045, -0.2603170871734619, -0.15229791402816772, -0.056111566722393036, -0.11316607147455215, 0.30480659008026123, -0.11025916039943695, -0.1278824806213379, 0.17749400436878204, -0.06632257997989655, -0.1331712007522583, 0.1565762311220169, -0.0551033653318882, -0.25232136249542236, 0.2083960324525833, -0.21944884955883026, 0.018083039671182632, 0.26336196064949036, -0.27243077754974365, 0.2103320211172104, -0.15529391169548035, -0.19201365113258362, -0.014198439195752144, 0.061441730707883835, -0.03862590715289116, -0.263753741979599, 0.016970816999673843, 0.08149871975183487, -0.03813633695244789, -0.30489057302474976, 0.22051459550857544, 0.19505569338798523, 0.23980580270290375, -0.04999801144003868, -0.13199661672115326, -0.020670577883720398, 0.00023061719548422843, -0.06249598041176796, 0.12917716801166534, 0.1611546277999878, -0.14606203138828278, -0.23227520287036896, 0.01019996963441372, 0.12291830033063889, 0.30020514130592346, 0.186298206448555, 0.2630040943622589, 0.11235029250383377, -0.12863799929618835, 0.09889243543148041, -0.04093758016824722, -0.030590098351240158, 0.19847169518470764, 0.09853491187095642, 0.10097671300172806, -0.05457931384444237, 0.14695222675800323, -0.1988801211118698, 0.2342352718114853, 0.17608122527599335, -0.22375811636447906, -0.007690303958952427, 0.1486922651529312, -0.05341249704360962, 0.12477589398622513, -0.05255277082324028, -0.22945140302181244, 0.2091933637857437, -0.01975906454026699, 0.04903874173760414, -0.15283122658729553, 0.22190827131271362, -0.2616744041442871, -0.11337445676326752, -0.18001501262187958, -0.027603423222899437, -0.17041371762752533, -0.06062590703368187, 0.18175570666790009, 0.08580565452575684, 0.23771755397319794, -0.2153380811214447, 0.06381445378065109, 0.11745424568653107, -0.012177960015833378, -0.015814373269677162, -0.2119051218032837, 0.23385997116565704, -0.18211640417575836, 0.15641425549983978, 0.18659448623657227, 0.2902376353740692, 0.008363531902432442, 0.19561980664730072, -0.0031776020769029856, 0.010362986475229263, -0.10701023042201996, 0.09116554260253906, -0.026529861614108086, -0.2541627883911133, -0.09814148396253586, -0.011456119827926159, 0.21880725026130676, 0.1254994422197342, 0.05187445878982544, -0.029101435095071793, -0.09889599680900574, -0.13467952609062195, -0.0367327481508255, -0.24446770548820496, 0.04308246076107025, -0.2523305416107178, 0.05841661989688873, -0.09031745791435242, -0.03399474546313286, 0.14623777568340302, 0.2662140429019928, 0.0066907708533108234, 0.03984703868627548, -0.02169851027429104, 0.09538114070892334, 0.0896407961845398, 0.03204233944416046, 0.15859313309192657, 0.11010903120040894, 0.03534945845603943, -0.1759212166070938, 0.06922813504934311, -0.23049220442771912, -0.1328713744878769, -0.06972028315067291, -0.044641923159360886, -0.041044931858778, 0.00801465380936861, -0.16970287263393402, -0.18321989476680756, 0.051018040627241135, 0.01842667907476425, -0.06895428150892258, -0.025824109092354774, -0.16740310192108154, -0.12078218907117844, 0.24582190811634064, -0.08471181988716125, 0.1876077651977539, 0.08976200222969055, -0.09516225010156631, -0.0010402725310996175, -0.07172870635986328, -0.022042103111743927, -0.1280120611190796, 0.2334362268447876, 0.13964515924453735, -0.2333228886127472, 0.010703359730541706, 0.035041723400354385, -0.19070959091186523, -0.05125773325562477, -0.030111774802207947, 0.06680689007043839, 0.256729394197464, -0.24196460843086243, -0.23481400310993195, -0.17335756123065948, -0.0378236323595047, -0.1327643245458603, 0.07776006311178207, 0.23961569368839264, -0.10086540877819061, -0.20152953267097473, 0.1311677247285843, 0.1113828718662262, 0.0014863497344776988, 0.21694153547286987, 0.11738953739404678, 0.02478722110390663, -0.14892365038394928, 0.16062617301940918, 0.003851165296509862, -0.224528968334198, -0.00037761186831630766, 0.21577762067317963, -0.04091589152812958, -0.2146931141614914, -0.06482727080583572, -0.02831750363111496, 0.2385549694299698, 0.017334792762994766, -0.15649816393852234, -0.23536811769008636, 0.1262976974248886, 0.019338449463248253, 0.13375836610794067, -0.1683821976184845, 0.018533937633037567, 0.22716984152793884, -0.07954881340265274, 0.22212137281894684, 0.005472238641232252, 0.145509272813797, -0.19818267226219177, -0.12374421209096909, -0.13363496959209442, -0.008126204833388329, -0.01523849368095398, 0.32215991616249084, -0.22288763523101807, -0.10203959792852402, -0.11502549052238464, 0.3071741461753845, -0.2779364585876465, -0.1664143204689026, -0.11349344253540039, -0.15228907763957977, 0.23872500658035278, -0.26586905121803284, 0.3721558451652527, -0.14412185549736023, -0.27802741527557373, -0.28067275881767273, 0.2860952615737915, -0.2754143178462982, -0.22884555160999298, 0.4356183707714081, 0.329640656709671, -0.11303975433111191, 0.20669995248317719, 0.16456793248653412, 0.15690696239471436, -0.34041935205459595, -0.1426219642162323, -0.33264315128326416, 0.11522536724805832, -0.0906284749507904, 0.35599932074546814, 0.18574929237365723, 0.28659406304359436, 0.2703140377998352, 0.21201996505260468, 0.33850565552711487, -0.3808877170085907, 0.07842927426099777, 0.0819149985909462, -0.28548404574394226, -0.3210197389125824, 0.3599538505077362, 0.08823944628238678, 0.21005724370479584, -0.307053804397583, -0.21429450809955597, 0.11017797142267227, -0.3780674934387207, -0.34720832109451294, -0.11718176305294037, 0.30394962430000305, -0.07667724043130875, 0.193123921751976, 0.33579111099243164, 0.345930278301239, 0.24475032091140747, 0.24470771849155426, -0.20050504803657532, 0.21303942799568176, 0.31837955117225647, -0.07993347942829132, 0.13468265533447266, 0.3597322702407837, -0.13086223602294922, 0.28738459944725037, 0.15948452055454254, -0.34113430976867676, 0.30392569303512573, -0.19880370795726776, -0.43006640672683716, 0.3226129412651062, -0.24249757826328278, 0.11917625367641449, 0.15519963204860687, 0.28616443276405334, -0.19581925868988037, -0.11512966454029083, 0.15453097224235535, 0.13578276336193085, -0.33201342821121216, 0.37700825929641724, 0.28230249881744385, -0.364845871925354, -0.048195093870162964, -0.21393348276615143, 0.3411588966846466, 0.13340546190738678, 0.3824516832828522, -0.07425954192876816, 0.2289123237133026, -0.3733155429363251, -0.19823607802391052, 0.1433320939540863, 0.17594724893569946, -0.17075566947460175, -0.24539399147033691, -0.10021048039197922, -0.3392289876937866, -0.40860870480537415, -0.31944289803504944, 0.08993221074342728, -0.3338569700717926, 0.32034000754356384, 0.34011369943618774, -0.1390271633863449, -0.3849979639053345, -0.3775709569454193, 0.3428187966346741, -0.3333387076854706, 0.11146277189254761, -0.33855143189430237, -0.2163098156452179, 0.30888673663139343, 0.11058880388736725, -0.17501045763492584, 0.18564552068710327, -0.2519723176956177, 0.12782356142997742, 0.1663069725036621, -0.17402206361293793, 0.22312285006046295, -0.23240584135055542, 0.33369624614715576, -0.19229035079479218, 0.11597377061843872, 0.21686096489429474, 0.3282691240310669, 0.3970924913883209, 0.19459034502506256, -0.17833450436592102, 0.18358033895492554, 0.22164033353328705, 0.21025165915489197, -0.03478774428367615, 0.16338342428207397, 0.15277798473834991, 0.1407679319381714, 0.27001866698265076, -0.20188777148723602, 0.17041027545928955, -0.09118620306253433, 0.05350152403116226, 0.13498824834823608, 0.1486024558544159, -0.11276477575302124, 0.22609807550907135, 0.2733350098133087, -0.29673296213150024, -0.199760302901268, 0.06777244061231613, -0.14283210039138794, -0.004948924295604229, -0.1923508197069168, 0.22273576259613037, 0.25066545605659485, 0.11051265150308609, -0.08857182413339615, 0.011638781055808067, -0.1902591437101364, -0.012965340167284012, -0.1997649222612381, -0.08268836885690689, -0.05842335894703865, -0.21022741496562958, 0.04745472967624664, -0.18231026828289032, -0.09206666052341461, 0.15513838827610016, 0.06720390170812607, -0.04498064145445824, -0.16861937940120697, -0.27454710006713867, 0.18680503964424133, 0.11839026212692261, -0.2623783349990845, -0.0016186157008633018, 0.012463616207242012, 0.1635340303182602, -0.128899946808815, 0.1946982592344284, 0.003345536533743143, -0.1808096170425415, 0.02565031126141548, 0.006674758158624172, 0.005270607303828001, 0.2465939074754715, -0.0812322124838829, -0.21674032509326935, 0.04983924701809883, -0.19577771425247192, -0.1521291881799698, 0.22112244367599487, -0.27650657296180725, -0.18157221376895905, 0.19961467385292053, -0.07058916240930557, 0.23537717759609222, 0.24400559067726135, -0.006041068583726883, 0.05486699938774109, -0.14783689379692078, 0.018221432343125343, -0.25990599393844604, 0.16796833276748657, 0.09059549123048782, -0.20236077904701233, -0.15625768899917603, 0.25201839208602905, -0.05424732342362404, -0.29782363772392273, 0.13773667812347412, 0.19038201868534088, 0.08214234560728073, -0.142859548330307, -0.07628310471773148, -0.02467215061187744, 0.18861636519432068, -0.19501131772994995, 0.07881616055965424, 0.26730987429618835, 0.004771038424223661, -0.2136143296957016, 0.0482536256313324, 0.09276498109102249, 0.006916794925928116, 0.04148956760764122, -0.003979932051151991, -0.012622097507119179, -0.058978792279958725, 0.18767386674880981, -0.09450993686914444, -0.1815127730369568, 0.008284112438559532, 0.14957363903522491, 0.24904446303844452, -0.0774184837937355, 0.05547283962368965, -0.0968807265162468, 0.08893561363220215, 0.07455255836248398, 0.030238866806030273, -0.15278306603431702, 0.2479160577058792, -0.2385266274213791, -0.02080696076154709, -0.15158472955226898, -0.11200609058141708, 0.09937252849340439, -0.06201497092843056, 0.20906999707221985, -0.2402903139591217, 0.0842815414071083, -0.17947737872600555, -0.031890854239463806, -0.25223642587661743, -0.12051587551832199, -0.2622512876987457, -0.07297797501087189, 0.01639007404446602, 0.046128351241350174, 0.12992650270462036, -0.2882930636405945, 0.07255345582962036, 0.22079086303710938, 0.16349995136260986, 0.04424184933304787, -0.07527045905590057, 0.16594739258289337, -0.2768571674823761, 0.15653464198112488, 0.26871296763420105, 0.2592965066432953, -0.19562928378582, 0.1128975972533226, 0.145106241106987, -0.2106132060289383, -0.021019423380494118, 0.06092050299048424, -0.26575028896331787, -0.21488849818706512, -0.017017614096403122, 0.2769566476345062, -0.016360701993107796, 0.12015025317668915, -0.29190608859062195, 0.2699073553085327, -0.1596282571554184, -0.0801749974489212, -0.12756142020225525, -0.08889345079660416, -0.2649666666984558, -0.2132973074913025, 0.08570204675197601, -0.06676751375198364, -0.05735129490494728, 0.11979539692401886, 0.06888815760612488, -0.09710359573364258, -0.26238301396369934, -0.07768091559410095, 0.10225266218185425, 0.008586157113313675, -0.14792531728744507, 0.2414884716272354, 0.1410355567932129, 0.16827894747257233, -0.1797296106815338, 0.2544640898704529, 0.0040177758783102036, -0.2710990607738495, -0.235665962100029, -0.028197703883051872, -0.20610041916370392, 0.06236761435866356, -0.14460894465446472, -0.1648310422897339, 0.19648802280426025, -0.2810748815536499, -0.14564546942710876, 0.29061976075172424, -0.07475471496582031, -0.2558373808860779, 0.1830284595489502, -0.23011581599712372, -0.0027961847372353077, 0.27509361505508423, -0.006040041800588369, 0.04109710454940796, -0.0981222540140152, -0.09084208309650421, -0.1462426781654358, 0.07190971821546555, 0.07974264025688171, -0.2283405214548111, -0.12202641367912292, 0.051037807017564774, -0.310042142868042, -0.13436420261859894, 0.18529899418354034, 0.029005417600274086, 0.10069051384925842, -0.21938474476337433, -0.27919963002204895, -0.27043986320495605, 0.1952429711818695, -0.13284265995025635, 0.2715362012386322, 0.12740486860275269, -0.2036774903535843, -0.19970206916332245, 0.021479958668351173, 0.18156875669956207, 0.22862835228443146, 0.08246253430843353, 0.2341078370809555, 0.10045814514160156, -0.02558816783130169, 0.17400632798671722, -0.0870639979839325, -0.28391897678375244, 0.11887398362159729, 0.11535785347223282, 0.0026870693545788527, -0.07876965403556824, 0.11090504378080368, -0.037946667522192, 0.2591051757335663, 0.25697916746139526, -0.2361878752708435, -0.247360497713089, 0.21656754612922668, -0.21792007982730865, 0.2042841762304306, -0.2971175014972687, -0.14309066534042358, 0.011485286988317966, -0.05368117243051529, 0.25720226764678955, -0.22175298631191254, 0.2074933648109436, -0.009782754816114902, -0.16990147531032562, -0.10451338440179825, -0.32188916206359863, -0.2739277482032776, -0.22544753551483154, 0.08952174335718155, 0.1831083446741104, 0.19338783621788025, -0.15532149374485016, 0.1284293234348297, 0.18302108347415924, 0.2711888551712036, -0.011853955686092377, -0.09895003587007523, 0.07242776453495026, -0.2443695068359375, 0.08750718086957932, 0.19674541056156158, 0.08034934848546982, -0.06008346378803253, 0.18467910587787628, 0.06329161673784256, -0.2707573175430298, -0.01161479577422142, 0.19564831256866455, -0.10388496518135071, -0.15654905140399933, -0.27449071407318115, 0.20074208080768585, -0.021448597311973572, 0.05259806290268898, -0.21912328898906708, 0.08656954020261765, -0.07834462821483612, -0.2517993152141571, -0.2518133223056793, -0.08663918077945709, -0.1931401938199997, -0.0954115092754364, 0.2329213172197342, -0.06881900876760483, -0.25501030683517456, 0.27277421951293945, 0.28787392377853394, -0.01559519860893488, -0.24030731618404388, -0.11106276512145996, 0.23671481013298035, 0.2827039062976837, -0.06048791483044624, 0.27196240425109863, 0.15642036497592926, 0.21670424938201904, -0.04656565189361572, 0.17214322090148926, -0.09641190618276596, -0.22349847853183746, -0.0661330446600914, -0.22047726809978485, -0.04478401690721512, 0.19244705140590668, -0.2244102954864502, -0.22859935462474823, 0.21664012968540192, -0.23596343398094177, -0.0015127089573070407, 0.2841692268848419, -0.15537460148334503, -0.16737040877342224, 0.1621013879776001, -0.11772805452346802, 0.14272357523441315, 0.07174091041088104, -0.13095830380916595, 0.2541928291320801, -0.18124382197856903, -0.133523628115654, -0.1300339251756668, 0.00808186735957861, 0.17371711134910583, -0.20163384079933167, -0.1134863942861557, 0.14980536699295044, -0.05117029696702957, -0.039186690002679825, 0.29975441098213196, 0.1969403624534607, 0.07917468994855881, -0.14121493697166443, 0.006915450096130371, -0.048045169562101364, 0.0040941620245575905, 0.004386558663100004, 0.15577904880046844, 0.19415012001991272, -0.2127179205417633, -0.11358559131622314, -0.06269236654043198, 0.2383991777896881, 0.267286092042923, 0.2127034217119217, 0.028655754402279854, 0.17229227721691132, -0.06872028857469559, 0.17797918617725372, -0.01520614419132471, 0.007203055080026388, 0.1921079009771347, 0.19367600977420807, 0.06625333428382874, -0.28771838545799255, -0.01891295611858368, -0.20161685347557068, 0.24169425666332245, 0.2694881558418274, -0.12377949059009552, -0.0331757627427578, 0.2071635127067566, -0.20987798273563385, 0.11196766793727875, -0.23295414447784424, -0.19497574865818024, 0.26086387038230896, 0.02718295156955719, 0.2612873315811157, -0.06075569614768028, -0.018746288493275642, -0.11350268870592117, -0.023694481700658798, -0.17506511509418488, -0.08037526160478592, -0.24231688678264618, -0.12984414398670197, 0.12687945365905762, 0.2051522433757782, 0.25463178753852844, -0.12094605714082718, 0.3064320385456085, 0.20292969048023224, 0.3095833361148834, 0.10477127879858017, -0.1936396211385727, 0.17860953509807587, -0.24130560457706451, 0.30696460604667664, 0.10643457621335983, 0.3049638569355011, -0.25468072295188904, 0.26245373487472534, 0.1684526652097702, -0.19280986487865448, -0.08077428489923477, 0.24358369410037994, -0.028529902920126915, -0.3010695278644562, -0.23583629727363586, 0.2169460952281952, 0.22538594901561737, 0.11880236119031906, -0.29460135102272034, 0.13173514604568481, -0.08750495314598083, -0.3311886191368103, -0.1899424046278, -0.14932046830654144, -0.25912120938301086, -0.16301771998405457, 0.22772981226444244, -0.29481860995292664, -0.14647997915744781, 0.17171381413936615, 0.07821473479270935, -0.31161341071128845, -0.1447826325893402, -0.10370950400829315, 0.22287821769714355, 0.13107053935527802, -0.13921821117401123, 0.209052175283432, 0.0499834381043911, 0.06367163360118866, -0.07610134780406952, 0.11507236212491989, -0.2567595839500427, -0.10275984555482864, -0.02575877122581005, -0.23597650229930878, -0.25042590498924255, 0.2895696759223938, -0.18163827061653137, -0.24177105724811554, 0.2847248315811157, -0.020260727033019066, -0.04160979762673378, 0.19042958319187164, -0.05070488527417183, -0.17008379101753235, 0.2750946879386902, -0.12829259037971497, 0.22321666777133942, 0.33422911167144775, -0.23198378086090088, 0.20344918966293335, -0.08711649477481842, -0.1957637518644333, -0.2211780697107315, 0.30237114429473877, 0.1406555324792862, -0.1644577980041504, -0.30424821376800537, 0.024964017793536186, -0.30652979016304016, -0.11799970269203186, 0.2640344500541687, 0.17113372683525085, 0.06545684486627579, -0.020831994712352753, -0.1775645762681961, -0.15649576485157013, 0.26644542813301086, -0.28985655307769775, 0.05958075448870659, 0.32403436303138733, -0.18035192787647247, -0.14308424293994904, -0.020533984526991844, 0.3030536472797394, 0.04217962548136711, 0.2560233473777771, 0.21258440613746643, 0.2513028681278229, -0.21753737330436707, 0.018575061112642288, -0.13581180572509766, -0.21422643959522247, 0.3154960572719574, 0.197042778134346, 0.22333656251430511, -0.15195795893669128, 0.16104836761951447, -0.2325083613395691, 0.14991635084152222, 0.11419873684644699, -0.20413774251937866, -0.22867640852928162, 0.021453214809298515, -0.17103274166584015, 0.13328690826892853, -0.2906505763530731, -0.22828523814678192, 0.053125977516174316, -0.17912310361862183, 0.19277337193489075, -0.10603068023920059, 0.11042840033769608, -0.013387751765549183, -0.013740950264036655, -0.03521392494440079, -0.2928387224674225, -0.21919094026088715, 0.265607088804245, -0.21016353368759155, -0.10334787517786026, -0.14715485274791718, 0.16281260550022125, -0.0006050532683730125, -0.006347938906401396, -0.2623727023601532, -0.20665694773197174, 0.2082071304321289, -0.2857789695262909, 0.11432764679193497, -0.1268593668937683, -0.1632729023694992, -0.36078694462776184, 0.027758553624153137, -0.21705542504787445, -0.03165561333298683, 0.31941094994544983, 0.06793810427188873, -0.20398004353046417, 0.25792959332466125, 0.22672083973884583, 0.2491651028394699, -0.0975460484623909, -0.10668622702360153, -0.22765715420246124, 0.21104174852371216, -0.2695717513561249, 0.17449921369552612, 0.2750680446624756, 0.2001490741968155, 0.22811584174633026, 0.10584422945976257, 0.07870487123727798, -0.2868882119655609, 0.019332177937030792, 0.21319665014743805, -0.12391619384288788, -0.0632438138127327, 0.21734336018562317, 0.17457211017608643, 0.08262540400028229, -0.12636849284172058, -0.27455949783325195, 0.06371156126260757, -0.09957700967788696, -0.2780557870864868, -0.05275050923228264, 0.1664038449525833, 0.024507541209459305, 0.13213098049163818, 0.1649255007505417, 0.08025091141462326, 0.21068109571933746, 0.2536261975765228, -0.0781070739030838, 0.1887669414281845, 0.2615744173526764, -0.08251427859067917, 0.21185509860515594, 0.2010164111852646, -0.2516050338745117, 0.19554086029529572, 0.2864086329936981, -0.13659025728702545, 0.25667569041252136, -0.26229360699653625, -0.2683674395084381, 0.06721208989620209, -0.18354694545269012, 0.030150441452860832, 0.09876927733421326, 0.05994095280766487, -0.16293016076087952, -0.18980731070041656, 0.2542783319950104, 0.24490463733673096, -0.2892678678035736, 0.10693688690662384, 0.08849596977233887, -0.3572329580783844, -0.1973702609539032, -0.09552107006311417, 0.14303971827030182, 0.22197240591049194, 0.13363222777843475, -0.08441834151744843, 0.12714549899101257, -0.1460522562265396, -0.07152410596609116, 0.1766822636127472, 0.15982799232006073, -0.08438284695148468, -0.25230520963668823, -0.22994673252105713, -0.03937641158699989, -0.23607240617275238, -0.05129208415746689, 0.21191512048244476, -0.12841349840164185, 0.1660911738872528, 0.05805842578411102, -0.22707748413085938, -0.3109402656555176, -0.17232802510261536, 0.15021392703056335, -0.07520060986280441, 0.1450192779302597, -0.1516697108745575, -0.006739454809576273, 0.07768920809030533, 0.008565347641706467, -0.2302464097738266, 0.29935163259506226, -0.04110557213425636, 0.2893243432044983, 0.06082635000348091, -0.08051234483718872, -0.02107677236199379, -0.16997277736663818, 0.18653716146945953, -0.20388449728488922, 0.21497546136379242, 0.019982272759079933, 0.12687262892723083, 0.310928612947464, 0.08793898671865463, -0.028336400166153908, -0.11103865504264832, -0.06888420134782791, -0.08444519340991974, 0.035708650946617126, -0.13204823434352875, -0.16873718798160553, -0.1727876514196396, -0.08963143080472946, 0.25017526745796204, -0.16586686670780182, 0.21022355556488037, -0.04500272497534752, -0.07297759503126144, -0.3307180106639862, 0.17257606983184814, -0.05056218430399895, -0.20079876482486725, 0.2615644335746765, 0.11529833823442459, -0.16908863186836243, 0.09014534950256348, 0.12964089214801788, 0.0639265924692154, -0.2824796140193939, -0.1423710286617279, -0.19074490666389465, 0.12698456645011902, 0.01122978050261736, 0.07076608389616013, 0.2656268775463104, 0.11935964971780777, 0.053729310631752014, 0.1256328970193863, 0.10347814857959747, -0.2745058536529541, 0.12024955451488495, -0.06275688111782074, -0.023633593693375587, -0.2776983380317688, 0.24223704636096954, 0.20727868378162384, 0.23956045508384705, -0.11836651712656021, -0.2411876916885376, 0.23206418752670288, -0.2667361795902252, -0.14785203337669373, -0.0015575356082990766, 0.2533082067966461, -0.16709762811660767, 0.07035547494888306, 0.04427119717001915, -0.007257619872689247, 0.15576092898845673, 0.10713128745555878, -0.27569207549095154, 0.12258431315422058, 0.13262881338596344, 0.04771318659186363, -0.027092119678854942, 0.017552876845002174, -0.0707918256521225, 0.01389051228761673, 0.11325956881046295, -0.06370320916175842, 0.3141365349292755, -0.018238717690110207, -0.1625543236732483, 0.2526942789554596, -0.11516204476356506, 0.18148165941238403, 0.10327912867069244, 0.20709463953971863, -0.05372919887304306, -0.17803499102592468, 0.06803921610116959, 0.10667826235294342, -0.23918572068214417, 0.2682516574859619, 0.06634672731161118, -0.14963452517986298, -0.1633065938949585, -0.21040403842926025, 0.16919869184494019, 0.18618637323379517, 0.2405124306678772, -0.23404191434383392, 0.06861107051372528, -0.19003397226333618, -0.1648414433002472, 0.2485792338848114, 0.18436290323734283, -0.0012522401520982385, -0.2583218812942505, -0.26459431648254395, -0.11112083494663239, -0.18343140184879303, -0.12549102306365967, -0.019795382395386696, -0.09112843126058578, 0.0805491954088211, 0.008595265448093414, -0.0727742463350296, -0.2800530791282654, -0.03386571630835533, 0.23184171319007874, -0.14998558163642883, 0.20452667772769928, -0.030041828751564026, -0.07699701189994812, 0.26552614569664, -0.03828032687306404, 0.005185957998037338, 0.029353100806474686, -0.10776994377374649, 0.021300846710801125, -0.050683192908763885, -0.07990752160549164, 0.0806296095252037, -0.0348535031080246, 0.28887686133384705, -0.12585197389125824, 0.12895841896533966, 0.14816761016845703, 0.16136689484119415, 0.19115209579467773, 0.21698340773582458, -0.192057803273201, 0.22089111804962158, 0.2781689763069153, 0.17279940843582153, -0.22033409774303436, 0.21540842950344086, 0.23999471962451935, 0.29569390416145325, 0.09165845811367035, -0.1039346233010292, 0.20788069069385529, -0.24622583389282227, 0.19292721152305603, 0.20422415435314178, 0.2303551733493805, -0.03735193610191345, 0.11499335616827011, 0.23983129858970642, -0.10237741470336914, -0.11483816802501678, 0.10236210376024246, -0.15102609992027283, -0.21022552251815796, -0.011557282879948616, 0.30291804671287537, 0.08115529268980026, 0.19223856925964355, -0.03671374171972275, 0.16719725728034973, -0.031845517456531525, -0.08520462363958359, -0.29162004590034485, -0.20810569822788239, -0.07445080578327179, -0.26898711919784546, 0.2708623707294464, -0.20531414449214935, -0.03357639163732529, 0.23605617880821228, 0.16209931671619415, -0.2199045568704605, -0.13796749711036682, -0.2811235785484314, 0.0025844161864370108, 0.06871472299098969, -0.30638355016708374, 0.07430998980998993, 0.2134154587984085, 0.019297199323773384, -0.1316005140542984, 0.1645118147134781, -0.05347514897584915, -0.11517386883497238, -0.06204848736524582, -0.13281123340129852, -0.25705400109291077, 0.2509487569332123, -0.28615307807922363, -0.22587676346302032, 0.09821154922246933, -0.05331072583794594, -0.04640950262546539, 0.24563249945640564, -0.04191381484270096, -0.056935153901576996, 0.14621585607528687, -0.19927558302879333, 0.0031409431248903275, 0.06030704081058502, -0.23539552092552185, 0.12965801358222961, -0.15867285430431366, -0.14778976142406464, -0.2188001424074173, 0.10786161571741104, 0.21385923027992249, -0.1879001408815384, -0.09443005919456482, 0.0265502966940403, -0.27771976590156555, -0.16246198117733002, 0.26419466733932495, 0.02803279459476471, 0.26645568013191223, -0.06582529097795486, -0.2604551911354065, -0.07765775173902512, 0.21203133463859558, -0.1963285207748413, 0.1961844563484192, 0.2512038052082062, -0.2042645961046219, -0.1833740770816803, -0.050789445638656616, 0.29410842061042786, 0.10588949918746948, 0.3024253249168396, 0.09999815374612808, 0.13345898687839508, -0.1693420708179474, -0.028049800544977188, -0.10830226540565491, -0.027312029153108597, 0.05757889524102211, 0.21624702215194702, 0.0051500266417860985, -0.1471080183982849, -0.017742617055773735, -0.2571708559989929, -0.017504792660474777, 0.23120027780532837, -0.07091482728719711, -0.13152538239955902, 0.04214699938893318, -0.053572073578834534, 0.06669904291629791, -0.035372037440538406, -0.2612203061580658, 0.21059583127498627, -0.2305614948272705, 0.13936470448970795, -0.24518196284770966, 0.257234126329422, -0.24300287663936615, -0.07311764359474182, -0.06259387731552124, -0.2251463383436203, -0.2936955988407135, -0.28452268242836, 0.28280824422836304, 0.2792729437351227, 0.05401566997170448, -0.039674751460552216, 0.2802799344062805, 0.20063011348247528, 0.296906054019928, 0.2969517707824707, -0.16856862604618073, 0.13671571016311646, -0.09664128720760345, 0.19266177713871002, 0.1526518315076828, 0.2451104074716568, -0.17828433215618134, 0.15914210677146912, 0.23785974085330963, -0.15550802648067474, -0.0691218376159668, 0.06377274543046951, -0.10780957341194153, -0.1843664050102234, -0.2839806079864502, 0.16995592415332794, 0.2599703073501587, 0.0636976957321167, -0.11132661998271942, 0.1749463975429535, -0.15533527731895447, -0.11548925936222076, -0.15056931972503662, -0.24024800956249237, -0.21837851405143738, -0.22097861766815186, 0.2094075232744217, -0.02426626719534397, -0.2870192229747772, 0.027052832767367363, 0.11851457506418228, -0.21464727818965912, -0.032279904931783676, -0.24520358443260193, 0.15650993585586548, 0.1606512814760208, -0.03875478357076645, 0.3052195608615875, 0.1876450479030609, 0.2924603521823883, -0.053085993975400925, 0.09942852705717087, -0.07789181917905807, -0.16499397158622742, -0.0765203982591629, -0.07266499102115631, -0.05266408994793892, 0.045423977077007294, -0.2667331397533417, -0.2986450791358948, 0.23414568603038788, -0.07576967030763626, -0.2573937773704529, 0.3097754716873169, -0.19561150670051575, -0.10858983546495438, 0.22431688010692596, -0.18250605463981628, 0.23388755321502686, 0.2651696503162384, -0.12151072174310684, 0.031146658584475517, -0.16435527801513672, -0.2510415017604828, -0.27908262610435486, 0.027408862486481667, 0.11208124458789825, -0.17296956479549408, -0.2078898698091507, 0.1056603491306305, -0.09258341789245605, -0.10558629035949707, 0.0866793543100357, -0.02634359896183014, 0.033398475497961044, -0.1770644336938858, -0.20153528451919556, -0.04059594124555588, 0.0767660140991211, -0.08439260721206665, 0.2673865258693695, 0.25040245056152344, -0.06257206201553345, -0.2500775158405304, 0.06489615887403488, 0.20356573164463043, 0.2871592342853546, 0.14508892595767975, 0.1886254996061325, 0.10414046049118042, -0.2946631908416748, 0.01634005457162857, -0.04294170066714287, -0.07543285936117172, 0.03910541161894798, 0.2833724617958069, 0.28896820545196533, -0.19598789513111115, 0.039202697575092316, -0.17985568940639496, 0.055878084152936935, 0.00820368155837059, -0.30679360032081604, -0.2783726751804352, 0.21294252574443817, -0.20105873048305511, 0.05050166696310043, -0.03737616539001465, -0.2449386566877365, 0.2018732726573944, -0.038992300629615784, 0.052520595490932465, -0.15123490989208221, 0.1666344404220581, -0.10996957123279572, -0.23604422807693481, -0.022513173520565033, -0.21475842595100403, -0.2863747775554657, -0.22358272969722748, 0.1187611073255539, 0.2441045641899109, 0.03863731026649475, -0.16308164596557617, 0.08100961148738861, 0.2312822788953781, 0.3253154158592224, 0.04706556722521782, -0.03156226873397827, 0.17240066826343536, -0.2924172580242157, 0.11025025695562363, 0.09501723945140839, 0.1646312028169632, -0.22804783284664154, 0.29743731021881104, 0.2920830249786377, -0.33367475867271423, -0.13872292637825012, 0.18800273537635803, -0.12304282933473587, -0.30381065607070923, -0.1977013647556305, 0.05190600827336311, 0.16089986264705658, 0.2319323718547821, -0.1660073697566986, 0.1456935852766037, -0.15053169429302216, -0.28152772784233093, -0.03633507341146469, -0.18009093403816223, -0.23282629251480103, -0.14736570417881012, 0.1968075931072235, -0.19918465614318848, -0.1845998466014862, 0.1491190493106842, 0.2879892587661743, -0.23023739457130432, -0.013511918485164642, -0.12489929050207138, -0.0016008134698495269, 0.024378813803195953, -0.2984105050563812, 0.23554523289203644, 0.13005538284778595, 0.10246004164218903, -0.12037308514118195, 0.011791546829044819, -0.09229706227779388, -0.08033253252506256, -0.2353946566581726, -0.23490293323993683, -0.29405614733695984, 0.22500839829444885, -0.22312644124031067, -0.12440107017755508, 0.011689545586705208, -0.02136075496673584, -0.05148305743932724, 0.1827530562877655, -0.09994423389434814, -0.2934529781341553, 0.09057065099477768, -0.16145093739032745, 0.09780321270227432, 0.25298988819122314, -0.04575977846980095, 0.17523972690105438, -0.00501357764005661, -0.15316954255104065, -0.0771649107336998, 0.03814123198390007, -0.0049311150796711445, -0.24356088042259216, -0.1757703423500061, 0.0948558822274208, -0.18876396119594574, -0.14936771988868713, 0.09954525530338287, 0.06192778795957565, 0.03256409615278244, -0.07622873783111572, -0.015598521567881107, -0.20599067211151123, 0.2662052810192108, -0.16260169446468353, 0.2151949405670166, 0.30702337622642517, -0.15288452804088593, -0.302284300327301, 0.09335198253393173, 0.18850401043891907, 0.166422039270401, 0.19672328233718872, 0.11325423419475555, 0.10621108114719391, -0.1157878115773201, 0.025792306289076805, -0.23999805748462677, -0.07539571076631546, 0.061591580510139465, 0.0275734756141901, 0.03286011889576912, -0.2796044647693634, 0.24671661853790283, -0.052387889474630356, 0.11034571379423141, 0.07871533930301666, -0.23287630081176758, -0.10206028819084167, 0.2991935610771179, -0.32630518078804016, 0.16670721769332886, -0.29638463258743286, -0.02499471791088581, 0.07551438361406326, -0.2146766632795334, 0.14788469672203064, -0.3129821717739105, 0.3008166253566742, -0.009977612644433975, -0.27918189764022827, -0.029009560123085976, -0.30306532979011536, -0.22920137643814087, -0.1363000124692917, 0.012501206248998642, 0.2835817337036133, 0.223614901304245, -0.010204688645899296, 0.2721693813800812, 0.06748753041028976, 0.19361580908298492, 0.22562289237976074, -0.1390591710805893, 0.1567668914794922, -0.20389574766159058, 0.10276249796152115, 0.002770683728158474, 0.3326333463191986, -0.1324012726545334, 0.14137403666973114, 0.03857950121164322, -0.27196255326271057, 0.021513376384973526, 0.050834979861974716, -0.27139151096343994, -0.2990584969520569, -0.1195366233587265, 0.14287932217121124, 0.11340732127428055, 0.27219709753990173, -0.2819003164768219, 0.18233251571655273, -0.04707587510347366, -0.04208959639072418, -0.18806274235248566, -0.07923588901758194, -0.11951536685228348, -0.2691223621368408, 0.10253876447677612, -0.26337629556655884, -0.25906431674957275, 0.16184012591838837, 0.1703742891550064, -0.2762148678302765, -0.1147189512848854, -0.17373310029506683, 0.033134013414382935, 0.030147971585392952, -0.07745205610990524, 0.26817259192466736, 0.1977933645248413, 0.10448591411113739, -0.06657972931861877, 0.23488451540470123, -0.19663262367248535, -0.1482115238904953, -0.2626735270023346, -0.09834868460893631, -0.25209763646125793, 0.2982621490955353, -0.0984266847372055, -0.006571957841515541, 0.11951819807291031, -0.2911675274372101, -0.22907276451587677, 0.09655667841434479, -0.23329587280750275, -0.01540815643966198, 0.11857947707176208, -0.06096106767654419, 0.17444002628326416, 0.29717394709587097, -0.10952304303646088, 0.06863103061914444, -0.1708994209766388, -0.2620415687561035, -0.2290092408657074, 0.09520405530929565, 0.16765901446342468, -0.2784165143966675, -0.09657367318868637, 0.082171231508255, -0.25271493196487427, -0.24174238741397858, 0.13930319249629974, 0.13127993047237396, 0.19718529284000397, -0.19036056101322174, -0.08072633296251297, -0.022203408181667328, 0.2688119113445282, -0.06558486819267273, 0.2621857821941376, 0.047274064272642136, -0.16332389414310455, -0.17612558603286743, 0.036560043692588806, 0.20278707146644592, 0.1872556358575821, 0.289168119430542, 0.08943647146224976, 0.1743534654378891, -0.26942726969718933, 0.15977631509304047, -0.19100749492645264, -0.07776995003223419, 0.20390035212039948, 0.18260793387889862, 0.08592213690280914, -0.023113321512937546, -0.013532363809645176, -0.19083666801452637, 0.23634585738182068, 0.12281857430934906, -0.00016173093172255903, -0.01159512810409069, 0.29248952865600586, -0.2352285385131836, 0.12983497977256775, -0.2775006890296936, -0.20152685046195984, 0.20963992178440094, -0.2175070345401764, 0.1763514280319214, -0.3151228725910187, 0.016874026507139206, -0.25833845138549805, 0.02783942222595215, -0.00814005360007286, -0.27054381370544434, -0.28357261419296265, -0.12412527948617935, 0.1927948147058487, 0.07073456048965454, 0.04113340377807617, -0.06593876332044601, 0.17626874148845673, 0.23918916285037994, 0.05360455811023712, 0.22887396812438965, -0.1795072853565216, -0.008790810592472553, -0.20147569477558136, 0.18591783940792084, -0.026971042156219482, 0.3061448931694031, -0.000820058339741081, 0.08012957870960236, 0.07998455315828323, -0.09921251237392426, -0.005043596960604191, 0.17409572005271912, -0.2323898822069168, -0.09644351154565811, -0.18159621953964233, 0.1608276218175888, 0.16570739448070526, -0.018311012536287308, -0.06994186341762543, 0.08062849193811417, -0.18739673495292664, -0.26614826917648315, -0.10648829489946365, -0.052367836236953735, -0.13883516192436218, -0.005487808957695961, 0.26931032538414, -0.17474620044231415, -0.15743575990200043, 0.0723431408405304, 0.06954872608184814, -0.26113298535346985, -0.2569994032382965, 0.014902743510901928, 0.004282386973500252, 0.02977953478693962, -0.24570120871067047, 0.1627369076013565, 0.21087677776813507, 0.07424827665090561, -0.17732077836990356, 0.15007618069648743, -0.009620588272809982, -0.010420727543532848, -0.0008809154969640076, -0.14191271364688873, -0.13927175104618073, 0.2100680023431778, -0.22599782049655914, -0.1165010929107666, 0.21425820887088776, -0.036663152277469635, -0.19158874452114105, 0.007673479616641998, -0.2016155868768692, -0.04630256071686745, 0.03921370953321457, -0.22237245738506317, 0.0329577811062336, 0.15105248987674713, -0.22643770277500153, 0.1321009397506714, -0.24874456226825714, 0.024292077869176865, -0.033452000468969345, 0.01804320327937603, -0.014160623773932457, -0.1706031858921051, 0.018134409561753273, 0.22073470056056976, -0.07503211498260498, -0.06218259781599045, 0.2282980978488922, 0.05674535036087036, 0.15858812630176544, 0.007990487851202488, -0.10889651626348495, -0.15729618072509766, 0.10395430773496628, -0.02085757441818714, -0.0282386876642704, 0.23291346430778503, -0.23909339308738708, -0.10833857208490372, 0.21884053945541382, 0.2915048599243164, 0.18038488924503326, 0.1261020451784134, 0.24934259057044983, 0.18947361409664154, -0.1104167103767395, 0.0402190163731575, -0.20228509604930878, -0.18340332806110382, 0.2815525233745575, 0.13462142646312714, 0.24271124601364136, -0.20906206965446472, 0.1251671463251114, 0.018227629363536835, 0.2595142126083374, 0.26282477378845215, -0.037836916744709015, -0.23938752710819244, 0.07017883658409119, -0.1904786229133606, 0.14355593919754028, -0.2668992877006531, -0.20063862204551697, 0.12386400997638702, -0.12399046868085861, 0.10922352969646454, -0.10381672531366348, 0.24010241031646729, -0.08564714342355728, -0.025250328704714775, -0.07300419360399246, -0.08913040161132812, -0.16266576945781708, -0.023985838517546654, 0.03006117418408394, 0.09386997669935226, 0.266166627407074, -0.3266927897930145, 0.004258248955011368, 0.1920790821313858, 0.26141494512557983, -0.0016726243775337934, -0.2915964126586914, 0.1347232609987259, -0.1148216649889946, 0.15292902290821075, 0.2532861530780792, 0.24928797781467438, -0.31440702080726624, 0.2714586853981018, 0.24577389657497406, -0.0858575627207756, -0.04972388967871666, 0.028324251994490623, -0.08498463779687881, -0.20804037153720856, -0.22545337677001953, 0.28676632046699524, 0.19771240651607513, 0.1186944767832756, -0.2308080941438675, 0.1587747484445572, -0.25359657406806946, -0.03829849138855934, -0.2959740459918976, -0.022623013705015182, -0.03307368978857994, -0.07949132472276688, 0.28366735577583313, -0.027104271575808525, -0.20678073167800903, 0.21868687868118286, 0.1350305825471878, -0.2820378541946411, -0.25246626138687134, -0.15203972160816193, 0.026312459260225296, 0.14206041395664215, -0.156414195895195, 0.18609480559825897, 0.19147713482379913, 0.24769741296768188, -0.0998491495847702, 0.27587610483169556, -0.13935229182243347, -0.2979816496372223, -0.12665294110774994, -0.05643077194690704, -0.22554083168506622, 0.2724214494228363, -0.1551976054906845, -0.2056538462638855, 0.23447969555854797, -0.018012365326285362, -0.05053790658712387, 0.09597510099411011, -0.30927157402038574, -0.18302209675312042, 0.021323906257748604, -0.2467082291841507, 0.18656808137893677, 0.30593904852867126, -0.28054073452949524, 0.2688460052013397, -0.2209523618221283, -0.23684062063694, -0.2545948326587677, 0.2014487385749817, 0.06370795518159866, -0.13399691879749298, -0.21586346626281738, 0.2614581882953644, -0.21326479315757751, -0.14799298346042633, 0.1205897405743599, 0.15176622569561005, 0.22557705640792847, -0.2606644928455353, -0.15238776803016663, -0.20593605935573578, 0.11058717966079712, -0.24036817252635956, 0.15403933823108673, 0.16672438383102417, -0.1538119614124298, -0.14983423054218292, 0.14385351538658142, 0.11552264541387558, 0.32566967606544495, 0.08723035454750061, 0.2580410838127136, 0.2693776488304138, -0.2386365532875061, -0.02022595889866352, -0.12005182355642319, -0.22713083028793335, 0.31198275089263916, 0.2367822229862213, 0.13247205317020416, -0.07469917833805084, 0.04421151429414749, -0.26897740364074707, 0.005866117309778929, 0.16234420239925385, -0.1315414309501648, -0.07305234670639038, 0.06260283291339874, -0.23625490069389343, 0.1572273224592209, -0.2417081594467163, -0.20481233298778534, 0.10495425760746002, -0.24660709500312805, 0.12312546372413635, -0.31878748536109924, 0.29096031188964844, -0.14284786581993103, -0.16772697865962982, -0.105037160217762, -0.24430091679096222, -0.12074004858732224, 0.27098870277404785, -0.018998321145772934, -0.2247462272644043, -0.023053951561450958, 0.19152158498764038, -0.029132360592484474, -0.19876769185066223, -0.22657297551631927, -0.06230005994439125, 0.24316658079624176, -0.3030391037464142, 0.2709505259990692, -0.3027496933937073, -0.23825880885124207, -0.28902748227119446, 0.2860810458660126, -0.12347773462533951, -0.01949370838701725, 0.07310177385807037, 0.13549800217151642, -0.20960338413715363, 0.031026175245642662, 0.1501385122537613, 0.05591065064072609, -0.048304542899131775, -0.18432417511940002, 0.016107583418488503, 0.058004144579172134, -0.19551509618759155, 0.2325737476348877, 0.24232274293899536, 0.28137651085853577, 0.02529238909482956, 0.01508196908980608, 0.021290211006999016, -0.04354638606309891, 0.24624909460544586, -0.03186298534274101, -0.14183743298053741, -0.30764684081077576, 0.10875599831342697, 0.18007074296474457, 0.11088796705007553, -0.042330075055360794, -0.19790802896022797, 0.10844677686691284, -0.14596600830554962, -0.08517013490200043, -0.11587654054164886, 0.13948364555835724, -0.06865353882312775, 0.20598742365837097, 0.25696974992752075, 0.2671942412853241, 0.016773229464888573, 0.023443132638931274, -0.18379458785057068, 0.010996934957802296, 0.1905142217874527, 0.006114561576396227, 0.26466548442840576, 0.1256791204214096, -0.21216276288032532, 0.0575631819665432, 0.15093092620372772, -0.22741958498954773, 0.11849154531955719, -0.20980830490589142, -0.2895372807979584, 0.2736561596393585, -0.28188633918762207, 0.24694164097309113, 0.17938973009586334, 0.2578884959220886, -0.008755755610764027, -0.16854430735111237, 0.1684378683567047, 0.1878276765346527, -0.1357828974723816, 0.23892977833747864, 0.08204270154237747, -0.09057128429412842, 0.049507882446050644, -0.3045479655265808, 0.20607084035873413, 0.19003145396709442, 0.17188826203346252, -0.16827534139156342, 0.033084623515605927, -0.08428700268268585, -0.06907636672258377, 0.02462739869952202, 0.12894007563591003, -0.18392358720302582, -0.2977084815502167, -0.05346083268523216, -0.10653357952833176, -0.16038624942302704, -0.24317170679569244, 0.05077584460377693, -0.04232778772711754, 0.11864309757947922, 0.11947820335626602, -0.22451157867908478, -0.2604455053806305, -0.01829891838133335, 0.13778658211231232, -0.21178478002548218, 0.09271445125341415, -0.04839519038796425, -0.2129814773797989, 0.1771278828382492, 0.09894642978906631, -0.2215161770582199, 0.29402872920036316, -0.06936580687761307, 0.2181517481803894, -0.03603370115160942, -0.1779937446117401, 0.22842849791049957, -0.09839379787445068, 0.15462958812713623, -0.23301514983177185, 0.2097402960062027, -0.024575363844633102, 0.08025941252708435, 0.2855411171913147, 0.1914026439189911, 0.17812760174274445, -0.29189038276672363, -0.30555763840675354, -0.19721435010433197, 0.23364683985710144, -0.07173515111207962, -0.12967559695243835, -0.17236484587192535, -0.24627825617790222, 0.1854587346315384, -0.23989257216453552, 0.12499077618122101, -0.3233538866043091, -0.058784373104572296, -0.3687300980091095, 0.33361944556236267, -0.3194999694824219, -0.265276700258255, 0.4131150245666504, 0.20757216215133667, -0.044993069022893906, 0.3087978959083557, 0.3372768461704254, 0.06935487687587738, -0.17006368935108185, -0.07830816507339478, -0.2628796398639679, 0.21370352804660797, -0.26194268465042114, 0.19316452741622925, 0.3039378821849823, 0.16865479946136475, 0.24856773018836975, 0.15776710212230682, 0.2196034938097, -0.24082817137241364, 0.23093275725841522, 0.19575123488903046, -0.10250967741012573, -0.32609108090400696, 0.3417150378227234, 0.07265345007181168, 0.07337138801813126, -0.26140105724334717, -0.32795900106430054, 0.337182879447937, -0.16165772080421448, -0.32626476883888245, -0.2867274880409241, 0.21597012877464294, -0.24193696677684784, 0.1088765487074852, 0.28912559151649475, 0.24026137590408325, 0.037687405943870544, 0.27579373121261597, -0.17849107086658478, 0.24309678375720978, 0.19530518352985382, -0.04414224997162819, 0.19902566075325012, 0.10928626358509064, -0.23930208384990692, 0.09943497180938721, 0.15213215351104736, -0.08513528853654861, 0.3241420090198517, -0.22461168467998505, -0.18522357940673828, 0.2409529983997345, -0.12977994978427887, 0.2732064425945282, 0.16090835630893707, 0.17475377023220062, -0.18598918616771698, 